
-0.4590000000000000	-0.0330000000000000	-0.1660000000000000	0.0000000000000000	-0.3310000000000000	0.2240000000000000	-0.0220000000000000	-0.1420000000000000	0.4620000000000000	-0.0360000000000000	0.2050000000000000	-0.3550000000000000	-0.2186310251376448	0.3276020820793956	0.4607709331912013	-0.0090095444503666	0.4950000000000000	0.4420000000000000	0.3270000000000000	-0.0640000000000000	-0.1090000000000000	0.1040000000000000	0.4020000000000000	-0.3470000000000000	-0.2080000000000000	-0.1180000000000000	-0.0790000000000000	0.2160000000000000	
0.2180000000000000	0.3950000000000000	-0.0530000000000000	0.2260000000000000	0.2709338658683182	0.0378099410410828	0.3701601169544290	0.4141586481269909	0.1678828328345298	-0.2014116062268770	-0.4655592170031144	0.3912450576944431	0.1962763153102343	0.3073960464797669	-0.1781530354642073	-0.1634442677837694	0.1714995956749728	0.1635308997125093	-0.3528281187402433	0.2188810130307295	-0.2394113050548862	0.3785310378680885	0.0495560513299237	0.1443327589737793	0.1620000000000000	0.2570000000000000	-0.4630000000000000	0.3590000000000000	
0.2230000000000000	0.2410000000000000	0.0288788721973978	0.2777706587748274	-0.1842583719844721	-0.4650494642676273	-0.3085341366316714	0.3458179193209809	-0.2074906451360274	-0.3952586425542381	-0.4727009163658690	0.4150361855856314	-0.2663781774548830	0.1239288355084978	-0.0904248748314333	0.2859668496949469	0.3953888472546157	0.2821788163976076	-0.0813010795428986	-0.1068565465325415	-0.4709704969738850	-0.3699731955826076	-0.0916177610414902	0.0552349695938602	0.1302321239979260	0.1222731583956825	-0.4160000000000000	0.4540000000000000	
0.2560000000000000	0.3400000000000000	0.4643332051363016	-0.1250301775527883	0.4325191112433948	-0.1884006825899512	0.4491214443332395	-0.0626696060185717	0.1162133759435632	-0.1867946667800786	0.0338473620335272	-0.0116178795529195	-0.4500105579770055	-0.4828445765868726	0.3788253636948971	0.0302482045412426	0.2891198822620559	-0.3679261306953782	0.2026540517356215	0.2060661118602997	0.2712248793958362	0.5435967404550757	0.5355819347470020	-0.1736962350888819	0.1807272407048217	-0.1134040152731296	-0.4755970637589674	0.2450000000000000	
0.4240000000000000	-0.4280279852609824	-0.2347689141975789	0.3281140298528069	0.2767160720607825	0.0643244773985392	-0.4215905090401555	-0.0026723287346689	0.4446521861629975	-0.2279548538914155	-0.3765026081963743	0.0854677003991076	-0.2527673492907099	0.1568028458298104	0.1543908407152452	0.0835013061851625	-0.4721689189372383	-0.4109748255354033	-0.1484645026347610	-0.3887475826923287	0.4120309007351635	0.3377191660162821	0.5575708444434513	0.0236895695239571	-0.3147462492433285	-0.2837106608104830	-0.4923083301078187	-0.1622350098785163	
-0.0430000000000000	-0.2130000000000000	0.2522158067916799	-0.1210830690996711	0.4251055811258884	0.3866777193275357	-0.3235873062248467	0.2315794422372675	-0.2844960256405128	0.1362372636314296	-0.0395704969930333	0.5042371008889089	0.1025770588613608	-0.2966080420743638	0.0147913468435533	-0.3912107432103675	0.3607782184806362	0.1255915278450133	0.3161065820699867	0.1738380648991092	-0.0381388714978230	-0.1010669808157125	0.2462315251240144	0.2095653505511407	0.1734015238886879	0.0260807048510083	0.1053517947750855	-0.4557192402871773	
0.1020000000000000	-0.1500020731943947	-0.2061177109534734	0.3189086531370554	-0.1651188894548074	-0.4984604081877433	0.0721426337659906	-0.5016481166071601	-0.1593730727595348	-0.2492811207292931	0.2144606141346464	0.0262653513572735	0.0270576102156542	0.4990258347224018	-0.2424973522424872	0.5254924087535865	-0.2246391546337726	0.3106618200954441	0.3506618681463941	0.3674393098748563	-0.2904484961270585	0.0299869355762600	0.4054764682544833	0.6116836070820485	0.3658970761122635	0.0831733038904144	0.3361278184403138	-0.0711946033513210	
-0.1900409407789153	0.1169785690385187	0.3084511390798060	-0.0112992854692705	-0.2566419830337777	0.0875870279983379	0.3601480593676114	-0.1096644429900603	0.0816571451003430	-0.2278361571789127	0.0013026564467878	0.1172091890840008	0.3892502125777042	-0.1221720658213044	-0.2217215478907325	-0.4501558621479084	0.2693405268176362	0.0576169045776887	0.5104889615456794	0.1936299326785178	-0.1938923830104809	0.0977290904992798	-0.2361298836081794	0.0725095283313250	0.2240659072807014	0.2086110424597904	-0.1343685319448572	0.0076801679019261	
-0.0522045096206553	-0.3000430066269606	-0.0525777704991014	0.0959400091611654	0.0094410167480553	0.2364732641436509	0.1991410329073114	-0.3542046652794114	-0.0592512701686566	0.2313332416322881	-0.5697616913859312	-0.2863949984950975	-0.0510465431322075	0.0053372915501665	-0.1697273837054091	-0.3493400618147467	-0.6285516867269703	-0.4089743899269996	-0.3279310731893730	0.1617612663094964	0.5067464323974770	-0.2358682618479004	0.3669790309813307	0.4963658079643192	-0.1763818586949278	0.1228832391920200	-0.2699151472208550	0.1349714480383401	
-0.2280229627569824	-0.4426653831012017	-0.1753213848125358	0.1256954406431923	-0.1662303259251466	0.3188571113494648	0.2541313350432645	-0.2115449738993951	0.2269334957093780	-0.5002980157166769	0.1240754736255981	-0.1735030790351789	0.2660034396631125	0.3641089410888910	-0.3371584038409645	-0.0678582820485407	-0.6686858518793015	0.1455359258764002	0.0605152736822766	-0.0934451749478603	0.2797075897692030	-0.1307440723647344	-0.4854347408196670	0.1718939628334570	0.2435631862596395	0.1358950215636995	-0.4786248186790982	0.3702755068639091	
0.3610125676127533	0.1880019481531877	-0.1031198904914749	0.2754513395949338	-0.2407813499838195	-0.1450517126915968	-0.6258509708400780	-0.0333652992222429	-0.4288282241510752	-0.3616110964657778	-0.5692228369750730	-0.1989917263653909	0.1316232719026302	0.4022374146461636	0.3358753336841077	0.3727565073388311	-0.3668744886445617	-0.2799040854752064	0.3161721193442950	-0.3949461358374097	0.2310449037481358	-0.4460044040590347	-0.3411711652602359	0.0482798479606870	-0.0173235880270670	0.1596410771539201	-0.0322363504267901	0.0508999635898914	
-0.0590426198875639	0.0115909199366133	-0.3592050992664628	-0.4508819560706994	0.2042258837451023	0.1947754725298373	-0.4446780133040644	-0.2054813266894571	-0.4070870746679300	0.2453794753690708	0.0208294504140273	-0.1191552942666718	0.1693233393736277	0.1792256786028995	0.4256852385692174	0.4327093428115757	-0.2724613364576812	-0.2353059214891499	-0.1474114438276816	-0.1264575518933853	-0.5771211473730272	-0.7557984556289947	-0.3694002153653766	-0.4217953796025749	-0.1113338822234714	0.2606581834071135	-0.3719196854800282	0.2016855540062954	
-0.1840125508766637	0.1699473313430923	0.2835984191618158	-0.2412897498939980	-0.2213650851923396	-0.1955058417276705	-0.3700990235285462	-0.5775334563214957	0.2039687979645451	0.0066282588270363	0.2097657721825704	0.4525764662847896	-0.0195069413220435	0.4841228447834058	-0.0882137185161878	0.1330610444665598	0.1159138245660111	0.4144701431104418	0.0060388492763110	-0.3703150107820041	-0.4226668203038478	-0.5871939479307189	-0.7407737302732327	-0.6033420606099712	-0.1108798100658682	-0.0860604163415621	-0.3293943824105440	-0.0355883530469832	
-0.4560451425812611	0.1578911389815006	-0.2103096058215619	-0.0684074343381698	-0.2859609718791428	-0.5077426124441239	-0.4269636809120575	-0.1513629427972109	-0.0271673390865263	0.0061677270422242	-0.2924133111029105	-0.1528857469353719	0.0977754532018591	-0.4119388384792251	-0.3763522777655683	-0.4697633238711776	0.2297767119737825	0.3530445580884528	0.3871898252266358	-0.0348668060034131	-0.2041267196564135	-0.0137332131363389	-0.2657235426519232	-0.3077650809647824	-0.3302979727279108	0.2711615616796983	-0.1796539096646173	0.3680782716577010	
-0.1278191164827386	-0.3412863082430038	0.3318725487818421	-0.4373910709518535	-0.0437043977183110	-0.2678832398092355	-0.1125023235484688	-0.5705084926490591	-0.0431394655198759	-0.3945517129681100	0.2338822899715922	0.0369705754486809	-0.3657180234711738	0.4545937388024557	-0.4117951554005680	-0.0911563406388841	-0.3647724849844350	0.0313092129177201	0.2605872636378333	-0.2337035209937901	0.1708807348922621	0.1210783287632305	-0.1388601348318698	0.2505059976076793	-0.5929211808797032	0.4278819165972627	-0.4592725124842375	-0.3191450896663266	
-0.4969487382227266	-0.0677640473236397	0.0041886435437546	0.0940153308988991	0.1895519330055072	-0.5661336917253921	-0.1382067442840988	-0.6472421287080173	-0.6047657407087725	-0.3826343595788469	-0.5369947815199134	0.2086747991964621	-0.3292337862931607	-0.1618598239945631	-0.1060578569811778	0.3004226146826339	-0.4604877922683646	-0.3378831141558593	-0.2237146533068899	0.4689412377637713	0.3809998457725229	0.3468137974116048	0.2643681234903971	0.0651992142175011	-0.2765281965590626	0.0150357941866754	-0.3844099831653024	0.1911205411283093	
0.1949544824623621	0.1245018178613168	-0.4837896065591687	-0.3595607735425112	0.0775434143849406	0.1593453815858488	0.0687899651364705	-0.4583844209841897	-0.4108888859325969	-0.1714421480004447	0.0597646743454997	-0.0674589202316310	0.3104760976672306	0.0507934285993638	-0.5584200670941193	-0.1391240319120088	-0.4980086245893782	-0.3086426417386433	0.3769494761778002	-0.2551909521882407	-0.2857378824033821	0.4233408359946131	-0.5583094915227478	0.1957692187429211	-0.3553910317713657	-0.2229000833581382	0.0527375425033408	-0.2797312809513007	
-0.4570000000000000	0.2581322106937897	-0.3377271570933052	-0.3513940308888254	0.4347969549329028	-0.3426399770873370	0.1472963442635150	-0.1028298578919677	-0.0472234488511178	-0.1165753585356017	0.0527900089905697	0.0570795148751117	0.1256172771083988	0.4225335126652335	-0.0973040511756011	-0.0117847546702933	0.3023840661521367	0.5474504888467722	-0.1966606096154866	0.3054241301884489	0.4119666422875449	-0.2125960274086242	-0.3798247473692331	-0.0169056100490110	-0.2668061315049972	-0.2588867157902009	-0.3042620708251987	-0.3873625347149493	
-0.4705833404632002	-0.1740626705862844	-0.4905196291157923	0.3305924581499581	-0.0200621108819735	0.1507594744770744	-0.2199005143694738	0.0317194043157945	0.2715845677626269	0.3491979815951324	-0.4238865107466192	0.1138085576975518	0.4454735370982220	0.3619231179248277	0.1561101274755244	0.3588760584567040	0.2687132967314264	0.1938898508772222	0.5561816448522798	0.2577316492724835	0.0558731631691370	-0.4536565854474964	-0.1220415502884504	-0.3221765054388100	-0.4520074774053198	-0.0674281258983469	-0.2034921323824666	0.2570557052812818	
-0.1429999879261351	-0.1750214009632697	-0.0065848676161545	-0.3178294006576511	-0.2950256262073246	0.5131366117565878	0.4017572460324745	0.3344378634408897	-0.0405834994278003	-0.0814836439328529	0.4664122458871250	-0.1221171356952901	-0.0552537307838247	0.0181367975116574	-0.3915144192348688	0.2273414496277966	0.2999919816392513	-0.1061408400196828	-0.2516949655861521	0.0265625308487083	0.4171767360666297	-0.0371869765575908	-0.0448062037846361	-0.3271839553377736	0.1275395880422251	-0.1479963367274757	0.0168906058302934	-0.1435767928876753	
-0.1630000000000000	-0.2302397384960428	0.3832051450704935	-0.0805855123856838	0.5042093582795757	-0.3857319404038821	0.2000109879230142	-0.4224642608665841	0.1718149696230654	0.1658020095378122	0.1464788434686042	-0.4152735031018234	-0.1628047898608877	-0.4512068455827312	-0.3453630066414201	0.0421092349964638	0.0095867157253976	0.5959308113386655	-0.1184335763766517	0.4799303639252818	-0.4303460091966653	0.3626577021936548	0.0328933942750338	0.2250768187629158	0.1552608034515559	0.4674817302617507	-0.0460250621703985	-0.1310605525781645	
0.0319664298914950	0.4626479400984926	0.1060268811297307	-0.0079310683082386	0.4954809638058812	0.1843535801731245	-0.3728273939664326	0.3840346209188860	0.2300635646326077	0.4779750924316304	-0.1598462817984077	-0.1206322262618040	0.2842639445473619	-0.0542072375968808	0.2329138913235157	-0.2572472358364709	-0.0450168292396448	0.3675862910051590	-0.2255313950795396	0.3727431192830883	0.0553067029113023	0.4114956829855990	-0.3232685738971612	0.2736656222327005	0.3552823172045467	-0.1132685316363221	-0.2238045689870539	0.2011023036171989	
-0.3070325210426142	0.2339749837942419	0.1355142164513574	0.0373059897164445	0.1149182783286609	0.5183460197289775	-0.3530297822146540	0.1615245377704801	0.3860806056598315	0.0411101274361460	0.4379354802896720	-0.0177065969807751	-0.0246460107248610	0.0529409872477032	0.4217664009150445	0.4509769539369323	-0.2762359929651976	0.1021849772251190	0.1242262615440981	0.3831982283209114	-0.1005549187667540	0.1513979477657905	0.2243442818316538	-0.0867424665140399	-0.2194285730642124	0.1603813781727272	-0.4613700819483690	-0.1868111317836330	
0.3750000000000000	-0.4280000000000000	0.3212553283795345	0.1217073399907276	-0.4407515981679472	0.4967444530192699	-0.3552869365761275	0.1529028503556759	-0.3091863109164184	0.4655632818356875	-0.3307340559466959	0.0643890293380977	0.2461529957508015	-0.3161755089338731	0.2319917378202915	0.1554805734342931	0.5248010659270179	-0.3270789722881131	-0.1837516909186916	-0.1926036846792070	0.1495553830328843	0.2035168509991352	-0.4984023108121282	-0.2754741096958641	-0.1959545006764622	0.2383368007203027	-0.3096417186269864	0.1050000000000000	
-0.2360000000000000	-0.3190000000000000	0.0047867398773063	0.3408939999362466	0.2725712114992416	0.1157275007950986	-0.1656606438627792	0.5442245650574891	0.1463789086396086	0.2372115391709933	0.2415225362069593	0.2454345831877431	0.0920707769362365	0.1554690974080134	-0.2523469463030893	-0.3134098432504020	0.2811353772581366	-0.3874305773522614	0.0675310474747307	-0.4131050265008853	-0.2811895185090922	0.1508638626833349	-0.2958259105948212	0.4819610796072152	0.3189146372911198	0.0976754408933935	-0.1080425879157214	0.2590000000000000	
0.1700000000000000	-0.0720000000000000	-0.4727594615218209	-0.4128308120894458	-0.4314241307761659	0.2692744907743416	-0.0148240880223182	0.4422193109351459	-0.2439993457197275	0.4030402680316536	0.2055668093498788	0.0738255646366136	-0.1905035788215901	0.1941296923433539	0.1341446202009442	-0.2287661368603850	-0.5911358906188219	-0.4294917217066826	-0.0733126067497907	-0.2738732654406630	-0.3419596556073725	0.0338140077802631	0.1273619259421167	0.4207808923172189	0.0933865230870875	0.2039932935498548	0.3179924447207218	-0.2680000000000000	
0.2500000000000000	-0.2950000000000000	0.4750000000000000	0.0390738233188276	-0.1976161756786658	-0.0756656554181673	-0.4117158787640885	-0.2727811215077498	0.0348607042947538	0.1010350619345983	0.4238110945214829	0.3041771544861913	0.3555987138240405	-0.4711486313201760	-0.0154370299464049	0.1381052066415359	-0.0139573928984243	0.1234650805247559	0.2215248530504264	-0.2568063659088619	0.0140254863376413	0.4797873820860576	-0.2119349234564663	0.4436749293687584	0.3649766990841245	0.0399942272258492	-0.2550000000000000	0.0080000000000000	
-0.1820000000000000	0.3700000000000000	0.1010000000000000	-0.1770000000000000	-0.3678932244980329	-0.0277099446143205	-0.3484736798541848	-0.4168143390213647	0.0669004777189528	0.2637325519252997	0.4000640174497836	-0.3990630364174209	-0.0819356825320331	0.0250102646952693	0.0882178992479472	0.4610294870680289	-0.4911908182638242	0.0615757243875576	-0.4760798755276242	0.0429605389453164	-0.1528849939317233	-0.4185784367693056	0.4390159678866827	0.1369933004257405	-0.0910000000000000	-0.0370000000000000	-0.4510000000000000	0.1810000000000000	

0.0880000000000000	-0.1580000000000000	0.1080000000000000	-0.4400000000000000	-0.2790000000000000	0.2580000000000000	0.4540000000000000	0.3880000000000000	-0.3540000000000000	0.1900000000000000	0.4490000000000000	0.3430000000000000	-0.0710647390241520	0.1174542571079311	0.2477614899590246	-0.4330099379183739	0.0360000000000000	0.2830000000000000	-0.4650000000000000	-0.2740000000000000	-0.3150000000000000	-0.4620000000000000	0.3530000000000000	0.1290000000000000	-0.2760000000000000	0.2480000000000000	0.4230000000000000	-0.1410000000000000	
-0.2430000000000000	0.2660000000000000	0.4440000000000000	0.4550000000000000	-0.1820376483830389	0.2258489007321284	-0.0924570785797907	-0.4825309957698665	-0.1571882749529888	-0.5044299178713556	0.0402160470047903	-0.0111071809371801	0.0728663554222184	0.0066283817400901	0.4631070201401371	-0.1721152214237604	-0.4279094855900409	0.4128352358086914	-0.3637315663204259	-0.3186470860809966	0.4382441703312475	-0.4343204759483215	-0.0810363028937657	0.1041699926828246	-0.3270000000000000	-0.0710000000000000	-0.0960000000000000	0.2050000000000000	
0.1260000000000000	0.3120000000000000	-0.1249819966675486	-0.4069803160673545	0.0652024388746880	-0.4642850841427159	0.2313195887804030	-0.3736978327811056	0.2889777464576652	0.4687506469634833	-0.2835450820913298	0.1002110094315456	0.3594503670857095	0.2603465757980060	-0.0986931290535867	-0.2171333271483514	-0.5146260805170423	-0.3758297595951339	-0.2816528193559358	0.3284526743765414	0.1098882981934541	-0.5055221347709110	0.1186266847000976	-0.3227249840546513	0.1891170267434155	0.1506070967310021	0.1620000000000000	0.1340000000000000	
0.3930000000000000	-0.1470000000000000	-0.0838379452054329	-0.0480411708104147	-0.4938515815443983	-0.2486264041962293	-0.2825028974578002	-0.0776298653605418	-0.2555805621680013	0.0615031313491941	-0.2741241841159305	-0.3530413138056626	-0.5064230673403850	-0.5634127624463063	-0.3308389844106534	-0.3848952264306530	-0.4534302512181747	-0.5026330514820883	-0.3401192773309176	-0.4492151508495128	-0.2029278530300412	0.3598454411400567	-0.4479334591729666	-0.3862850089398958	-0.1800117855811278	-0.2313228494418744	0.4045738241094469	0.1760000000000000	
0.1430000000000000	0.4089998528757284	0.4024090483687915	0.0602824878416928	-0.0184182679397406	0.4246701021067375	-0.2472989819592160	0.0862843075036744	0.0641050039585346	-0.3906177269327438	-0.2321562434124021	0.2681520649950722	0.1183386158214772	-0.3198425934198380	0.2729995603342501	-0.2700571445560775	-0.5477859965886125	0.0698303119658055	0.3726069761913808	-0.6141113520521607	0.3673672870904109	0.2221616554320797	-0.0240125552123834	-0.0859171084791291	0.2103542352489124	-0.1710841727795013	0.2051155266191356	0.0881780504419222	
0.2220000000000000	0.4380000000000000	-0.4629930360922440	-0.0916842546714763	-0.0547814562449711	-0.2852849637180508	-0.0419614394312110	0.3798158704363753	0.3533080469631143	-0.1280717201376780	-0.1789028786712405	-0.4082322834764270	0.2053225152622096	0.1457068484848466	-0.5589628204055996	0.0106129433959596	0.2577691025596810	-0.3720839246949576	-0.5672205766841598	-0.5156751171501365	-0.1321338516490509	0.1685134578476815	-0.1716776025225958	-0.3902835689767256	-0.2451368396471823	-0.1934122840918175	-0.4146794944322680	0.4545797387376860	
-0.4150000000000000	0.2099946883942996	-0.0135371470262671	0.2857027822322581	-0.1087739845917540	0.3544571573699822	0.4602694695123692	0.0214916594409070	-0.4499447313152090	0.0998076138338356	-0.4683969836493980	0.1864977798976470	-0.5809004166810495	0.1618862421109876	0.3965275996243301	-0.5671867846738874	0.1723246450435134	-0.0499885736150317	-0.6407899668806214	-0.7030539280858293	0.1964544532322529	0.1479897129568663	0.2413085415165161	-0.0091638335771743	-0.3767682063060154	-0.2817212701792095	0.2880593529944028	-0.3038761502221554	
-0.4289622405245457	0.3848703313775478	0.4835485608379084	-0.3981838306387331	-0.1408931325557195	0.4227921624751819	-0.3223353263849956	-0.1906721967725670	-0.3479157896669509	0.3524975115495814	0.1950205161975782	0.0592810382266246	0.0933879942039000	0.0939165156721175	-0.3140921712194862	-0.0377673032016988	-0.0209117914393782	-0.6887276628332959	-0.6170094177877218	-0.5454373521352117	-0.0412385809358291	-0.0541393265776247	0.2364372010349730	0.5261212589634172	0.0105457140970326	-0.0466768928287678	0.3501411669259297	0.3148417103097179	
0.0169990620984750	0.2303774434369481	0.1788328941885085	-0.3817964151877122	0.2058472213133022	0.5380591815859272	-0.1463310126475381	0.1804884152704991	-0.4942883031789789	0.1884456711674250	0.3120632136280149	-0.4096319759732539	-0.0692318734396679	0.0428452063603539	0.3949303679380254	0.3875396011780824	-0.3864111782510967	0.3557452783508032	0.1761236133144683	0.1923596448842247	-0.0570827563230081	0.0625890927555294	0.3626769879519098	-0.0275823507056754	0.0145081593778884	0.1934998575445746	0.4229516101916622	-0.1935349165745666	
-0.0188896181170711	-0.4780806473563669	-0.3490546279528263	0.1545017450326562	-0.3291101106617735	0.3759827678116885	-0.3767853683076482	0.0150932279822607	-0.2990845258990805	-0.1573390712513801	0.6185001687493069	-0.1836214873632855	-0.1973003114515343	0.0328861573170034	0.3573791857343291	-0.0342401416639343	0.1236763117570297	0.3873643439852384	-0.1271230017707164	-0.1555314379980540	0.0739526762012275	0.5533283903489680	0.3183356565617534	0.3730013941691447	0.7469876075697136	-0.2841966730353208	-0.2083033287222766	-0.0218671839164203	
-0.2618214718659929	-0.0671041649195369	0.4402456133189622	0.3877782034037106	0.2397373066140985	0.0585012092895427	-0.0128435780380634	-0.2930472644404785	-0.0857970335532031	0.2579698809325875	-0.0114656376552271	-0.1580452349432187	-0.0217834879328858	0.1602586554213081	-0.2999795096775570	0.6211409697335791	0.2977549732260286	0.1757344341888963	0.4445233478958727	0.6423834692202506	-0.1398886284711691	0.4961788428657841	-0.0405551768107452	0.2602218950189586	0.0199042261455414	0.4733734196954734	-0.0951188553893623	-0.0497167822852605	
0.3820382855244870	0.0490707738704441	-0.1553966477745500	0.1078667861583268	0.3088891774602209	0.0907387538243539	-0.1210642609670813	-0.1242524588338919	-0.1560818396066360	0.5488404002197227	0.5852321214479231	0.5469098882825671	0.4644021966589637	-0.3227581128178193	-0.3281242230287626	0.3088939928231035	0.1562356945900194	-0.1387331525402535	0.2076769722757752	0.5782023135018486	0.0921408554730794	-0.2768606842708726	-0.2844327803835056	0.1986736763402987	0.2409747596711841	0.3855673416277056	-0.0977280492012952	0.2553163372240122	
-0.1021526995542944	-0.3501150429899396	0.2491452692398788	0.4795016225096229	-0.3034426342793210	0.0940425389724673	0.1614583199635601	0.1731638594647993	-0.3296004179287441	0.1069796192403325	0.1182711787487426	0.1066042280143001	0.2328594299005962	-0.1472698458788287	-0.7084532513314493	-0.1298949849573574	0.2688048249827373	-0.1158773583964281	-0.0406968532935988	0.2295291964715746	-0.4339906494326122	-0.1151299954367359	-0.0125655648276081	-0.1312862296585650	-0.2281183150065456	0.4304510281238636	-0.1162604427853322	-0.1685245334326363	
0.4249943156444324	0.4126631606085755	0.2579217936643521	-0.1432077282365319	-0.1641008560383171	-0.1929475942674704	-0.1088743964957103	0.0920983599698119	0.3011721135082385	-0.2238752941255284	0.1597545056026689	0.6521261613505102	-0.3485013495353024	-0.3833075536152364	-0.6320119549304719	-0.8172022011135435	-0.3292225662034503	-0.0170131910150108	-0.0695788683579113	0.1397925981019184	-0.0313222378738017	-0.1434580293948384	-0.2866584050767021	-0.4747567356202176	-0.3817939168208540	-0.1311013482349854	0.1524000815723549	-0.3092552091666124	
0.3760248007175808	0.3278211401561562	-0.0921644626346970	0.0881140274748179	-0.2379115666059132	0.1923836814935257	-0.3691635614690214	0.1812664082450398	0.3754401063474919	0.1562974437764519	0.5991067590663782	-0.1649442344165417	-0.2723047753874783	-0.3186688077166059	-0.0691698068904614	-0.2154349476366552	-0.4581273082162618	-0.1218969734457996	-0.0488803990445135	-0.1367503001707735	-0.6357904343273661	-0.4832604483228032	0.3543354614863800	-0.3811283786138630	0.0580018973225663	-0.2025151242488542	0.1896863758530165	0.0728451824192541	
0.0889969546666081	-0.3397636661714836	-0.3270209389519493	0.4823803231454705	-0.1479537850630084	-0.4414109006193283	-0.2696946491836051	-0.0763146603579718	-0.1196141432632987	-0.0480584621927390	0.4014753838245401	0.2064976665117285	0.1916236996527123	-0.3243144769846781	-0.6311966790385485	-0.3855029450468969	-0.2933130316132017	0.1782906960417897	0.2865549628238686	-0.3093381990219554	0.2294428282621976	-0.3035985079258429	-0.0406089758608110	0.0178351855921162	0.4752433768989404	0.2970679506237310	-0.3792204907814766	0.0475572334631671	
0.0769361947295186	0.2880555771732951	0.0926496803055353	-0.3226204021066671	0.0452108553123801	0.4463812582919946	-0.2038745013497926	0.2692779356097415	0.0426798215146798	-0.4821743778094646	0.1374902146786173	-0.3495509054192671	-0.4332656725725336	0.0848391468822475	-0.0008891005087928	0.2678462136263401	-0.3118938012845572	-0.1495403304306953	0.3652367899142687	-0.3625925356445743	0.2205365659511814	-0.0387867185284261	-0.3022317609095211	-0.0292421749236718	-0.2012497936053918	0.4239680068960716	0.4386084389133484	0.3073114629758886	
-0.3340000000000000	0.1998786742616686	-0.1436035532741844	0.1554842937103483	0.2375490962382049	0.0601027612505979	0.0645871429936977	0.4472581858706305	-0.0534828837849746	-0.4043803060987695	-0.1660345701020430	-0.3871111908739622	-0.3776461857792458	-0.2894684216284770	0.0574396711018424	0.3479121869652213	0.0625815941658877	0.4328742529317389	-0.3517639158174659	0.2915717244844578	-0.2777612940760159	-0.3984901800549341	-0.3780478570613948	0.2926697654925580	-0.0224314087329001	0.4081082014411247	-0.1833926058593739	-0.0161777194975748	
0.1763971213221303	0.4689789483392514	0.1388383264408835	-0.0216898261488640	0.0875692496085784	0.1757978250662754	-0.3642766097039886	0.5206930710714660	-0.3670441315489942	0.2351637939526625	0.2073389607389038	0.1137627287354783	-0.1556319558077847	0.3458335066304633	0.1547796447669082	-0.1347275757362462	-0.0209194550241392	-0.5242923350102147	0.0349291800332079	0.1595640725573653	-0.0043849503656897	-0.3920046420042971	-0.3630842671953983	-0.3327378128938454	-0.0779086243627059	-0.2134073157134775	-0.0063431366728044	0.3476033570294436	
-0.3719999296778306	-0.3851016613299737	0.1473455728788250	-0.3901782842777177	-0.3953839951166624	-0.1285534944444877	0.3409455545441545	0.1847058621261356	-0.0803593426932204	-0.3561487499475403	0.0653093069946927	0.1422744885430459	0.0758787620014556	-0.0006012237366633	0.4190333031111269	0.1826716775190937	0.2383235496455870	-0.0908882539758036	-0.1453947715657620	0.4302736985121223	0.1572919927629652	0.0499614494646437	-0.2526104374336470	-0.1672920332857527	0.0662282439003410	0.3172645695525732	-0.2632797894234471	-0.4770758332947991	
-0.3210000000000000	0.0948689078061936	-0.3388603234284092	-0.2140954317234623	-0.5654288827482236	-0.2928861158639380	-0.4350077997815010	-0.5314049058720639	0.3397589770469353	-0.1503166000667578	0.0174436808567384	-0.0471904054436563	0.1859015449091745	-0.2980402533613528	-0.4070559185303746	0.2394392338994006	0.1572667252813898	-0.1262937557421875	0.3251491168284177	0.0671551782092106	-0.1885340536209726	-0.5200938770058458	-0.1611291876763359	0.3025341635777224	0.1981241864035711	0.0026841069067362	0.3665654160191770	0.3650178462024245	
0.4379768210278510	0.3808427277183192	-0.2531815246467130	0.2106713819116868	0.0097817027350571	-0.0208750215692672	-0.1865202255910709	-0.0167974890986782	-0.5549549319016166	0.1340424673217848	0.0910708554764910	-0.3378950419667703	-0.1346173549955031	-0.0978101008901523	-0.1296912688408715	-0.5410598247496825	-0.0561896819975673	-0.0845419253655743	0.3156767142535495	-0.1962689122992653	-0.2352432516042769	-0.5553524158264594	0.3724054467100262	-0.0226743587445195	-0.0634805790186166	0.3398815558806602	0.2669995224824415	0.2350222938266906	
0.3099775453707307	0.0989966686136507	0.3295067663630880	0.3600191715730622	0.3950445441259031	-0.2541630562619432	-0.2557554828498455	-0.2670902142584949	-0.3869432325449744	0.2288832510147210	-0.0468660601280868	-0.3553572064218444	0.1551041557289854	-0.0855060992753637	0.0945741408746945	-0.3111606222923171	-0.2708881695792065	0.0836506179858657	-0.1592126383682902	0.2064592547341788	-0.4925168460276222	0.3009934519964119	-0.3369382592679301	-0.4053142351424538	0.3089672047415676	0.1466090198973683	0.0245008329862161	0.3510411578338903	
-0.0260000000000000	0.1330000000000000	0.3873346758895623	-0.3098977941696809	0.3256905358906808	0.4318028444392964	0.1528569658592539	0.3225530954377839	0.2255641746459398	0.0570979969199924	0.3515742406469214	0.0069740882148893	-0.0437126572188084	0.0433271414667237	0.5066795976267986	-0.0417446116664507	0.0326118089393523	0.1926054379551711	0.1154342522551830	-0.2145604451121284	-0.2404439739318680	-0.5243628203408631	0.0137010455170176	0.3121476448829951	0.3377061765147663	-0.0045373260900270	0.2852863802523819	0.0290000000000000	
0.0400000000000000	0.3050000000000000	0.2913476662795526	-0.1124106122010211	-0.3130960668205724	0.0247882697989096	0.0616208794216828	0.3947852710398469	0.3862618709174684	-0.2437730754051254	-0.4457151260517697	-0.2871507199245048	0.1574916065594117	0.0156553170172930	0.3490090576563439	-0.2742770426274886	0.3447472143190335	0.1810680270577759	0.1532519561890430	-0.2828691226344422	-0.0978434929948191	-0.0617283457345829	-0.3887004781425046	-0.0809372378983489	0.4250735848541050	-0.4272004291793410	-0.1192697931307659	-0.4920000000000000	
0.4670000000000000	-0.2920000000000000	-0.0236559172402314	0.0038988472847819	-0.1229552334719026	0.1156537420077898	-0.3113897189768953	-0.4831245985464893	0.1570611135404925	0.0738165079404661	-0.5423426510176261	0.3182130073687011	-0.3873645648016186	0.4326170618578604	-0.3942693127313682	0.1805458688330075	0.2562017977731993	0.4381392545228153	0.0086289034150611	0.2671278423267061	0.4299140791018076	0.2754231607660836	0.3388962276435696	-0.1139149496669125	-0.0357335712966333	0.1156676216567451	0.4048064726377585	0.0990000000000000	
-0.3640000000000000	0.1800000000000000	-0.3020000000000000	-0.4679536407721925	-0.1153205628348966	0.0795152692194077	-0.2847234908842045	-0.0310021169985585	-0.5643976320387855	0.0766215539152859	-0.3485684567998001	0.3450494709284280	-0.3435700984738984	-0.0866116380561992	0.1697733798241955	-0.4204149032882232	0.0827151769022870	-0.4780964405581618	-0.2122733454830131	0.4461477677403295	0.1587010011617011	-0.3547253127841692	0.0726813092114548	-0.4456460251744718	0.0767386191610833	0.2499080258765008	-0.4930000000000000	0.2290000000000000	
-0.4190000000000000	0.4950000000000000	0.1780000000000000	0.1760000000000000	0.2521884401204084	0.3937884962290567	0.2791378792794397	0.0555348965127971	-0.4153779451123201	0.1048646469882796	-0.3251238558195652	-0.2628514378273860	0.4116576567317617	0.0132985177896574	-0.3468698485031525	-0.4538337561527979	-0.3102144020126317	0.4886895478579379	0.4318236964406704	0.2534004545459320	0.1546801824428583	0.4860810250580190	-0.3569088864780787	-0.0533969515964356	0.0770000000000000	0.0170000000000000	0.1290000000000000	0.4160000000000000	

0.3740000000000000	0.2910000000000000	-0.0310000000000000	0.4120000000000000	-0.3540000000000000	0.1930000000000000	-0.4090000000000000	0.3150000000000000	0.4490000000000000	0.3570000000000000	0.1400000000000000	-0.4480000000000000	-0.2638653180785994	0.0511131316294500	-0.0132022811702003	-0.2740084283820916	-0.3380000000000000	0.4550000000000000	-0.3170000000000000	-0.1060000000000000	-0.3200000000000000	-0.4030000000000000	-0.4350000000000000	-0.4350000000000000	0.0130000000000000	-0.2390000000000000	0.0780000000000000	-0.4220000000000000	
0.3780000000000000	-0.3600000000000000	0.1110000000000000	0.4470000000000000	-0.0549949432840327	-0.3300053817295223	0.4751017112273629	-0.0121474605331501	0.2461604866801560	-0.3547350379608600	-0.1723127410928489	0.3581675927013609	-0.2877734635818540	-0.2150080851422007	-0.4920977829704649	-0.0671561197906131	0.3954568594361080	-0.1316833520225814	0.0223439178988799	0.3823132280571377	0.3095748996174660	0.1426963149046536	-0.2664628152033392	-0.3128059231226201	0.2050000000000000	-0.0210000000000000	-0.1790000000000000	0.0380000000000000	
-0.1490000000000000	-0.0530000000000000	-0.2919982157106801	0.1459794277606518	-0.2235175118906657	0.2589428198302068	-0.3112031872881916	-0.0791456745850549	0.1629026734869158	-0.0166415027319680	-0.0547672739051480	-0.4795532592453560	0.1184016407177081	0.3713283598760723	-0.2334648134053712	0.2886756129396470	-0.1451015248784376	0.0061166305099816	0.3583739582389071	-0.0656217204630686	-0.4152005860444505	-0.0405783285844559	-0.2953048219840145	-0.3919626888474062	0.2522923827232845	0.3208406520114399	-0.2040000000000000	-0.2190000000000000	
-0.4790000000000000	-0.0450000000000000	0.4468505730540310	-0.3759938214443316	-0.1799912595766333	-0.3640669398853502	-0.1198530714015723	0.2783038026777683	0.3543007436205323	0.5013816043515097	-0.4260437879477892	-0.2391164995423166	0.4106852452303820	0.0979191399830670	0.0996526252751195	0.3421290869708330	-0.4054109177631348	-0.3293237553033433	0.2019516747572583	0.1637008273977518	0.4147771928788335	0.1864855349356316	-0.0357659676888607	0.3122312185528420	0.4687530816568033	-0.2997790569988161	0.3550524638171151	-0.1370000000000000	
0.2160000000000000	0.0730003513678400	0.0604792373144277	-0.2550421125133121	-0.0250056288657757	-0.2172078081011528	0.0596823944045134	-0.1456357039090208	-0.3201757460574746	-0.2076667233078921	0.2036068934605166	-0.4179257075527169	0.1040676246846793	-0.1093366863796555	-0.4082020314943025	-0.0998837205731385	0.3402530923491117	-0.5214263011779394	-0.1113962330807301	-0.1390371715689239	-0.2583102454905701	0.3942300664038583	0.1814445416522771	0.3150973895371064	-0.1282651314465258	-0.4705009274347779	0.4878665828656400	-0.1800715252532239	
-0.3350000000000000	-0.0690000000000000	0.1580221759787529	-0.2060569055044451	-0.2901998969910577	0.0730531442697601	0.4396716520418183	-0.3037732994364164	-0.3377544684864663	-0.3443369492861360	-0.1665291786036684	0.1147522743421234	-0.5467259555676197	0.0324045492212969	-0.1165902318597401	0.0939832777388552	-0.5679745000118539	0.3644159476428906	0.3580294293047779	0.4042741252357354	0.0783639760145917	-0.4800373744661194	0.1373542069536595	0.1845428500838167	-0.3454278125869192	0.3933198907891121	0.4242844564221918	-0.4029904920669694	
-0.3820000000000000	-0.1100006861250762	-0.2965341308950030	0.3220030730936888	0.0378911887584906	-0.2417555134174195	-0.0161586965995703	0.2802909010223946	-0.1892941364079662	0.3220814182065314	-0.1584884139959538	-0.5467421333109093	-0.2258249364178444	-0.1604676434514893	-0.4233848788329699	-0.3176224237291139	-0.1479620810098898	0.0111697069575317	-0.1610899359610424	0.1686011947719935	-0.0541469809184775	0.3732615015757087	-0.4410545230916267	-0.0904065076576936	-0.3927899453989092	-0.2491246340855152	-0.2377822862099416	0.1921977649841989	
0.3850456303721630	-0.1625181560465353	-0.1754593170240636	0.1641993272893187	0.2853535501144009	0.0345924248349982	0.4155219713640237	-0.3214936510251036	0.0019810595542654	-0.4677916396313583	0.0483188114577380	-0.0004561010980883	-0.5790169366785745	-0.3478166698900897	-0.3383987119446017	-0.2776664714248803	0.1780308828835364	-0.1546808949505432	-0.1401527776805317	0.2948616564766052	0.5406817866297255	0.2724456595457749	-0.0124166122132912	-0.3143873770472194	-0.0613607660063007	-0.0563837371429889	-0.0599757863295572	0.1645330598681260	
0.2537892603486034	-0.3937042233035417	-0.3968949243598615	-0.3364354713470129	0.1864687727430703	-0.0947926954601406	0.6471286670378893	0.4960408038610840	0.5806390680222315	-0.2146660899362715	0.3087060101573774	-0.1298603173520340	-0.0211423073542140	-0.6103036484870469	-0.6246456546679793	0.1994001613826100	-0.2253604081224632	0.1417822099569328	0.5091289963601019	-0.3032877791862137	-0.2905675687701370	-0.4710525534057715	0.2599458369649456	-0.4985915445334742	-0.0747635761336674	0.3677141062026638	0.2616438995147906	0.1599565685964105	
-0.2408784970011331	0.1582419503028328	0.4601085768538103	-0.3411233252771162	0.0116597735426347	0.5118084719902209	0.3871693935507960	0.4468586798109325	0.3363822833362201	0.7092662360410629	0.0375077112974777	0.3084752194946569	-0.4170012842868634	0.2230065875205250	-0.0225815904690047	-0.4494648232566485	-0.0825411380027030	0.1345192122111612	0.3409239949171591	-0.1166511798608472	-0.1199972999216059	0.0960423327567133	0.3913073366914080	0.4022101412976255	-0.5396674658442702	0.2689463863686401	0.2801822018058656	-0.3001860376720085	
0.0081806302700800	-0.4134829145328367	-0.1323362901598305	-0.3772818316548258	-0.3352328664273171	0.0813286510969507	0.2544717761008080	0.1314685907516989	0.1236608582026178	0.4409718062852532	-0.2415756154905823	0.5104650959568362	-0.1153806565735142	-0.3826901632543747	-0.1186446444216601	0.1382799084027618	0.3038293410165551	0.0670096400466017	-0.4170098203370619	0.0900456546144025	0.0552014521477103	-0.2259020086201605	-0.0868678414889810	-0.1646014428644297	-0.3428348985829404	-0.5332257716773839	-0.5015277072930902	-0.3656770119681069	
-0.0448625176010530	0.2711149167760522	-0.4298296511288738	0.2897508261030892	-0.3988021717505673	0.5277452464019329	0.0146080118819496	-0.2851282524232395	-0.5166125750520185	0.0130596702305076	0.2896622235043903	0.1338019047370951	0.0223938304283902	-0.3794396038489490	-0.2923236035294642	0.1674429924689800	-0.4275162848743261	0.2903271065774974	-0.1929734649724517	0.1503235166423839	0.5121676941625171	-0.1840613727798573	-0.3104049620551425	0.2675585388162204	0.1006162353311467	0.1495652910390840	0.1389455960136976	0.2514385257015108	
-0.4670219953837157	-0.4655712390980249	0.5204466148219763	-0.4170408748424121	-0.1870165775931509	-0.3033763552747932	-0.1209777136976052	0.2512055626075699	0.2219625353646595	-0.2329495450291398	-0.5048783082375388	-0.4054842788081911	-0.0005519987348938	0.1121712661663415	0.0681570313321336	-0.0527939804522467	-0.4380681645649105	-0.4471147548850757	0.0974155093516451	-0.1488152981982191	-0.1046264842755817	-0.1503388120915706	-0.0821475346012195	0.0685853588855497	0.1863773196236679	0.4799393670499137	0.0754159388397580	0.2081807362528987	
-0.2290024571202289	0.4491191013961904	-0.2587660667810438	-0.0176795186989233	-0.2593030821366915	0.2020193692055744	0.5092172661682676	0.4017202272052510	0.2674707258188440	-0.5772431821324577	-0.3231927715798579	-0.4396610949414148	-0.1739330213276755	-0.5967541256047004	-0.6885965518070626	-0.4312832599933247	0.4544176630905120	0.3071836948122187	0.5360477558414807	0.2028358114570482	0.5039474728464169	0.5177586942532177	-0.4274852188321967	-0.3226955096677643	0.3399192119079973	0.0599224542649732	0.1580997169981482	-0.3682748070078680	
0.1710070910374065	-0.0404967879035925	0.5102261208517987	0.0630354246776224	0.1576460424630622	-0.1383458845036839	0.3787448146638681	0.2102165199224346	-0.2167429495383495	0.0185794640101412	-0.5166380148927840	-0.2462634237189794	0.2390913324110567	0.0507750291096018	-0.0990906229092479	0.1146825983288732	0.1259670213843601	-0.0874764163115678	-0.1871645340586911	0.2729953111602108	0.3318741008971700	-0.0436374270262613	-0.1135778576616385	-0.0845396080295140	0.2555912418180423	0.0615021404466927	-0.0831409922907591	-0.0552158400633063	
0.1099949597653003	-0.0052842021023383	0.2484859123689210	-0.4078845231280193	0.3793080140830543	-0.2775608133199178	-0.4687013544970910	-0.4579142389487153	-0.2111569866759369	0.1265701914614693	-0.3107796646800208	0.3079534923765619	-0.0393883218425076	-0.0199550099415024	0.2923800023994413	0.2272387722819732	-0.1776590538623256	0.0235825638877532	-0.1820806329237150	-0.1087171729230101	-0.0493442652759740	-0.2302906680193751	0.1809264179633884	0.1328904248004527	-0.2807887101927747	-0.4225593359438017	0.2207011024453281	0.4811706163467283	
-0.1700420690217498	0.2326995669873255	-0.2759912693119208	0.1539925680620001	-0.3158563440060900	0.3622079408587254	0.5681178918675522	0.0048449458679947	0.2559342567979233	-0.0716897997756242	0.0071384215122498	-0.2966876606670680	-0.4684511719927774	0.1782853901257594	-0.3745989617679260	0.3318340615174822	-0.1359419510988942	0.4081508112466617	-0.0796160006165270	0.5043999865260087	0.3455108405583019	0.0930321133620946	0.3979571208295503	-0.1632946682800128	-0.2344702963619287	0.3440187986313946	0.2254891268528156	0.0609184053590862	
-0.4440000000000000	0.1061190472990965	-0.3076031143331714	-0.3984723818708290	-0.0650003634308809	-0.3505093928293487	0.2278197710159785	-0.1045484490585678	0.0853220099883776	0.1146960667034785	-0.4884287660194981	-0.5230878235693104	-0.2090956806931792	0.0130657881302345	-0.3658914347531206	-0.1761440383117331	0.4916488582546009	-0.1680354184922625	-0.1574165337279588	0.0604284179639912	0.2840712873689582	-0.3768951473221380	0.0453749414488685	0.2360525502818207	-0.4803909827767558	0.3878487946573957	0.2856151260595976	-0.0689922965410799	
-0.3641439691546967	0.0800124800682412	0.3801724031205899	0.3941941158005263	-0.3124054821206795	-0.4234670219915537	0.1214184430951273	0.1806666947268829	-0.1801723349837419	-0.6635500144926554	-0.4067280072799238	-0.4616254413202396	-0.4838575461724359	0.3153076819742593	-0.3278761442636650	0.2557161372453862	-0.0367183133125564	0.5001813431275178	0.0743986484478514	-0.2883964817215596	0.3507962758068413	-0.4852511293953962	-0.5135542300522032	0.0798662816786485	0.3458963894622372	-0.5132663941522527	-0.3250172342535080	-0.0209115160888669	
0.1950000542841839	-0.3611259357385070	-0.0330640116599609	0.4769574075184167	-0.4298875666469152	0.1156403916791510	-0.0652282482959035	-0.0061851803088669	0.3226029737368240	0.1044811584038355	-0.0642045884844160	0.0128930571586286	0.0316788716648414	-0.0564891336282626	0.0054725539370886	0.6494009004975904	0.6007062177607176	-0.3113351926274343	0.4051628705816162	0.3074024459554366	-0.3623262403216067	-0.2740971444112658	0.0469116913746996	0.0736731306231687	-0.0498315084501472	-0.3703410939060977	0.1862804863730951	-0.1539429939823232	
0.3910000000000000	0.1357333737536508	-0.0875297764297627	-0.1198775425277823	0.2814176591642025	0.1289712443670263	-0.4235156257848544	0.3267163450816982	-0.5068975013469498	-0.2658571351458077	0.1319597403233100	-0.4575727395879715	-0.4687577026279229	-0.4466413917792638	0.2800698194927731	0.5915786208888495	0.3250417555263840	0.3801354134075942	-0.3306066134845816	-0.0298752246041407	-0.2855234365633614	-0.6130129722145835	-0.1012808009947319	0.1799157311116607	-0.2969057879145182	-0.0460162439987328	-0.0749307542983119	0.3669356161617676	
-0.3109872464057121	0.0421139433042175	-0.4393366049536478	0.0265286033717166	-0.0197898725711332	0.0994587945038687	-0.4404182088313509	-0.5414439483199617	-0.3573030863572075	-0.4271591576364091	-0.6329835509082297	-0.6429933280433449	-0.1260730220753804	0.0592071481213727	0.0343046093541262	0.6283035448574609	0.1322493857460944	0.0491681946092994	0.0143355345115306	0.3902057693033792	0.2202536070203788	0.3346588170114471	-0.0946162268984416	-0.0506023541569817	-0.0190908978829482	-0.4556630021656291	0.0908989760422266	0.3029959189102664	
-0.1119876449555336	0.4150039990474309	-0.0565131160198794	-0.1974598126246012	-0.2359853924727157	0.3007489533824193	-0.1172734389140391	-0.3929676852758250	0.2162851664019869	0.0134879747266109	-0.1084167026009238	-0.4329796060868573	0.2528536613118567	-0.5018895886359047	0.1398731025755006	-0.0286967675942750	0.0357758408428575	0.5014016904366762	-0.0282832212794157	-0.3973498439426423	0.2220922075182609	-0.3318974162345281	0.1283748616930384	-0.3030003203425300	0.1018372980611273	0.4933474470962486	-0.1620219206785884	0.1409924656804922	
-0.2420000000000000	-0.4530000000000000	-0.1567892544630771	0.1460716831946758	-0.0230187314351258	-0.1951145356132632	0.1922794912648780	0.4644399620853216	-0.6076693813246833	-0.0930499230826324	-0.2838112579645279	0.1608119830371640	-0.5338905981418820	-0.5488529361204597	-0.0042712951404835	0.4858610403141114	-0.0619808187724183	0.3612146259925306	-0.2450669851101015	-0.2684077089502908	-0.4751041457363091	-0.1896883889948599	0.3544097574647660	0.2759601079799787	-0.0579430963604417	-0.1530333470389537	-0.1201493571125885	0.4130000000000000	
0.4640000000000000	0.2100000000000000	-0.4438767202696480	-0.1239089670617646	-0.4284477998027315	0.0149545529446695	-0.0213573769845035	0.1729745206692894	-0.4898084630446296	-0.5621286436211145	-0.4695168556762647	-0.0109731507695711	0.0267109165064481	-0.4207879507674460	-0.1950120079193254	0.4879297201254699	-0.0733645633698445	0.4726608942297230	-0.3250298745948860	-0.2814797307677329	-0.4294357693030728	-0.1709750768170353	0.0028256387142248	0.2211185573661353	-0.0463810443244971	0.2333713260368619	0.2477435516080637	0.0110000000000000	
0.3690000000000000	-0.1020000000000000	-0.0032456248279417	-0.4001111767107977	-0.1461081202295900	0.1873588722918456	-0.4431155596973678	-0.4700891139881618	0.0068367063973997	-0.4577110668277544	0.0025029882997012	0.3817401320810691	0.4353867048751883	-0.4612435223400100	-0.1990469520042163	0.5760771076463498	0.0898423297930721	0.1487450107238022	0.1880065695466901	0.0308839808375398	0.0975156299568057	0.3675502749471924	-0.3294368077135112	-0.3025521637349239	0.1087447049814087	-0.1513644889549989	0.2987831500742964	-0.3210000000000000	
0.1350000000000000	0.3570000000000000	0.3830000000000000	0.1618977000238799	0.4011940572537905	-0.2387464061321810	-0.0805211145023041	0.2662375171351292	-0.4842336250919385	-0.2721495987967026	0.2828489746343948	0.1793306128724855	0.3377783364415621	0.4020798196798048	0.1674865091294908	0.3385947448456549	0.0815524106115101	-0.3602116326691702	0.2363843389904428	-0.4124342681733985	-0.1161478376929955	0.4199998162768896	0.1181957858207447	-0.4245807807795630	-0.4976804999332338	-0.3700137425019928	-0.4720000000000000	0.1310000000000000	
0.0890000000000000	-0.3480000000000000	0.1300000000000000	-0.3280000000000000	0.3639674859042937	-0.0937363921819003	-0.2066165530161050	-0.0772816438439640	0.1780494512953265	-0.0086288344086475	0.1140539439004370	-0.3299449291016579	-0.4398126282137910	-0.2446489170669827	-0.0462549454737011	0.1219065096111680	0.3305596209668226	0.1444433738272836	-0.4432177221085804	0.4042447811112035	0.1385543956835868	-0.2161726027134429	0.4999281808565598	0.2848375707588234	-0.2970000000000000	-0.0390000000000000	-0.2100000000000000	0.1620000000000000	

-0.1930000000000000	0.4970000000000000	-0.3490000000000000	-0.0770000000000000	0.3900000000000000	0.2170000000000000	0.1400000000000000	0.2030000000000000	0.0660000000000000	0.3830000000000000	0.1610000000000000	0.1590000000000000	-0.2550716896260158	-0.1141823727984767	0.1509717377333055	0.2649988224055544	0.1010000000000000	0.3400000000000000	-0.2910000000000000	-0.0030000000000000	-0.2170000000000000	-0.2500000000000000	-0.4420000000000000	-0.0790000000000000	-0.3250000000000000	0.0810000000000000	0.2870000000000000	-0.2290000000000000	
-0.2130000000000000	0.4990000000000000	0.0040000000000000	0.4790000000000000	-0.3620379634431489	0.1998931799910122	0.0301676339380646	-0.0384478800716430	-0.3818894404566827	-0.2952400492162117	0.0395766714002850	0.3266763667296240	-0.0463256860526704	0.1174377776743164	-0.0980090983678958	0.2767186703215597	-0.4028296308924311	0.4368866613656842	-0.0091183123240539	0.1195593377166702	0.0706600509074877	0.0010371326381264	0.0963105044573662	-0.3390274891419588	0.2460000000000000	0.0380000000000000	0.1700000000000000	0.0380000000000000	
-0.0240000000000000	0.0550000000000000	0.4168928669192253	-0.1287926577033922	0.2599642282081490	0.2520485333661503	0.2585073142689460	-0.0675447242210396	-0.2472279496322471	-0.4433618125604477	0.2117290031608206	-0.1345761421370035	-0.5175041402736696	0.2162815432703469	-0.1489636926469506	0.0230534455314954	-0.2395404224135122	0.3169869627615701	-0.2701135585901713	0.4594509639288743	-0.3463404461763640	-0.3688265403769403	0.2084445110789058	-0.2801555905958282	0.1949704850567741	0.1667516596016569	0.1270000000000000	-0.0020000000000000	
0.4890000000000000	-0.2520000000000000	0.3787852588614445	0.1472870683327545	-0.3513351865250346	0.4269240464906767	0.1666021751872489	0.3638938041159969	0.0767455593870848	-0.0985062224579770	-0.1462220720116438	-0.0386363737498028	-0.4815883459055261	-0.0840273142166139	0.2592752389374915	-0.2253682744457997	0.4676147268551275	0.0672950286033564	-0.0075939118502600	0.5191627694089365	0.3938652709232163	0.0069680578656832	0.2880026606260479	0.3918768759894942	0.4571633579129995	-0.1907130856896881	-0.2762605093830863	0.1840000000000000	
0.2920000000000000	0.1669913937256430	-0.4519714778590612	-0.0311580124064637	0.4280041415087197	0.2895340192649166	0.2866150804916776	-0.4357487500638808	-0.1615673700853590	0.1530224900671153	-0.0763779478745103	-0.0984209844188555	-0.2264097624145220	-0.3777514706127179	0.0414786590719941	-0.0707782104424488	0.3672603863060215	0.6732453733248104	0.4850058215137956	0.4555888134245626	0.0231449442637533	-0.2832485267070750	0.4601013109385081	-0.0593085056101307	0.5177418269849752	-0.4607348944993896	-0.4153970820890552	0.0019882638431529	
-0.4340000000000000	-0.0880000000000000	0.3398419882298344	0.0678294366077627	0.1580903240022041	-0.1265868494803747	0.1044969583771098	0.4259733333898137	0.0477174088873175	-0.4803416354933523	-0.4277232288173390	-0.5561934987356278	-0.5689695132925960	-0.0847899439859346	-0.1205928187755505	0.2825510086884442	0.4061304586234708	0.1543586331306511	-0.0992293159798608	0.2284752274135039	0.0667450644758253	0.5656522035396754	0.0808398889522881	0.1703726080137075	0.4482104606887978	0.3517689519937933	0.3911109480270589	-0.0723683646098597	
0.1460000000000000	0.3890060136720462	-0.0208595631443540	0.3773868252188950	0.3947551955434669	-0.2605576316889351	-0.2668862052246957	-0.5017730790405973	0.2376157926592225	0.3019937811135176	0.3754202866509749	-0.0626144988868096	0.3660366997678229	0.3977173430090529	-0.1456688103588005	-0.0965437533214762	0.2292153063185096	-0.0333359662190615	0.0415587015036217	-0.2468406747424582	0.3949324289443134	-0.0244163423062282	0.6692959263358029	0.2216599065306849	-0.0167045760255231	-0.3619388939384295	-0.4048807628783041	0.4345442735313865	
-0.3550015723202964	-0.2180218271958068	0.3137267029265700	0.2004435625392009	-0.0125404583199355	0.1819932047692774	-0.4817708685326075	0.5352492562870779	0.4446417597363479	-0.2456604091172218	0.3240291111752407	0.2068831855253453	0.1359990484984321	-0.3857919935132601	0.4892776359535765	-0.3406160403961772	-0.1072113601305812	-0.2661773126832169	0.4393264075739264	0.3548025365126628	0.4287302771932980	0.2854565556086886	0.0873359461951851	-0.1451202904819955	0.2411229043850765	-0.1594698696261731	0.2059804637252836	0.3627385130151495	
-0.4281291926576165	0.2739196247703702	-0.0309118759030585	-0.2878934277394641	0.2938083185866429	0.0069524226068836	0.1231106445058198	-0.2634975556764059	-0.2176198025461553	-0.2366896106732629	-0.2343546923835821	0.0692636800440647	-0.2756766031369923	-0.2227672242557086	-0.5881713982114457	0.1538247875148483	-0.0189174272496950	0.3962731120355059	-0.4689086469978717	0.0900725025804175	-0.1122778915903294	0.2107184268801601	0.2300120746330970	0.2243710737207208	0.3844951841480045	0.5557182159236659	0.2223392603786602	0.4624452303723214	
0.3620014893212813	-0.4967970781617528	-0.0560153255552460	-0.4299769817166691	0.1279921765852160	-0.5103038967289610	-0.3325849429250847	-0.0123034146984194	0.4930360272880929	-0.2725877558477990	0.4319810001329379	-0.2280142230567461	0.4044408616626560	-0.4211794763498213	0.0479022396272125	0.1519725275416743	0.0580066885040776	-0.5383461170539275	0.1963587972074756	-0.6279490353225330	0.2901302104511024	-0.1954356694397651	0.1713628703360808	0.6154647591219508	-0.1090058353398360	0.6005101830671986	0.3703143234307223	0.2172738592099913	
0.1150008380932458	0.0369297641494623	0.4551111019462211	0.2466246565027422	0.2032834446562723	-0.0779253612213456	-0.4149286225023128	-0.2945844916174761	0.2923566437945728	-0.2016259626187604	-0.3986298052927618	0.3094830105039830	-0.0244722071678430	0.0683037735723301	-0.0817325997722171	-0.2132312958456624	0.3237858985554735	-0.7066263801725539	-0.5838957797822306	0.0722169828685784	-0.0149977423929821	-0.3807250149813401	0.5702252178496726	0.7172186369223937	0.8009810071032558	-0.1805649533983323	-0.0343498562084033	-0.4723027003873974	
-0.3071349221698885	-0.3948245703594975	-0.0791796818465144	0.2709205547851105	0.2731494206280249	-0.1328956970852183	0.1566996345319541	0.2406657043187754	0.0805925330996188	0.0500129932759779	0.3372971452343709	0.4870465208425717	0.3984905036444442	0.0182513616094784	0.4497247009870142	-0.2692765629128848	-0.1554142047280796	0.1261236476945047	-0.7500092358356248	-0.8592578141259433	-0.2281235679381517	-0.1300378904092258	0.2218684237168588	0.1361308703780874	0.0156487307574467	0.3276570659379048	-0.3324826767316336	0.4309021461325711	
-0.0070045501800489	-0.4321762829250123	-0.1263471386408740	-0.3738594834699869	-0.0563874706436664	0.0904719231660635	0.3524111878639919	-0.1415745041849367	-0.2648496054436150	0.3990397061782384	-0.0103871501242609	0.3934333000585286	0.7642987290678962	0.4925503148837224	0.1951901066428061	0.2613021521691853	-0.0914260798657920	-0.6706313660391767	-0.8120193172661719	-0.8692170816870000	0.1294516603717424	-0.0430639121074642	0.4902516931006370	0.0149827927213184	0.3142106222104055	0.1741232195182611	-0.4521274847029415	-0.1798292364511471	
-0.3960095002635337	0.4463932190879161	-0.4398680506498256	0.0055322439622090	0.3527857402080079	0.3028998069791015	0.3264751619660540	0.0437806550273627	0.1534347937788630	0.4078054467673968	0.1266063164193358	0.0109491870924366	0.7014106947589894	-0.1472204691636511	-0.2878109170443187	-0.0241740136338578	-0.5212103081261710	-0.2869406198559765	-0.6471478050327152	-0.6635753571875550	-0.4671392825619992	0.1015872944801629	0.5099981731043377	-0.0593522737052979	0.1178698885386025	0.2292346997395807	-0.4907074783662084	-0.0972299032565315	
0.4592928633622756	-0.2471552152428790	0.2417025480097831	-0.1397144270120176	-0.3678473092625108	0.1011082295591800	-0.4096636221815135	0.0343668104548578	0.4744779245064557	-0.1893942423480915	0.2470618989459573	0.5412797824112962	-0.0676503583363986	0.2565272567458257	-0.3948735545266901	-0.1967125812806842	0.1096229797042339	-0.7007623443311370	-0.6194226566830410	-0.1825566403994639	0.0034554433039851	0.2883697075989787	0.1226141687150056	-0.0506070785765274	-0.1990613091990172	0.1116358571049302	-0.2452362208023569	0.0271094505617082	
0.0320871936598918	0.2641398743896934	-0.0320054506465701	-0.0196744026811991	0.2096650243079708	-0.3775136107435824	0.4177374548752088	-0.0159427183521178	0.5438532279158773	0.1862379112753301	0.3965878024744090	-0.0035322022157410	-0.0726308433901211	-0.1658273070556963	-0.1716067097040693	-0.2627811532515354	-0.4101272888866376	-0.2997583917280346	-0.2758824416195236	-0.1933510156430210	0.2703615760840288	-0.2690030626173529	-0.1484641991870686	0.0032032538781431	-0.2707500643742635	0.1225578839929787	0.4186939322167416	0.0063466308203042	
0.0229502876947449	-0.2693953345831040	-0.0208594458515421	0.2320529388243848	0.3900805887175419	0.2967948441101027	0.0695018369366668	-0.0545515184301043	0.4640711190382085	0.5368100695426082	0.2496340347387941	-0.3393514565318292	-0.5537150641686994	-0.0613035422854077	-0.1092359118086329	-0.6977411807047191	-0.4461367122291545	-0.1699001584250534	0.1537112587968558	0.1201644698287412	-0.2597564812767543	-0.0408292790761368	-0.4068086664914777	-0.1365446009642680	-0.0549652868887323	-0.1034774692450635	-0.3846820873801624	-0.0487737844827093	
0.3330000000000000	0.2604087883511584	0.4046983313498246	0.1203985838793798	0.2609135755993675	-0.0573628477685678	0.4707276933427119	-0.1631901698146333	0.2011050878238922	0.1362500828559483	-0.3153147212122733	-0.5886773703562904	-0.2093321214243684	-0.5377080341530664	-0.0138831456211744	0.1255044693977164	-0.5975766915414384	0.0946939056227907	-0.0974484249850584	0.6186868552154615	0.5465343635657539	0.2778034669213842	0.3315694060494280	-0.3877077095586761	-0.0644548168047195	-0.2279731781829972	0.1114130884460416	-0.3883598938082782	
-0.1655971797468533	0.1199358080682675	-0.3337751463814720	0.2827251436750080	0.4950064330954096	-0.1419920533566499	0.7106464162229016	0.5634609515003075	0.5676315915930271	0.5212499271660889	-0.5590032707726003	-0.4237961743192293	-0.5436661310484192	-0.1601741856536991	-0.2272521114260378	-0.3248911479177301	0.3063723593725785	0.5271506690392231	0.4516552425558984	0.1082080811693249	0.1837965565633741	-0.0046128715201268	0.1089235392749085	-0.2314623430873142	0.0903576103275552	0.0285907052741456	-0.0124292225133213	0.4368177317850476	
0.3880001598862307	-0.1879162577787647	-0.3195377553383358	-0.0359775066546214	-0.2919102839524996	0.2149510914998480	-0.0784012698379667	0.1572882202207047	0.7012454371717319	0.6892482909967436	-0.2228120321056431	0.0513978028668995	-0.2418389349193860	0.0240596476614727	0.2400494120916016	-0.4427339527423229	-0.0711891641459943	0.5838767722389494	0.0680252650522027	0.0009877531722984	0.1644635923264317	0.0463222384301983	-0.0915034568872748	0.0136229639039319	-0.2897930397008972	-0.4001440956946214	-0.1962299755438920	0.4131952902734209	
0.0950000000000000	-0.0565504118757741	0.4623500915274115	0.3968228833476506	-0.3777910337792011	0.2255815759820173	0.7249932498986875	0.6559478530208825	0.6558158085027629	0.0397279369554308	0.0837422846287713	0.3446187120131222	0.3612328989850472	-0.1745621707845086	-0.1224307772155131	-0.0526359645271322	-0.1512256363190957	-0.1323501231341362	0.2217449646891369	0.1950460480315732	-0.0406399022573128	0.4637896573833190	0.3542799012682367	-0.1992691429150484	-0.0002542149084635	-0.2615139348052923	0.2602153653049747	-0.2618831581016950	
0.1710089576841432	-0.4535091967769974	-0.3826868624404516	0.0845781653655334	-0.1178649447156260	0.3316017415166886	0.1213465530413829	-0.2556759700130094	-0.1541532599316936	0.1207655673714320	0.2302220257372880	0.0813438411702780	0.2319306107401033	-0.0586667512284428	0.4829351398670962	0.0923811267604343	0.5579144826380690	0.2462085609525806	0.2223767427753596	0.1303990475538443	0.3199012765344668	0.4265580545749691	0.0401185111064284	0.1955317844345533	0.2281092709764193	0.4055752301130865	-0.2439158700337617	0.4270823218176454	
0.1090086777565137	-0.3809894084905088	-0.0235442615481165	0.1983726408344553	-0.2004232870799304	-0.0620457070875258	0.3641694833978664	-0.0264414428970812	0.3314986982978996	0.0984594155071610	0.2171801701665046	0.3573209982230094	0.4969399492194417	-0.0828653420414227	-0.0944461620922264	-0.0255994216438212	-0.2345538366297892	0.1544363871917461	-0.1022866232038532	-0.0629256983029118	0.1319379799546058	0.0672508377924922	0.1448363357437197	-0.2000477828013366	-0.0854692440132536	0.1799167060556156	-0.1329917851843062	-0.4668480212597315	
0.1850000000000000	-0.2300000000000000	-0.1671268872177518	-0.2384190036049500	0.3578210766407283	-0.2634670437049539	0.4541859425102036	-0.4221028072475327	-0.0428200430234088	0.3195862171361414	0.3058126059587664	0.2775780053322803	0.4838639913181945	0.2642512831978605	0.2284762760844553	0.3859489837022689	0.2081605784908225	0.4997832732466149	-0.1213174060386079	0.2032783454647747	0.1577966817363225	0.1051970395834125	-0.1783368370424505	-0.3467322701350631	-0.4598944628804320	-0.3756902204593813	-0.2397419667753111	0.0930000000000000	
0.3430000000000000	0.1930000000000000	-0.0301789107911408	0.4643292222893007	-0.3676804576706404	-0.4274841507260875	0.4565298018613914	-0.2854603867189504	0.0529262244878199	-0.3084382415532612	0.0745912693575036	0.2234898972664245	0.5120673657523305	0.1826300615109594	0.0088132234783915	-0.1704451373988868	0.1525658478432125	0.2410363637290492	-0.1020217219635368	0.3286125071262206	-0.0390850266809972	0.1032403758754396	0.2977036185936537	0.3011011228786761	0.2528122989128822	0.3360614441537154	-0.3179204792940838	0.0690000000000000	
-0.3800000000000000	-0.1070000000000000	-0.2076331875519986	0.4707382898567288	-0.2916233462911543	-0.0036335468374507	0.2766961678371673	-0.3361861880140427	0.1194997825060817	0.1680203157968589	-0.5364523998420937	0.3670470572097138	0.1962759174150278	0.1783396853559672	-0.3359849367187385	0.5153538715260279	0.2622536725414812	-0.1273571977694211	0.4500438901290269	0.4592532688343680	-0.4210935778135209	0.2553364249245166	0.1228705328024668	0.0280054569596602	0.4648591534080248	-0.2649213854938447	-0.3729053398382691	0.1330000000000000	
-0.2600000000000000	0.3620000000000000	-0.3730000000000000	0.0770143254267116	0.3160225808874964	-0.1646659331763068	-0.3798827696507622	-0.4378234158445297	-0.1739062825510221	-0.0246521794922040	-0.0985300560448422	-0.4000565052754550	0.4040098232705464	-0.0896053519962437	0.2842862294421802	-0.2326624304347664	-0.0123893581095783	0.0488101239443446	0.3535650882977487	0.4126311455444531	-0.4754524617346310	-0.3019678488605494	-0.2962634400073370	0.2520981418553557	0.3796174216033600	-0.2470051873698279	-0.2070000000000000	-0.1790000000000000	
0.2850000000000000	0.0280000000000000	-0.0570000000000000	-0.5000000000000000	0.0550168603716559	0.1708181951803563	-0.2305541269272716	-0.0514127407055389	-0.1273930990436869	0.1319242970417475	0.1416086689056383	0.4338919230521993	-0.4673012884336080	0.4740747961868394	0.3147654249782431	-0.2656039296195539	0.0274244424334102	0.2546451232551322	0.2741342690309793	-0.1970921009270354	-0.2400524890309847	-0.4571487357135174	0.2210563495837436	0.4855336130673902	-0.0360000000000000	0.0570000000000000	-0.2520000000000000	0.0560000000000000	

-0.3300000000000000	-0.0500000000000000	-0.3180000000000000	-0.1990000000000000	-0.2070000000000000	-0.4010000000000000	-0.1680000000000000	-0.4560000000000000	-0.1690000000000000	-0.4250000000000000	-0.4960000000000000	-0.4500000000000000	-0.4738141690684570	-0.4334749756767998	0.2381314434719283	0.3010054768113303	0.1230000000000000	0.3430000000000000	-0.0590000000000000	-0.1200000000000000	0.1950000000000000	0.4180000000000000	0.1590000000000000	-0.1370000000000000	0.1280000000000000	-0.1710000000000000	-0.4120000000000000	0.3540000000000000	
0.1130000000000000	0.4790000000000000	0.0690000000000000	0.1660000000000000	0.1789948373699410	0.0769866187387200	0.3370476387023787	-0.0980305785423594	-0.3818974835764232	-0.2053809408957833	0.2251247634884629	0.3788641439922345	-0.0431692325624514	-0.1734751555346374	-0.3471056300161755	0.4465035206471352	-0.1046781639203032	-0.2977443780225748	0.0155662064221410	0.4121179726904432	-0.0873800146022493	0.4974305255368889	0.1684639762633423	0.2813478519145866	-0.2980000000000000	0.1100000000000000	0.3280000000000000	-0.2440000000000000	
0.2050000000000000	0.4650000000000000	-0.4769431850829955	0.2692420890328701	0.2139249919070956	-0.2470352038972616	0.3043792358208008	0.1834961471890227	-0.0193884140651177	-0.3552297951043718	0.3441577687673303	0.3325687817080129	-0.2202668788653231	0.3932759421508096	0.4715584666070385	0.5091769021120358	0.1489702127515111	0.3847245473363826	-0.1444833500265494	-0.1984966477632092	-0.4542597241831243	-0.2349192993044162	0.4201359440820583	0.3761160838383867	0.4801992067612961	0.3990989015122324	-0.1940000000000000	0.1350000000000000	
0.3600000000000000	-0.0290000000000000	0.0264076875812427	-0.3623471417180203	-0.1575252261107691	0.2656830022915947	-0.2675457226538218	0.4980088361420439	-0.3225780137856866	0.0897549008852439	0.4229306452194944	-0.5002300266299364	0.3665566176978418	-0.4638074120822825	0.0208914915250377	0.0964224339024328	0.0389051609556683	-0.3281364061948168	-0.2546895917544650	-0.2414347956961853	0.4248698639804136	0.4023647823746995	-0.3110866797488501	-0.0495860858978096	-0.3106003683067105	-0.2757094280175586	0.2197689646557832	-0.0160000000000000	
-0.2760000000000000	-0.4069989731462402	-0.0674499241506964	-0.2766511310277693	-0.4060824226827088	0.0823670773199626	0.3694437099113345	0.1345385459750590	-0.4761413110598942	-0.3499622115744632	0.1652955002497973	0.0755316326110786	0.0233991469673089	-0.2975190018065167	0.2936539184223347	0.2119398131345898	0.0286001617741061	0.4473997801827533	0.1508556977242797	-0.0807868840305775	-0.4251395360648096	-0.1855250928301033	0.3090431636999387	-0.2869838285278418	-0.3696013409972660	0.0951757154410612	-0.4778408689535425	0.1174724967909632	
0.3040000000000000	-0.4940000000000000	-0.1324577705503686	0.1395586292335535	-0.1675866638833524	0.1918033025787751	-0.1809183678980817	-0.1989028473610756	-0.4732853384169923	-0.2128880165482384	0.0221880247174979	-0.1128733379099543	-0.1006964865828780	-0.1775206552650206	-0.4136075159637910	-0.4499700269253674	0.2628378117158584	-0.4678128531809522	0.0200558747859023	0.4627050673070663	-0.1944285294514673	-0.0471260805033896	-0.1650682046859878	0.2973633427494207	0.3396674767931220	0.4904064072698741	0.3795257261246945	-0.1723486615154067	
-0.0870000000000000	-0.0459985329505916	0.3943341688488646	-0.0286799881284644	-0.0560905852138886	-0.2823246757815556	0.0880731561417484	0.1101944931585160	-0.0175829950495866	-0.4241959557065143	0.1378551539048456	0.2796825976945171	0.0869997427193234	-0.2520728033498716	0.0243441624972424	0.5626784876267460	-0.3936692716579017	-0.2794794420220238	0.1467648340005240	-0.3512434217955501	-0.4011354687324709	-0.3161938342954420	0.0538979775256191	0.3603576236445514	-0.5154934973741314	0.3916738609334385	0.1091325312185201	0.1882808620177070	
-0.2070108901118866	-0.3833222418026246	0.2108828314961413	-0.0995853412357777	0.4342449001919850	0.3717707488494238	0.0687714320226223	-0.5084211457804593	0.3632609663910830	-0.5907001501917551	0.3906897430321198	0.1493038530511489	0.2027024157347350	0.2513286301887468	-0.1601021529982790	0.2453853950164296	0.1349020655840593	-0.1230725225903235	-0.4620458073694383	0.0067633369546932	-0.2183880591719483	0.3074680150998603	-0.4649415442384618	0.4139657594138623	-0.2503180622664637	0.0453130259900587	0.3706293375680321	-0.0957192090672834	
-0.1998283826811034	-0.4437235288635925	0.2255661894084500	-0.2386336754375108	0.2232666330063166	-0.5040133206138611	0.4702253079221301	-0.2944996422213048	0.1981951499525034	0.3209725841433220	-0.4551204407923591	-0.4353369848497558	-0.2098817451638212	0.2935488023007231	0.2943559623659544	-0.2201273984036089	-0.1001615564689308	0.3014414642022212	-0.3353579416283515	-0.2256653354578433	0.3782368944810792	-0.4158207603051629	0.1774526074228816	0.2512277187942986	0.1420603512792775	-0.2312180329778531	-0.2364270756681120	0.2218520649435379	
-0.2560045670176571	0.4185067515451157	0.1245574488850574	-0.2876571680357051	0.0471256452475567	-0.3699143363661312	0.5109206288365097	0.0166589741019578	-0.3485598625444535	-0.4968178848891748	0.1240493723048063	-0.1587601578787936	-0.6144881750853221	0.2292423492920310	-0.0598565617051141	0.1976606750192275	-0.2474429485067131	0.0314019511376653	-0.3548445625840120	-0.1848306267845201	0.4863938624419171	0.2211043281847461	0.3897524819356905	0.1575544406549909	-0.2143771731040335	0.0682014062024867	-0.2228820029708425	-0.2519914061576863	
-0.3630184945012104	-0.1017054072791759	-0.0696614531198550	-0.3238523575079257	-0.4776011188458125	-0.3609246650014648	0.5431278238388978	-0.0329251444255339	-0.2247896803538991	0.1444109586763411	0.3199656028238304	0.3412656195198715	-0.6178800909023160	-0.6005208204511151	-0.0575598003807773	0.3565287636427653	-0.0932382254458478	0.2320418834174937	-0.2611006889503923	0.3668604740499748	0.3882909273544659	0.6045759086512797	-0.0597142724767527	0.5047632059741802	0.0539311329888914	-0.4412192476863065	0.0400664523564466	0.2758071619945150	
-0.1860154361728779	-0.3250517800368508	-0.4191848309124834	-0.2688097967849908	0.3829254396754012	0.4023626368079385	-0.1218288227425462	0.6075905140992047	-0.1638276625267100	-0.0205854977029398	0.0939694123455960	-0.2814989664620384	-0.5616118817402372	-0.4011880886173179	-0.2655763356958483	0.3760131035407828	-0.4639857088007381	-0.3132041582820905	-0.2556818947304691	-0.1481860345642007	-0.1711847202741296	-0.1932949991116066	0.3388997628372959	0.6108682583571354	-0.1549014388789220	-0.3671019195720204	0.2241724518410009	0.4052474553938073	
0.2059819032844112	-0.3097290932967055	-0.3361292299191431	-0.1353357183569304	-0.1129500295717810	0.6012392641960097	-0.1701498285512855	0.2176818834773701	-0.2839750444859447	0.4241916971612564	0.2032826845036318	-0.0688366581082252	-0.1044715176997373	0.1975261130865798	0.0109453528773517	0.2518441097290313	0.2237268151973577	0.1280890533797006	0.0663036095098318	-0.3433801149664095	0.0967142632916853	0.5978073816141920	0.4344485532143488	0.2286444868536280	0.4335366734587593	-0.2450611251414567	0.1332651459381888	-0.2977172890450051	
-0.1439649865070631	0.4182548987523139	-0.2693191995371529	0.0586160319380636	-0.3706002206123508	-0.0407444398533145	0.1712134522101965	0.3522787855663954	0.5940472775662927	-0.0229353727910573	0.0965969456133568	0.3424528647455780	-0.0844796074202027	0.2388094354357047	-0.1943455024145653	-0.4244552485406515	-0.5001980308657237	-0.3848232148163475	0.3125039091374253	-0.4725086100292917	-0.4004553625151674	0.1394691185616889	0.3773275852310247	0.5565997269252718	-0.0904760511057082	0.0745058390843240	0.4792440812844600	0.1691047773730056	
-0.4150769485358035	0.1530137703028900	0.2530174283108687	-0.1089833345620418	0.2632101230689452	-0.3392635217949037	0.0659745980953474	0.2933442795801801	-0.3848827571727435	0.3764600941994296	0.2285427349597309	-0.0620449094239871	0.0878804445877482	-0.3253177521537088	0.3034291315170150	-0.1882046065028641	0.3305407095009815	-0.0536980244005725	-0.5096578554499470	0.2404082929191684	0.3142788039752507	0.2861644181325996	0.2180722589117944	-0.2869005132377295	0.2081017118099695	-0.3880668051084724	0.2672400115963441	0.1277964308064695	
0.4789730120879148	0.4480717949327199	0.0471147022587349	-0.2349881056818932	-0.2568893388980624	-0.2547597855050959	-0.3482581381837834	0.0174287178390611	0.2130589812951471	0.0911995388653392	-0.4397571440440762	-0.4168399143592180	0.4108293661405106	-0.2248259079932752	-0.1172879484564139	0.1489347447636866	0.3329721251225102	0.2330979888814372	0.2138917539946831	0.3851766141435560	-0.1853432389700096	0.3412618230143654	0.0498300849323437	-0.3438195782523218	0.4243047205635098	-0.0109734875059886	-0.1722767650856007	-0.3135868531421699	
0.1769897578639238	-0.4505892780197850	-0.4984868356599990	0.3700310455426340	-0.1207772799577582	0.2582546871102734	-0.2717027407979313	0.0059655140948013	-0.3292141801281649	-0.0700224691541546	-0.0378075662210674	0.0004977942405542	-0.2149106735615658	-0.5377649159066602	0.1774770070680276	-0.2205045461893253	-0.0424451593783176	-0.2269950739805035	-0.4466796155941427	-0.2336847208099052	0.3454178217623985	0.1892671723717023	0.5114994572868429	0.2950345691218628	-0.0136510896506328	-0.2215207695186738	-0.2770592336079368	-0.0224090623056548	
-0.0010000000000000	0.2922506882446315	0.1144388514775913	0.0869220466613863	0.1485397606752196	0.5246958937936663	-0.0883914755352348	-0.2713140506776298	-0.3566130134932535	-0.5283307301210112	-0.0064872821477675	0.4023520840215054	0.1249695875799561	0.2351559288976093	0.3633632509569144	0.1338009395439366	0.5564125102304435	0.2959126140339959	0.1706847781408373	0.2321706246381082	-0.1382847048386547	0.1121699235256055	0.0323108317622910	0.2568540631394352	0.4073718880250954	0.0491477982556493	-0.2544351400876586	0.1904928980011820	
0.1404567292778423	-0.4129807737639022	-0.4831943493749056	0.2583696508218172	0.2426777401095095	0.3317197740989308	0.1716651896348425	0.0807808891776310	0.3291481877726669	0.1175545311344511	0.3501375186763996	-0.2723801765691492	0.0198068393218795	-0.0673038273762220	0.2898781785258376	-0.1595917798739767	0.2128212347580186	0.2959454444090656	-0.3819255332099052	-0.2154530993344079	0.1176598245384992	0.4284065645681703	0.1552304779397627	0.3159574945006846	-0.0073773724926021	0.2832627935794133	-0.4545802396948623	0.4089838608756225	
-0.0379998080911529	-0.0262012349177179	-0.4140777858055084	-0.3941858690450191	-0.4670214616766332	-0.4566671607189555	-0.1109990754506044	0.2899478959785857	0.2586148556781404	-0.1362294221447291	0.6006878044384376	-0.3895393802718032	0.4312693419877481	-0.3967976081546262	-0.0101221784169149	-0.2211140526395380	-0.1095148675065488	0.1362228601913047	-0.2955597130255268	0.2802241302636470	0.4094675154778031	-0.0744483255947257	-0.3634834050693011	0.0923688023822660	0.1907996312660683	0.4564407729094096	0.3454479430626671	0.3269634906011835	
-0.1620000000000000	-0.1556160130409346	-0.0693572556071248	0.2426936521296977	0.1438103749750766	-0.5277037439293949	-0.0617439081848268	0.2523116944213594	-0.4041008576975481	0.4005264947860136	0.1571904310545286	-0.3025238814461388	0.0632995250261848	0.4047460452163091	0.3190286873818673	-0.0597003972005262	-0.3439048025581479	-0.3775318859092117	-0.4752328483321942	-0.1576035664103184	-0.0305995981338709	-0.2984864981244149	-0.4849822128220121	-0.5038161177311141	0.1031759439244902	0.0930145388407566	-0.4913076246956847	0.2271451278295231	
0.2119703820445795	0.3964251467108695	0.4108892169400211	0.3162182513133235	-0.4489278301924509	-0.5065624015402436	-0.5318202315811756	0.3764549199646715	-0.2856154081585092	-0.0062889933386454	0.1695413763108669	-0.1372756767753160	0.2316387891543252	-0.4781488383570274	-0.1408974012835346	0.3012857466566050	0.3204396260436510	0.3458838140319864	0.1535475400333665	0.1457356204182767	-0.2233688483936282	-0.3487286760769228	0.0272797911285574	-0.2770276298274439	-0.2023836657711950	-0.3898797715994542	0.1666121712093887	-0.4940019456386537	
0.2289713076056865	-0.4920099274322654	0.0399782555216926	-0.2906136977629012	-0.0359154479300405	0.3917743556444984	0.1458234328263172	-0.0654290949743547	-0.1732332923333672	0.2310089196727762	-0.1629528250903736	0.4182931355132449	-0.2754823115001797	0.2274246935773270	-0.0140833832252527	-0.1701984324535626	-0.1877176615054082	-0.5882160787530274	-0.4019567853217729	-0.0750318092146088	-0.1017619258506959	0.1904177399177594	-0.4210016967725091	0.1100618802469665	0.3280938223080577	0.0065020784126817	-0.4117858466174763	-0.2440035919482838	
-0.3930000000000000	-0.2340000000000000	0.3556104277514528	0.1672603766140143	-0.3531776625054660	0.0751748516604412	-0.4396899332081186	-0.3478448004368984	0.4862985843214457	0.3443172274044846	0.3511846074076741	0.4728363540073529	0.3627131754255276	-0.2385509062231840	0.4745744629398833	0.1716514672051461	-0.3263051361483822	-0.3084199253423641	-0.1206896620805040	-0.2007468105002586	-0.3686830177456782	-0.1607482993769248	-0.4731670679935930	0.3552745034857823	-0.2013146259284154	-0.1518971149659665	0.0822258544954025	-0.2210000000000000	
0.2760000000000000	0.3220000000000000	0.3796972831528705	-0.1995949387717808	0.2947017002507188	0.1506970485806826	-0.3791240041237124	-0.1890437887502488	0.0327206457340657	-0.4884151305512626	-0.1969540516057945	-0.3399173719976801	0.1059262163244460	-0.2746497237956391	-0.2468773068422761	0.2119172000012630	0.3571698166840924	-0.5333484732905780	0.0637815262988708	0.4034627854290120	0.2422068025434177	-0.2812204914465692	-0.1100712204135424	0.4447011427217376	0.1065697013927783	-0.0837254392245926	-0.4932984403050457	-0.2160000000000000	
0.0470000000000000	0.4770000000000000	0.1750028169281666	0.1135451844678340	0.2103959198433335	-0.1353923360044609	0.1291917234943058	-0.1648862824196734	-0.1793244281131922	0.1059838234628888	-0.0346913821418899	-0.4755264506955638	-0.3894261245190958	-0.1309922600354786	-0.0453559758779709	0.0403537054738935	0.4210213589276954	-0.0249738438829201	0.2544979178867528	-0.3269496404343950	-0.4257180366565363	-0.2909836125843461	-0.4845545669822809	-0.4397990290316980	0.0174370844154077	-0.0191895232594546	0.0787576722681174	-0.4770000000000000	
0.2270000000000000	0.2710000000000000	-0.1870000000000000	-0.1180980348761246	-0.3621687748250483	0.3121386205520484	-0.0120873473185617	-0.1746809102313249	0.1007322154271342	0.0103892497120523	-0.2528885267451184	0.3769920599633400	-0.2030003206045637	-0.2234363591148799	-0.1654135711102261	-0.4778937200910149	-0.4845573245886044	-0.3284832930690453	0.2453763909889943	-0.0009768531279458	0.0615840890517399	0.2190525409493845	-0.4423046420021393	0.2149275942469689	0.1489829347387595	0.0950002094823352	0.0220000000000000	0.0410000000000000	
-0.0840000000000000	-0.1230000000000000	-0.4480000000000000	0.0650000000000000	0.3908124088647602	-0.3621147473141538	-0.1886381388988419	0.4684643584892888	-0.4437214383828934	0.2842138507792231	-0.2729709073534019	-0.2713388650922668	-0.0589409656793848	-0.0595472789177112	0.1454623471914737	0.2986680022245691	0.3332701333520936	-0.1303677009090429	-0.0596097329669802	0.3727684621926269	0.1681545975294742	0.4716876510194686	-0.3259290746180941	-0.3632671887652243	0.1330000000000000	-0.2590000000000000	0.2450000000000000	-0.4820000000000000	

-0.4850000000000000	0.4740000000000000	-0.2480000000000000	0.3460000000000000	0.4560000000000000	0.0240000000000000	0.4660000000000000	0.0810000000000000	-0.3560000000000000	-0.2600000000000000	-0.1660000000000000	-0.2040000000000000	0.3757971938856191	-0.4735007243687718	-0.2950630393997402	-0.4820026266416559	-0.2090000000000000	0.1410000000000000	-0.0350000000000000	-0.3090000000000000	-0.0290000000000000	-0.2410000000000000	0.2000000000000000	-0.2830000000000000	-0.4840000000000000	0.4430000000000000	0.1240000000000000	-0.4360000000000000	
0.0050000000000000	-0.3430000000000000	0.0020000000000000	0.1660000000000000	-0.2250159078245006	-0.4540620227849689	0.1303277440895732	0.2859703211856658	-0.4564852204713765	-0.3562184336520532	-0.4979395078697637	-0.3495002590823575	0.3965179095792987	-0.1785515222395677	-0.3478218070070037	-0.3181366647077858	0.1455047454156686	-0.1511035367465881	-0.0961068156109547	-0.1554705696148666	-0.4759670276968557	0.4696227313944191	-0.1645177074151279	0.2946372905478817	0.2930000000000000	-0.1770000000000000	0.0320000000000000	0.3560000000000000	
0.3960000000000000	-0.2900000000000000	0.2760009098321671	0.1919986430942616	0.0500372033326753	-0.2100740147168292	0.2937564255243558	0.3465033052251505	-0.1585337108828655	-0.1945386290092841	-0.4747963063300948	-0.1636036927703980	0.2188590708420428	0.4423091900799747	0.1832903342575957	-0.0061648195391719	-0.4815837729565294	-0.4312292740665827	0.3054106405382264	0.4453359197995856	0.0843292378088613	0.2876842169376696	0.1157981286068738	-0.3181059299849534	-0.4341183562759208	-0.3840183143306661	-0.1120000000000000	-0.0750000000000000	
-0.3990000000000000	0.1100000000000000	-0.0499946511836183	0.4819204067857044	0.1203193340275036	-0.3100099006703262	-0.4680991575080901	0.2301800243710785	0.0638293499056077	0.3656366163766553	-0.2478957491959177	0.0743962986787569	-0.3988624367471005	-0.1294399380428750	-0.2114484793596265	0.3047511816459283	0.3073716198203871	0.2028412313202761	0.3439864026154543	-0.0790697939887931	0.1690160015355444	-0.2788184871775458	0.3541470912256529	-0.3175372264648091	0.3178358841303628	-0.3710026769631670	0.2530842867045611	0.1790000000000000	
0.1130000000000000	0.0999962745230050	-0.2479822876107334	-0.3535900898849879	0.3622549244316799	-0.3659505564331413	-0.1908252651869556	0.4268882820643522	0.2547995366666963	0.4097996991906022	0.1555496619882626	0.1122506862512159	0.1696248899931305	-0.2966761090088324	-0.1547176470874205	-0.2765558092327691	0.3369495087424631	-0.0226843594511145	0.4481279046934533	0.1998506728398662	0.0231657693129854	-0.2785202191898585	0.1577143129934584	-0.1681274814640357	-0.2995116479471693	-0.0229343103664437	0.2640057540565842	0.0095662639325551	
0.4460000000000000	-0.4350000000000000	-0.1200032147041376	-0.3357349072917450	0.4253798199875916	0.0158935209061595	-0.2522123859792103	-0.5166059888418091	-0.0385258289246132	-0.2458379106873486	0.2705593769837493	-0.0665083392735966	0.2748429618723139	-0.2559799155443204	-0.3998423869517901	-0.4914295362609404	-0.3599385666243701	0.0332112997380117	0.2451796569463534	0.0529704068202989	-0.4118557340441661	-0.0012953890613928	0.2862532283414526	-0.2068650744176401	-0.0514234223781794	-0.0117470578945499	0.4312024776621541	-0.4206219264210214	
0.4880000000000000	-0.1789985836768173	0.0974022765428654	0.1009241962279721	-0.3083006471120441	0.0564299976079154	0.2056087420114243	-0.3689526057183325	0.2798665443274318	-0.2248110627799823	0.5120417500086027	0.5091429480040697	0.3982151439965484	0.2956741917036511	-0.4956086699309741	-0.4262167005074073	-0.5707232631465868	0.3436212445600132	0.2492370298402432	0.3179254707411117	0.3933324813354387	0.0460178468211339	0.3706537563924126	-0.1901328076847154	0.2129955052391087	-0.2105254640485089	0.3732799422862796	-0.3292488153674588	
0.1809474826092916	0.3789433394958576	-0.3915626052655225	-0.2847823037148192	-0.2682015336166127	0.2580329773863997	0.4102474213674475	-0.3105908381172047	-0.3233281896599722	-0.2599721525088128	0.1918091372265171	0.4437339930100303	0.5785908636977957	-0.3833570457005865	-0.1612802303026268	-0.4482923912532303	0.1070576113999052	0.2862669573954598	-0.3059399604241957	-0.1861834610305912	0.0629283529044852	-0.0881337557438664	0.3068387045552715	0.0420949780942490	-0.2643292835537077	0.2888662589532552	-0.2538200135957299	0.4564808411074522	
0.1407689180070425	-0.1559000882158006	-0.3678166950822478	-0.3872879654712039	0.1518122167214390	0.2793452745531956	0.0743121242624113	0.1749499454746317	0.6431767346196503	0.5342508272910521	-0.0857222005660486	0.7281942770444803	0.1890876309054383	0.0346613632988197	0.1669849124809241	0.1620643225329600	-0.3801095138140038	-0.2104487950628395	0.1804387538198292	-0.0796735757158890	-0.2548658699081978	-0.2030435217101500	0.0346980942175198	0.5078128794257080	-0.1432958473402456	0.0890127118800294	0.4448902676369761	0.1540378603352016	
0.4899985163302336	-0.0600226289280621	0.4932284113235277	-0.0266748922280950	-0.1855803451892878	0.1886149772017794	-0.3470482055586523	0.1877259619985802	-0.2155329838646412	0.0550795267742309	0.5150461083655945	0.9014602684126446	0.7788226106075927	0.1802131593819595	-0.3268381472390558	-0.5015170875049938	-0.2248155093629303	0.1113092936937530	-0.0693941881227718	0.1743166420605468	-0.2118193357333371	0.3631664533678196	-0.0851858494312914	-0.3180133096631036	0.2545772091994186	0.3635585749588437	0.0804682371211239	0.3451806853504992	
0.1830751933650229	0.0496772394937096	-0.2435995428535306	0.0425457957411452	0.0799889586926128	0.2937634283858795	-0.1107476427525757	0.2266116396667426	-0.0547660702293913	-0.0039864579010172	0.0810246789283843	0.3113014500511704	0.5205449974611814	-0.1825571660230601	-0.4697971027427145	-0.5550417289220007	-0.5780914377537837	-0.5352166664570451	-0.5167974728356404	-0.3228147703037464	-0.0676622243483329	0.0230113871222230	-0.5815532264504640	-0.3833231798465390	-0.1854360713682804	-0.1920026882308538	-0.0122337430471974	-0.1882070326162634	
0.3500041183946050	-0.3029846055601074	0.0028500155536120	0.0850423884425694	-0.3000034505957716	-0.3297848147459615	0.2833911623946151	0.4021087407576432	0.4333266561456681	0.4907865963823634	0.0724422848185369	-0.0528963343712406	-0.0448260040610624	-0.3904139864173021	-0.7267891535322034	0.0925356190701571	0.3361092258224961	-0.3857005861597004	-0.3387200269410452	0.1554744517312902	-0.3528485169039197	-0.0492820241327141	-0.5696236274604847	-0.6185528397047637	0.3760960835315331	0.0176504007582146	-0.1950583276363486	-0.4596765049039012	
-0.2170017765412162	-0.2943533802299181	0.5106564767557384	-0.3085744397938479	0.3756323785424610	0.1537512184496980	0.4241837156647802	-0.0871774428275387	-0.2964048796806566	-0.3648924113058027	0.2500934629992664	0.4113447547853192	-0.2769380028364291	-0.3636548919365432	-0.2505953939489627	-0.5187477028091113	0.2196311010207736	0.2394597769547174	-0.1340006567404453	0.1671013776324799	0.0315724120260184	-0.2873744620729777	0.3912666731379311	-0.5057569578006832	0.0902169235083857	0.4061474464397715	0.2365898067969491	0.3828471573179456	
-0.3140009847800394	-0.4029207278507640	0.1552983176668692	-0.3855332877080880	0.3708562034824641	0.1285951271300060	-0.1857547479098972	0.5258492439150571	0.0748847017257712	0.1393245480931462	0.4287172676944886	-0.3935810400764604	0.1562523142083607	-0.6344040400152512	-0.2439789519593442	-0.4137110310176679	-0.1493730216569202	-0.1823855351595127	-0.5138064664329381	0.3828329508660922	0.1386665209485371	-0.2703442434801263	-0.2328237960721327	-0.2661483056383571	0.1461476717308559	0.0292751790714206	0.0340023224536307	0.0709209122013447	
-0.2429365166665615	-0.1260599287653453	0.4267888579252638	0.1693469341307214	-0.0830989019949812	-0.3320386187904577	-0.1180996096960787	-0.0619467389078271	0.3800915686018290	-0.0832086649564789	0.0735249442091029	0.0247496269852426	-0.6525596205465342	0.0865838457288693	-0.3772766243448971	-0.2211367673648677	0.0698357184126260	0.1891006813548569	-0.0702836368854050	-0.1759025349692978	-0.0462428660202827	0.3700911982156222	-0.2786780946632042	0.5876763766334122	0.0457657437657267	-0.0015597477476278	-0.0176420239970196	0.0657252257975590	
-0.0439817656506515	-0.3069474936932406	-0.0578420117671236	-0.2982556497775192	0.1106643027265138	-0.1684089530833219	-0.4669092435717047	0.0756882308954174	0.3770370437946164	-0.1309041056904799	0.0497431753723785	0.2801850343809362	-0.2589831020752502	-0.4834664354567843	0.0760151250698461	-0.3703774720836800	-0.0401889032836368	-0.0813492942789625	0.1840596752290170	-0.1097920344323992	-0.1126486538263836	-0.1369754212374409	-0.0622965403750226	0.4155504672275405	0.0512572064580159	-0.1479786566544466	-0.3667055833259300	0.4885359118638302	
0.4689854158351026	0.3424457559336647	-0.1850430300553900	0.0621599650951743	0.2386196871198222	-0.0763641006991899	0.0380976843883562	0.3464801846395434	-0.3850831515271129	-0.4085136545537356	0.3109459928471603	0.0844755989556184	0.3212977625005806	-0.0856118148038451	-0.6149098320664713	0.0671454498857862	-0.0002140897774339	0.2274660892056841	-0.0056375933445434	-0.1727218812727865	0.1640198783741034	0.2058064202778032	0.1547129789095699	0.4846367021500598	0.5096247460225894	-0.4076907809746868	-0.3675137090640929	-0.3058930990963752	
0.1550000000000000	0.3512527459854901	-0.0498048017724384	0.4478072114497767	-0.2274428158889187	-0.1634438898742612	-0.1592438157997888	-0.2980937240831218	-0.0748810486100094	-0.2745991408089456	-0.1947766792057578	-0.4570693781568336	-0.1242885985357824	-0.7520078408623235	-0.0111293454777939	-0.5539342993501972	-0.0761258371185640	-0.0211158867656571	0.0548255978083776	-0.2433901338392002	-0.4159013673193314	0.1193431113107603	0.0788385593146917	-0.2516984624760188	-0.1159808721981982	-0.1714415178468424	0.3338985898990736	-0.1990644278955244	
-0.0041271496532818	0.3330118270594229	-0.2726092663161356	0.3872294001732001	0.4280070205811910	-0.0854310868392150	-0.5547452250551103	0.1202784073644584	-0.1572794715686816	-0.3645771070694422	-0.4539575676198698	-0.5017391940996833	-0.9931836794707400	-1.1132864328777639	-1.0805822164723229	-0.6796320310577345	-0.0160047508319612	0.3231390169227713	0.3833705851933067	0.1279972057379921	-0.0320142347764941	0.3623462280641032	-0.1701557491895496	0.1194680761137886	0.4463439463901870	-0.1691815633901520	0.3723119912074720	0.3014338138236690	
0.3650000013659209	0.1867763252794239	-0.4630280395195050	-0.1744565705245016	-0.0907554376233641	-0.1200981593083734	-0.6987474764201107	-0.6160955385787080	-0.3326530267836268	-0.0233351282647592	-0.5101521729138249	-0.3785163720126702	-0.7329385932587493	-1.3918786116704969	-0.7356537030756053	0.1829894819488764	-0.0859633537439660	0.1702748139158666	-0.1771188937849748	0.0131446368165545	0.0567768307703559	0.2647463165136702	0.4596671222091945	-0.4047078607055929	-0.3646799563872237	-0.3404406913651459	-0.4666258487389287	-0.3174070562767599	
0.1580000000000000	-0.2053583362535445	0.2306058306945979	0.5372511891973997	-0.1616050212222225	0.0275190385871513	-0.4260330622038296	-0.4061755082741826	-0.1223361004508633	-0.3095901229093627	-0.4361290028702904	-0.4210267173105397	-0.4416848407801428	-0.2150398646116738	-0.0341649463579355	0.1582898232015809	0.4707825058645952	0.2628867423291774	-0.1240358544681766	0.2022097195427544	0.1312252344176807	-0.2575101037912535	-0.3349072360429262	-0.2381240085396923	0.0022671752609140	-0.1873158671313674	-0.1425053561661300	-0.4258488375411248	
0.4870030942643729	-0.4061701247192138	0.4776270895407465	-0.1089706430984219	-0.1299296320641421	0.2569522599123384	0.2158761760805376	-0.2139710454205112	-0.1401146771240465	-0.3941448453794523	-0.3138001965234265	-0.1015421425858151	0.0394694200014038	-0.3648833972876537	0.2866598569305978	0.6681919121004186	0.6940573296514629	0.0335508306046501	0.7882392571376131	0.4029892680100094	-0.3891185851626150	-0.3239013824252671	0.3410287731174976	0.1377998620231349	0.3205714592038985	-0.3817273844547088	0.3240027640473268	-0.3409410327428007	
0.0180029975686112	-0.2800041138313722	-0.4680689157339301	-0.1826492998710269	0.0193389055706484	-0.2958054277201658	-0.3645046968620146	-0.4549274804281107	-0.2615784575220206	0.1317861433992156	-0.2790115229823970	0.0690764968997839	-0.2641386220281178	0.1002507785335623	0.2305408440110469	0.7237653704729338	0.5268263007304185	0.0788322207402821	0.0094236591483665	0.0663515718512842	0.0392726605807385	-0.1231365045789335	0.2435742814043524	0.3786491850171173	0.0107733335292633	0.0276270626255697	0.1091437433799099	0.3271088626286756	
0.1370000000000000	-0.3140000000000000	-0.0853579106966263	0.3319163635535518	-0.3082293665121894	0.1870779190388019	0.4793809605833046	0.0243094918607622	-0.1574831531333705	-0.0041121201284174	-0.1691156811208695	0.1260439701812881	-0.0988375641732271	0.3476189081000486	0.6117905041314751	0.6335730432710736	0.5739728993673173	-0.0842807428259912	0.5577968519823157	0.6169664644428344	0.2014743090307702	-0.1740809235619424	-0.1371161210606462	-0.4335944325525196	-0.1723214825311957	0.4074090192084141	-0.4439144858170517	0.1560000000000000	
-0.4380000000000000	0.1160000000000000	0.0257201495592951	-0.3631678280893169	-0.0482466570932731	0.4972078703658234	0.4292588660056826	-0.3758009553874694	-0.0534886523085184	-0.4627821186280996	0.0825468140268879	-0.2336772671515375	0.4844700153450173	0.0792887028297409	0.3038336103724386	0.1870131101438857	0.4826025174673864	0.5653769742064022	0.0646820209308364	0.3749009205640645	0.0892107598102880	-0.0579578138228368	0.3159219394526162	0.4860719756473636	-0.0720910159967497	-0.3822096053704810	0.2329782644158296	-0.0870000000000000	
0.4170000000000000	0.2930000000000000	0.3726909405087382	-0.4364226117207763	-0.3229860557962202	-0.4299954992562957	0.4887210143346442	0.0084678837290809	0.1734438205162381	-0.2420502497067863	-0.0801247292850460	-0.3721146402274302	0.4218800279645836	-0.0724628294587356	0.4899844652988734	0.4878787466292395	-0.3476811264349284	0.5304018304448641	-0.2339388736887860	-0.4296194972949837	-0.1922500574514421	0.4611442329883031	0.4002005926116123	-0.3501525301997987	0.3261688754139734	0.3029338245642715	-0.4100703028875329	0.4120000000000000	
-0.2110000000000000	-0.2470000000000000	0.4790000000000000	-0.2009460520449789	-0.1768920547289424	0.4010959603488175	0.0971175386152657	-0.1392937406932339	0.1464693978458050	0.1940568673801836	0.1874498931760370	-0.0992785414159977	-0.2684326505536734	-0.3060739114461635	-0.0351056030950263	-0.2752425237016026	0.5465172334721695	-0.1472042464682312	-0.0265880369554704	0.0506395827637780	-0.1583264362602606	0.0304733804379779	-0.1717556129327808	-0.0669784966274199	0.1949708804394372	-0.3209849366162972	0.1610000000000000	-0.3560000000000000	
0.1590000000000000	0.4610000000000000	0.4070000000000000	0.0760000000000000	-0.0280481603265246	0.1442112828682513	0.0906632057122257	0.4692875314821560	0.1279478674144995	-0.2999452452465578	0.3097180699630524	0.0307398851651644	0.3263979810781127	-0.2834317846861530	0.2064545291811330	0.0311208812450593	0.4544009274085945	-0.3469046767672603	0.2505636465595201	0.1163155565085994	-0.2023092114671557	0.2243398214725909	-0.3792331157640309	0.0264237324198498	-0.0940000000000000	0.4830000000000000	-0.0550000000000000	0.0740000000000000	

0.1910000000000000	0.0880000000000000	0.0380000000000000	0.1640000000000000	-0.3960000000000000	0.3770000000000000	-0.1470000000000000	0.4420000000000000	-0.4960000000000000	0.1230000000000000	0.3520000000000000	0.1250000000000000	0.1107932192805284	0.3415093467703159	0.2239578526412385	-0.3510017561399484	-0.3650000000000000	0.0900000000000000	-0.3540000000000000	-0.1720000000000000	0.3550000000000000	0.3040000000000000	0.2410000000000000	0.4090000000000000	-0.1190000000000000	0.2790000000000000	-0.3980000000000000	-0.4170000000000000	
0.1920000000000000	0.0320000000000000	-0.1880000000000000	-0.4010000000000000	-0.3390900615096594	-0.4532825539259772	-0.0966289587926868	-0.2131389726807097	0.0638987846599901	0.4559503584106193	0.1192892447600289	-0.3650373786094803	-0.2765380954562328	0.0743314402595080	-0.0351470749000458	0.2607422371406707	-0.0626929289878340	-0.0464203821113358	-0.3580864542737885	-0.0635483741526092	0.2437513292376314	-0.3813801855714706	-0.2968631223275746	0.1965638047541967	0.1160000000000000	-0.3200000000000000	0.3150000000000000	-0.4360000000000000	
-0.2740000000000000	-0.0280000000000000	-0.0209203367928616	0.0929251380610110	-0.0193581792663320	-0.4952695193121984	0.0348002921644874	-0.1730040753183141	-0.4017824269084980	0.0861622230191711	0.2247594627284696	0.1199187284963249	-0.3814665698027203	-0.4950254647367900	-0.0449218312600420	-0.1695480011888485	-0.4924810681285530	0.0175700063281410	0.3946549306521765	-0.0745297597351933	0.4714562495857983	0.1254592347447394	-0.2700228279779016	-0.4498589614639755	-0.3326562670613611	0.2442011460572752	-0.1380000000000000	0.2690000000000000	
-0.4510000000000000	0.0180000000000000	-0.0335119844675352	0.0575863233617848	-0.3588083749468879	-0.4448811242050171	0.0919200948611423	-0.3272310893287375	-0.3204327865982887	-0.2520712326631420	0.1227684385391570	-0.4890357317315980	-0.2686185261211448	0.1873451021807576	-0.1331401775780881	-0.2385379082825734	-0.1641890343058365	0.0225226326917827	-0.3121610788234709	0.1408595166757825	-0.3714232414159584	-0.4971814206754626	0.1143647225462968	-0.3380449280591620	0.2839387497178529	0.1718184581055251	0.0997993276852390	0.0790000000000000	
-0.2760000000000000	0.2279836163002995	-0.2424281220730166	-0.3441623741694179	-0.0853354490924172	-0.2452840898832286	-0.1932811163288287	0.2351125585946695	-0.0677997800731915	-0.3159053646613556	0.0734755128517101	0.0547857976975417	-0.3455041441841457	-0.3483842970580298	0.2818292758699303	0.1675220470978725	-0.4383472081560116	0.3678540017401640	0.5766331790806760	0.0950421565597933	0.2807929112170509	0.2371350767166700	0.2967027816484284	-0.2474778933069022	0.0919814069295116	0.4522514416963700	-0.4113848544306135	-0.2248752992668094	
0.3150000000000000	0.0790000000000000	0.3364675273474879	-0.1163838011960801	-0.2569265849065828	0.3576446326455783	0.3137836429437770	0.3459940384687500	0.1987131816893721	-0.0885469701331637	-0.0939959647003411	0.4599301906299333	0.2280879392154185	-0.4249841667584224	-0.0542797892496846	0.0117485107476146	0.5192455087237532	0.6635570071035631	-0.0098925132162212	0.5093167355891050	-0.1542446884470819	0.2971427219500968	0.5860528727635008	0.1130143826753254	-0.0257102096893265	-0.1060429539978240	-0.1613492471862833	-0.4481297969352530	
-0.4060000000000000	0.0920017194660306	-0.2251609517802771	-0.3959284489013510	-0.5355779807455414	-0.2455024726625163	-0.3024879722758382	-0.3970112045416841	0.4798821278922246	-0.3159753090443671	-0.0679918413964493	-0.4553618533632090	0.0971531210687753	0.1792281689250507	0.1869318868584505	0.2660441385104469	-0.5598595896764547	-0.4786526185076420	-0.6056726711118354	-0.4513105243800564	-0.3317241833418331	0.4187803711274171	0.5566513173618910	0.4256819960512112	0.1224382494085352	-0.4080907492693875	-0.1470369145574428	-0.2428182987080509	
-0.1340122090597767	0.3846866292467576	-0.0524263199151243	0.1893949707639902	-0.4864576879249574	-0.3377151405184754	-0.0122189414460329	-0.5005104992713753	-0.0660007664871407	0.2600880104101525	-0.5252318927872826	0.2331239114621483	-0.4021655699652321	0.4797195964284336	0.3419603668175500	-0.5396130524903026	-0.6935263371031969	-0.2564278018384368	-0.4392311523167874	0.1911290019812144	0.0643857928439569	-0.0310626365139976	-0.1851775507139778	-0.0222647519999559	-0.3590247143382679	-0.1743090164789194	-0.1376089654079893	0.2802438435686120	
0.3779052757091558	-0.0951754256273700	-0.2056300795858092	0.1462211509154519	-0.2386948835784633	-0.3851064091107485	0.1192779747546076	-0.5863670123940857	-0.3480385956260839	-0.0049952004302178	0.1408243189256330	0.4798364834691368	-0.2542217503521050	0.5659906886882449	-0.2290154831094995	-0.2467221796575501	0.0610300752918477	-0.3256922126985768	0.2852983409390685	0.2794988605077999	0.4235987797251757	0.1738296633181646	-0.3852534666222553	-0.3792133719320345	0.0633707773182589	0.3362699379888859	0.3795123141344000	0.4334860136975332	
-0.3910178628455049	-0.4055084339403178	-0.1276066077972768	0.0095209466276001	0.1039592677216157	-0.0694703312778636	0.2761421907116905	-0.1653358953024647	0.0857792733090657	0.2765998398355518	-0.1527408241714547	0.2285664339344438	0.5754742530138721	-0.0966806562741103	-0.6784925916884020	0.0693920442901886	-0.4291498762786531	-0.0488121405007716	-0.0563917585616160	-0.4723048936291959	-0.0660014712000790	-0.2500124902871463	0.0668262547840891	0.4407030488927260	0.0437368751782567	0.4621303638882141	-0.1320078182273589	0.2597735726948446	
0.1849833927266273	-0.4782180297053945	-0.2971375274704914	-0.2508737124314089	-0.2556602647369385	-0.1139423323420670	-0.3709296995901030	-0.3679489936321134	0.1445814037704600	0.5111581432358393	0.0960421942211891	0.6970841279514050	0.0060565196572485	-0.2737071500906721	-0.2199690122315179	-0.1632177627742081	-0.3875348918992573	-0.3493241548664627	0.0557214569102681	0.0185793163004632	-0.3672476164404178	-0.4588026094655362	0.1722261284971072	0.1789487759983602	-0.1417397156055768	0.3609720603882545	0.4172872241364501	-0.2670433994325809	
0.1749228330840880	0.2337879808433739	-0.0912812104179606	0.4136654277694286	-0.0160450669674998	-0.4575978682294022	-0.4765364136109518	-0.2759574681378490	-0.2224403559173813	0.2274002762420756	-0.0010535422245231	0.2161867137741359	0.4305831313550009	-0.0467711801537827	-0.5374404327271503	-0.4284397400920321	-0.1107183040607093	-0.2498570157052026	-0.5496280359997600	-0.3759227716728777	0.1472827898749426	-0.0842081637538027	-0.5216792879440950	-0.2895250607553610	0.1381580337262434	0.1021960229751901	-0.2655991474600429	0.0704035104897347	
-0.1240226886217117	0.0271103367778241	0.2150616438880671	-0.4867383121582767	-0.2508336755980021	-0.0804982960645242	-0.4555653730368534	-0.0220036914664655	0.4379903503983246	0.0601996360785444	0.6956964105284773	0.6204130194821024	0.0409309860861650	0.2459517150508536	-0.0216380686574140	0.2659409075428756	-0.5742182489212297	0.0271991741166780	-0.2078972144300015	-0.2665485281420878	0.0706548745816174	-0.5427477212607748	-0.2416140745940117	-0.3674710272385076	0.1778414615657886	-0.3262576973084864	-0.0830698430954896	-0.4181669257742133	
-0.1109982295941683	0.2351140157432143	-0.4863896761706833	0.3711027988968725	0.1752888907353939	-0.2776834114720301	0.0606039355034525	0.2301459264015310	-0.1220761580721360	0.1994472178890084	-0.0411030804652621	0.4946431508072288	0.5536527848988896	-0.0873096911363635	-0.1488509542203543	-0.5844131809291572	0.1237554506158198	-0.5165201494184090	0.1542630756003774	0.2241150108914839	-0.3522633668546464	0.3542705242169543	-0.0689856417636377	-0.1007521630877649	-0.3414635569482886	-0.4827206965577016	-0.1814421022593443	0.1722693711902464	
