
-0.4590000000000000	-0.0330000000000000	-0.1660000000000000	0.0000000000000000	-0.3310000000000000	0.2240000000000000	-0.0220000000000000	-0.1420000000000000	0.4620000000000000	-0.0360000000000000	0.2050000000000000	-0.3550000000000000	-0.2186261825950220	0.3272908590414613	0.4604128018314158	-0.0090244665903577	0.4950000000000000	0.4420000000000000	0.3270000000000000	-0.0640000000000000	-0.1090000000000000	0.1040000000000000	0.4020000000000000	-0.3470000000000000	-0.2080000000000000	-0.1180000000000000	-0.0790000000000000	0.2160000000000000	
0.2180000000000000	0.3950000000000000	-0.0530000000000000	0.2260000000000000	0.2709330850651694	0.0378076692535243	0.3701943531843793	0.4142132315228945	0.1679165846338487	-0.2014666329991112	-0.4650763678332088	0.3894504320683975	0.1926860956677162	0.3062794848019046	-0.1809621959028553	-0.1700508909701785	0.1659661105215561	0.1609276820585043	-0.3512996585532609	0.2204961930711209	-0.2380109557071173	0.3802015473166298	0.0501467061925115	0.1443607449381300	0.1620000000000000	0.2570000000000000	-0.4630000000000000	0.3590000000000000	
0.2230000000000000	0.2410000000000000	0.0288265370145090	0.2777208937861765	-0.1842661591174998	-0.4650511616129452	-0.3085442282358765	0.3457588943930680	-0.2065074871965798	-0.4015835101459237	-0.4899419141423736	0.4038529062090422	-0.2747081611187543	0.1251861626916843	-0.0863716033226674	0.2791493344717023	0.4012653649878509	0.3029007556794882	-0.0634426516299206	-0.0940509050007748	-0.4710227308874433	-0.3671049822666568	-0.0899481650348590	0.0567623645355381	0.1304136201013825	0.1221323539980475	-0.4160000000000000	0.4540000000000000	
0.2560000000000000	0.3400000000000000	0.4626783630205237	-0.1256015293866262	0.4315521167332495	-0.1878102093321036	0.4497670797392760	-0.0598599328563437	0.1245173091578427	-0.1788040457335366	0.0460457702517660	0.0014256777779050	-0.4336690229233328	-0.4720727273351085	0.4058893980557067	0.0353226950408304	0.2109613079266719	-0.4408758054925212	0.1913293444956416	0.2115031822447707	0.2707329686460923	0.5597549043424345	0.5368695807743895	-0.1689426850252949	0.1809856430736693	-0.1136956574102612	-0.4736666791480234	0.2450000000000000	
0.4240000000000000	-0.4280301387941123	-0.2400422337388045	0.3291478200872996	0.2857338857338018	0.0728144863471564	-0.4177386331041102	0.0036681844701485	0.4530509557147906	-0.1896389693129880	-0.3405835401296415	0.1035444889384571	-0.2397828240206464	0.1930482580379573	0.2439651995528406	0.1246251495559356	-0.5142384136768312	-0.4817299505567584	-0.2132859588090524	-0.4225891074516110	0.3606265206946686	0.3253455850240933	0.5512116023170455	0.0631345834304044	-0.2768881941082612	-0.2706787342956918	-0.4897541218697257	-0.1626858982827029	
-0.0430000000000000	-0.2130000000000000	0.2514643634423644	-0.1228720373879674	0.4223931004437939	0.3951173800683794	-0.3082090674342960	0.2553887751769306	-0.2713565741822616	0.1809351371954067	0.0063277144895118	0.5180170404435106	0.0995550353788778	-0.2218830550677015	0.0954644075978863	-0.4143597389571238	0.3462680025651224	0.1496609575112944	0.3021936747390301	0.1495426822788448	-0.0317422641882573	-0.1137120893761256	0.2276107826877047	0.2495980234071563	0.2143229997211658	0.0405505631789335	0.1032142702293898	-0.4561018484572799	
0.1020000000000000	-0.1500011962707541	-0.2053989460911889	0.3179875629594548	-0.1661950030140207	-0.4858941167900230	0.0713165578789761	-0.4945243015153595	-0.1705428454927374	-0.2639194807812098	0.2242160978167040	0.0574382388644275	0.1268560456607357	0.5641475169788505	-0.1834391134129550	0.5313906386543669	-0.2700131666114042	0.2929378449861242	0.3495635645680136	0.3855104918519213	-0.2512954980612797	0.0073762265912557	0.3732927965396457	0.6238587454828279	0.4013696602268999	0.1104889722568642	0.3389959900483455	-0.0696110453133131	
-0.1900422178923363	0.1169605092606475	0.3103814724705877	-0.0145543512430677	-0.2630171182142166	0.1005718301457849	0.3305162394166561	-0.1348112003220903	0.0472354850151502	-0.2255326551805542	-0.0059562294355115	0.1491373917803465	0.4105097065092025	-0.1327330776189480	-0.2119537773625869	-0.5065762886227009	0.2180520119095480	0.0732244611426575	0.5567641223791616	0.2572013754488737	-0.1398898757889633	0.0817750099143157	-0.2390110454153577	0.0975300156415612	0.2390304819064779	0.2146443511247571	-0.1264755496219630	0.0089950041495342	
-0.0521229880889667	-0.3001106676339076	-0.0530701657062178	0.0926179514609902	-0.0017317129008092	0.2376502020628594	0.1936470497526525	-0.3681269803373693	-0.1116278788538395	0.1893020299323689	-0.6021262274548677	-0.2536564960446093	-0.0686187878020425	-0.0069823277029197	-0.2077232196623751	-0.3838454491377656	-0.6459322434023459	-0.3951600050048424	-0.2603724872277888	0.2261993428310667	0.5184327790583292	-0.2552239171769176	0.3638317865182051	0.4974045613029510	-0.1954510653630580	0.1057475904760134	-0.2673993151765212	0.1349385307399814	
-0.2280265211867802	-0.4427711013044719	-0.1769022953572515	0.1187472062148101	-0.1662666708329111	0.3036222203131583	0.2481107371466135	-0.2412757008950409	0.1824094629486337	-0.4947008445692290	0.1240118723699826	-0.1790992724169065	0.2053081673686149	0.3629645227297586	-0.3128376130338382	-0.0714439744598090	-0.6582206461640900	0.1737100071465775	0.0994130101886633	-0.0996659529424325	0.2342330663225859	-0.1508397812480558	-0.5171911070598640	0.0984554579076570	0.2149963014917076	0.1237186530151574	-0.4790132728400529	0.3704466337067936	
0.3610094354505262	0.1880248630766894	-0.1036756938831285	0.2688524085407318	-0.2339526085604883	-0.1515533235382836	-0.6523450851203501	-0.0800577785581752	-0.4536610322693814	-0.3312158654840398	-0.5446047470993964	-0.2322208721739934	0.1413598803245364	0.4760434558478849	0.3726572407414374	0.4309587223877849	-0.3397319520695767	-0.2610032537747810	0.3393329504692852	-0.3889431855795276	0.1892044082243647	-0.4974052559602099	-0.4053152631093858	-0.0168454698418117	-0.0271781802106430	0.1630931517179030	-0.0334398778477721	0.0512981573844511	
-0.0590419898650730	0.0116418959705397	-0.3593661908132541	-0.4551403917152488	0.2013888958820894	0.2026241822879369	-0.4557451456436878	-0.2530127321061787	-0.4200192265420390	0.2245873345762574	0.0183817934356934	-0.1848194175715490	0.2078111003084418	0.2231763990489801	0.5041955025733335	0.4896101411360295	-0.2538686860447483	-0.2219178818453706	-0.1541542891850429	-0.1793919789481335	-0.6692181313081064	-0.8232724448834087	-0.4393379515267183	-0.4554022494284914	-0.1174229963703926	0.2643397394544891	-0.3712418867296576	0.2017867943431686	
-0.1840173192749720	0.1698641418642483	0.2804991454161503	-0.2467153977556645	-0.2180066268724191	-0.1930953898963945	-0.3756919449420983	-0.6052663064857170	0.1967038006311425	-0.0218297614639201	0.1576855477230941	0.3638452012613436	-0.0509495016337308	0.5460722380825275	0.0291282611256255	0.1961575765562348	0.1063374751872492	0.3767518335875481	0.0054984392644482	-0.4272676009579101	-0.4670199135882502	-0.6355182132814208	-0.8013158398031743	-0.6243672421547708	-0.1153329026896905	-0.0865763244205999	-0.3284780035875769	-0.0356142568323150	
-0.4560908307019698	0.1576699046357734	-0.2209189465269314	-0.0688163463326786	-0.2866873979787586	-0.5105691173259790	-0.4508531541537181	-0.1656570085035307	-0.0455643504231846	0.0123820142286469	-0.2962688416984121	-0.2086578756837564	0.0775337319517129	-0.3103511569159668	-0.2807545391483366	-0.4062358283271765	0.2640815243552700	0.3359171248935030	0.3281261746590824	-0.0779714363736705	-0.2055784078987412	-0.0126151638803193	-0.3120116001266546	-0.3222062363000273	-0.3401729082017077	0.2649832210340780	-0.1848203999601348	0.3680100625432567	
-0.1278168869083545	-0.3420826969844056	0.3292352415878623	-0.4360090301313262	-0.0408843611882128	-0.2798297545560432	-0.1206481182219987	-0.5389668440137126	-0.0563927908515222	-0.3943551658819522	0.2530977272812897	-0.0496609395391876	-0.4105787330157763	0.4361431783268629	-0.4082852173748495	-0.0867812221396718	-0.3349742149297897	0.0117528261109423	0.2137911484488153	-0.2453189572192763	0.1723532681907723	0.1403609466922600	-0.1462822078178213	0.2396431346386883	-0.6059434285101440	0.4248207958369059	-0.4637187616033362	-0.3191364893375728	
-0.4969486670341491	-0.0694768162192453	0.0016366159751304	0.0957808319352229	0.1988623223987459	-0.5619154888221733	-0.1114042502376625	-0.6581710005985840	-0.6205907066146920	-0.3545917162055298	-0.5092346349678138	0.1270445814305673	-0.3962619398301565	-0.1704322119750933	-0.0959247690498762	0.2710873162061169	-0.5203435856881173	-0.2947453630943354	-0.1794429772050163	0.5175248810217746	0.4605476915910022	0.3877640352883782	0.2696170143180276	0.0595914324993325	-0.2831091012036507	0.0133498702115224	-0.3916760141912415	0.1902745964398345	
0.1949507176106319	0.1239588884844530	-0.4863505840458987	-0.3540986292739763	0.0811794619610935	0.1850766745362507	0.0874633429294553	-0.4756548295941945	-0.4108925411212920	-0.1356309096074011	0.0505907544599072	-0.0976040583817403	0.3182514328136387	0.1055169089422193	-0.5377706388454809	-0.1934749201129563	-0.5578872576997199	-0.2934541639431814	0.4835671690786687	-0.1731212862780039	-0.2223301325820118	0.4244305188633297	-0.5655152055313319	0.1803179811734464	-0.3594393692862408	-0.2290507632129168	0.0468044326154477	-0.2810073113684673	
-0.4570000000000000	0.2578245231035070	-0.3377773633682039	-0.3401972836464929	0.4552639368886404	-0.3361073851967772	0.1857842335670420	-0.1127554577500751	-0.0224528978579348	-0.0587469877783226	0.1013582001400211	0.0444837096905389	0.1123262664513227	0.4198005525378948	-0.0880329917390552	-0.0249495014178510	0.2637463078814529	0.5284123426854774	-0.1603033754853934	0.3780806625432415	0.4766385796640468	-0.1904089686939772	-0.3577822351476505	-0.0224347622603159	-0.2721564904750455	-0.2603683547147282	-0.3077262268639239	-0.3903973356897664	
-0.4710929825486348	-0.1743145451293638	-0.4901714606756160	0.3466513657070430	-0.0057039259101296	0.1422287329457106	-0.1834029530915004	0.0291846812080983	0.3202901877301667	0.4021926064649331	-0.3486004788175848	0.0989990517056977	0.4769197053401379	0.4295167323373774	0.2117476735833028	0.3473918699447889	0.2143162149077441	0.1024338194584463	0.5147287400747016	0.2822641345898763	0.1133154156986699	-0.4071537638512257	-0.1098558413126703	-0.3229943471364208	-0.4475906398948351	-0.0596583830769045	-0.2062599797544288	0.2555918224200729	
-0.1430000659634621	-0.1750513527557422	0.0003611881327677	-0.3093936003529458	-0.2881321927981482	0.4833470497480761	0.4064126680948904	0.3241104683440106	-0.0404501456131783	-0.0272867126489199	0.5199004926970152	-0.1149387006445862	-0.0375397698728674	0.0388410821144287	-0.3544011904396313	0.2311465711918349	0.2670061828266181	-0.1281178274142373	-0.2547401435984633	0.0484414727158658	0.4537402709545494	-0.0338736670066122	-0.0658476789999122	-0.3517568709803628	0.1354064561182364	-0.1369496797753685	0.0144325597877367	-0.1435402908568974	
-0.1630000000000000	-0.2301213985614708	0.3857887600413464	-0.0798092075204827	0.5023070199647603	-0.4136609237264586	0.1863602276189503	-0.4553046322409480	0.1552265234350070	0.2033368918076661	0.1772254831455027	-0.4493840652902306	-0.3040331107793280	-0.5144570583970876	-0.3318445036072070	0.0736073964535728	-0.0062726566866262	0.6135413993724946	-0.1166592848943487	0.5228994093563512	-0.4117007788883373	0.3341924567663659	0.0147009974913319	0.1934568924260850	0.1472625523756202	0.4620876564225594	-0.0472843618386463	-0.1310458686831026	
0.0319663809382955	0.4625690120735683	0.1001449620875647	-0.0177906990581613	0.4889445412168549	0.1615396344658830	-0.3891458644216301	0.3314399980798904	0.1943648098744454	0.4776999884199661	-0.1838779858164419	-0.0904508102176359	0.2333444767104251	-0.1113713773231716	0.2357141759473349	-0.2372312090678924	-0.0804206860737431	0.3720469027093721	-0.2414005756931454	0.3574072246661952	0.0325355787875554	0.3873562469944314	-0.3463281622883262	0.2487498287080754	0.3561508875969158	-0.1182581205275645	-0.2257326154043673	0.2011023448836969	
-0.3070325684660262	0.2339699385477154	0.1352664978679255	0.0422127729624487	0.1156882192197317	0.5011489468230416	-0.3667951693864400	0.1691771550516807	0.3952005825658018	0.0921886307265721	0.4567261669795075	0.0261195736178780	-0.0152720906470213	-0.0025219002782484	0.4187594420357384	0.4722387324980769	-0.2445917702749020	0.1231481327524169	0.1068831713575980	0.3748405400909572	-0.1385772283706208	0.1106490782662487	0.1865476432314198	-0.1167310928755538	-0.2339297056590170	0.1504289882523323	-0.4617717935561617	-0.1868110555993291	
0.3750000000000000	-0.4280000000000000	0.3225508959142013	0.1306416152256706	-0.4246166706416148	0.5139285753850065	-0.3439591586722051	0.1452480673993569	-0.2795550754584937	0.5542185887237780	-0.2569480565430997	0.1422661217339028	0.2964928485725275	-0.2642146802959053	0.3220495597100015	0.1875116141310377	0.5070466974081366	-0.3528355242520068	-0.1704716368291337	-0.1988899484401280	0.1243393671912243	0.1975214165195388	-0.5111386186667475	-0.2916150974659424	-0.2090216542080551	0.2283166340529893	-0.3098575938446477	0.1050000000000000	
-0.2360000000000000	-0.3190000000000000	0.0056613916419644	0.3489005144845975	0.2826842378338121	0.1290400253661879	-0.1548049406139574	0.5530197707829225	0.1144332843203804	0.2152237515025219	0.2423056042418500	0.2169220111364201	0.0844551298145273	0.1919314814101966	-0.1952421005068396	-0.3323540338263347	0.2954276354496981	-0.4061715785064290	0.0486493800202698	-0.4355881150694612	-0.2857105638116203	0.1597517887158838	-0.2915089560446661	0.4803331724808624	0.3140039156803732	0.0957374534805997	-0.1080443178848503	0.2590000000000000	
0.1700000000000000	-0.0720000000000000	-0.4727103839504205	-0.4120456927693934	-0.4305567380304016	0.2630727806016448	-0.0224108009087246	0.4316036419425500	-0.2773669357717165	0.4011367268329472	0.2264115224416495	0.0931429652588443	-0.1702141622684373	0.1919656191373212	0.1121629764405092	-0.2411578953426386	-0.5992161131948930	-0.4506591229643638	-0.0868418544315398	-0.2767754166110799	-0.3456215403797190	0.0310473050361366	0.1320612335812587	0.4248740803786242	0.0936207606192807	0.2039920348198349	0.3179909362106623	-0.2680000000000000	
0.2500000000000000	-0.2950000000000000	0.4750000000000000	0.0390878147384556	-0.1980665457597188	-0.0750573344223477	-0.4130148742995833	-0.2757885318820585	0.0297453802087680	0.1082928537000562	0.4258896050032812	0.3032141834967005	0.3455499134538970	-0.4760109362137213	-0.0233140821768177	0.1253018807233073	-0.0147371707442640	0.1237440840116805	0.2198435634341494	-0.2584152122165092	0.0112533097581759	0.4744429708716262	-0.2135655870610461	0.4436319027719126	0.3649688870571145	0.0399942496990008	-0.2550000000000000	0.0080000000000000	
-0.1820000000000000	0.3700000000000000	0.1010000000000000	-0.1770000000000000	-0.3678984511249885	-0.0277535234380945	-0.3486941541769731	-0.4181474506983150	0.0659654491228878	0.2640170890905886	0.3997052631442829	-0.4003805705890358	-0.0820955222886683	0.0262833180370303	0.0871484972052753	0.4585244138875472	-0.4941459278098687	0.0593786403029920	-0.4776332871724994	0.0427073959750104	-0.1530292635068382	-0.4208855667236187	0.4376185016566499	0.1369983180172769	-0.0910000000000000	-0.0370000000000000	-0.4510000000000000	0.1810000000000000	

0.0880000000000000	-0.1580000000000000	0.1080000000000000	-0.4400000000000000	-0.2790000000000000	0.2580000000000000	0.4540000000000000	0.3880000000000000	-0.3540000000000000	0.1900000000000000	0.4490000000000000	0.3430000000000000	-0.0710970089620523	0.1173027018652011	0.2476714690721494	-0.4330136887886604	0.0360000000000000	0.2830000000000000	-0.4650000000000000	-0.2740000000000000	-0.3150000000000000	-0.4620000000000000	0.3530000000000000	0.1290000000000000	-0.2760000000000000	0.2480000000000000	0.4230000000000000	-0.1410000000000000	
-0.2430000000000000	0.2660000000000000	0.4440000000000000	0.4550000000000000	-0.1820378195215378	0.2258483882741785	-0.0924699663958946	-0.4825532098964882	-0.1574069477157600	-0.5045072193972320	0.0401960171352231	-0.0107794871924506	0.0727496190264341	0.0063085527456923	0.4615890131209059	-0.1746394531502527	-0.4293602424924942	0.4120609983519933	-0.3640196250232164	-0.3213295415610145	0.4363854750459494	-0.4349141541782015	-0.0816248324626395	0.1041141500392626	-0.3270000000000000	-0.0710000000000000	-0.0960000000000000	0.2050000000000000	
0.1260000000000000	0.3120000000000000	-0.1249772100870702	-0.4069777386911168	0.0652100120916006	-0.4642871707721727	0.2311951126630807	-0.3743087618645177	0.2875299571332329	0.4665135952200936	-0.2838483384673035	0.0970625117187054	0.3609597830573381	0.2565860027987879	-0.1074011417577789	-0.2242888163605089	-0.5207176182779905	-0.3766051405770504	-0.2801748354705749	0.3266435631035257	0.1084766262934276	-0.5067798390539486	0.1164046757981571	-0.3232805587893237	0.1889317496821570	0.1505414843543969	0.1620000000000000	0.1340000000000000	
0.3930000000000000	-0.1470000000000000	-0.0837929726022823	-0.0480164862072281	-0.4937023271980275	-0.2497565858410476	-0.2849968133778489	-0.0819853497791627	-0.2617980115842244	0.0551959534515311	-0.2765799502882099	-0.3504740358280329	-0.4955749052783071	-0.5719285077607644	-0.3277732015462794	-0.3768822405186237	-0.4543663414159833	-0.4902582311969984	-0.3346445502131567	-0.4451097551486282	-0.1953974131167936	0.3754663157642044	-0.4388624972395359	-0.3908600329046229	-0.1878155274997891	-0.2292839138416013	0.4052683396433172	0.1760000000000000	
0.1430000000000000	0.4089998542839134	0.4025270847971048	0.0594601065068707	-0.0219931839636295	0.4226507362531883	-0.2509887856506533	0.0758894392605958	0.0496710036124214	-0.3954457084980931	-0.2406146977507368	0.2674217036542463	0.1127410798341529	-0.3269650810377995	0.2893049769760874	-0.2362480252540460	-0.5261672939305226	0.0942962302270805	0.3796542525498536	-0.6160448420905451	0.3680884272480601	0.2308026605992862	-0.0200296922515347	-0.0752520709231302	0.2098154866240200	-0.1641885355378327	0.2120349122059003	0.0879795648643066	
0.2220000000000000	0.4380000000000000	-0.4629789838769393	-0.0919402969840051	-0.0553476660801971	-0.2832488557839093	-0.0534864368178767	0.3609976205096245	0.3396924449219438	-0.1394872379001454	-0.2249477145346438	-0.4729351284737872	0.1534880864370496	0.0987551789172034	-0.5676475313735486	0.0132963982015829	0.2615240698050086	-0.3656403421777050	-0.5726312616951336	-0.5499878436823873	-0.1628328289994034	0.1598911829115234	-0.1766616317393218	-0.4039497534177638	-0.2561197458643521	-0.1966517526557051	-0.4141723140412554	0.4544855316997978	
-0.4150000000000000	0.2099940520935071	-0.0129961628363468	0.2869506835457182	-0.1001031960316893	0.3723580638913446	0.4596242877788226	0.0077047137192757	-0.4758331673164293	0.0551969444487166	-0.5347683821899950	0.1459182418904151	-0.5799504155145165	0.1681724973553750	0.4099910386805943	-0.6226435558380579	0.1425565063203021	-0.0638227120358629	-0.6416279315106230	-0.7149904064018675	0.1717179830758948	0.1535553114785391	0.2356092332299351	-0.0149549970172235	-0.4088673395728472	-0.2984505520129667	0.2879575842420616	-0.3050683304928350	
-0.4289618616021691	0.3848227020555547	0.4849731300267969	-0.3922829034786222	-0.1264079409488283	0.4338705527792855	-0.3350743971633496	-0.2104209162367313	-0.4039930310570617	0.3357240090190355	0.1403382393952390	0.0571239296484932	0.0862293982044575	0.0832658478852097	-0.3191218076921318	-0.0698003940225525	-0.0586139252976181	-0.7452859345241358	-0.6633203804163390	-0.5863615523760378	-0.0556887534315984	-0.0557255145088658	0.2357663764729470	0.5013522575845195	-0.0375560125548512	-0.0724823156705349	0.3529512441813319	0.3140733167779747	
0.0171598501218850	0.2303973324566389	0.1772386308346894	-0.3850967781290482	0.2120096861147377	0.5488413230838365	-0.1658124084148888	0.1619997816990408	-0.5343066245893389	0.1395597264946423	0.2750747931708318	-0.4297631802358967	-0.0136579964612413	0.1260845153834327	0.4442580695767395	0.4376207070647689	-0.3743747104148722	0.3162086296190629	0.1025968369842846	0.1298753887857999	-0.0410353478629095	0.0306099186799659	0.3318602853297227	-0.0511751697701716	0.0073044792680571	0.1922571846527683	0.4276089624932696	-0.1935309127860027	
-0.0188903137883738	-0.4781213961746221	-0.3532231822183644	0.1451158208443666	-0.3212037615156199	0.3766567301175051	-0.3689382611850980	0.0322892955936375	-0.3033228519909651	-0.1958727369378486	0.6376194378244945	-0.1713463944873085	-0.1598790815151730	0.0669222696999197	0.4310914071310391	0.0225225016550022	0.1168685490773745	0.3743297717934180	-0.1333182422640701	-0.1669548092755254	0.0991377731519549	0.5384600225229199	0.2825466256851624	0.3481878087912885	0.7570895572308715	-0.2714057113807827	-0.2070913098212753	-0.0219038959990067	
-0.2618223711181737	-0.0669546630702363	0.4451912634132250	0.3805996452375177	0.2462496160793014	0.0804946831058948	0.0003887513682713	-0.3016587391450220	-0.1248118770775630	0.2118331149126984	0.0169433842000252	-0.1301963373616596	-0.0401538189576021	0.1675587805441797	-0.2901566675796146	0.6915342416402261	0.3116000991128285	0.1714440294310408	0.4739823999015093	0.7079385868337934	-0.0855692261116095	0.5181813228445376	-0.0187303033164785	0.2499964151840778	0.0283512179837133	0.4907518424786832	-0.0941073025368528	-0.0491815736689135	
0.3820514370871924	0.0494713830224349	-0.1448618812137742	0.1111314066217478	0.3141725123764836	0.1067842591660579	-0.1327334132728402	-0.1621003816775205	-0.2283308020463171	0.4963730787789226	0.5927781106817618	0.6004211548174653	0.4898544418030878	-0.3200507729753107	-0.3360188566354594	0.3484257039867329	0.1461249321796276	-0.1420086365868099	0.2149549805579900	0.5963726478953206	0.0998883833878876	-0.2484318833457218	-0.2387070705135614	0.2215761948318053	0.2433020248078663	0.3955180746794156	-0.0979133331696426	0.2553975270419260	
-0.1021555797795296	-0.3496616229480303	0.2488161691252788	0.4771686023859642	-0.2841198869488860	0.1040363415418366	0.1350838539036824	0.1487509753263982	-0.3660914720161155	0.0758055579541507	0.1231341496787676	0.1541950584078002	0.3030930294143597	-0.1131753775685509	-0.7339005818889426	-0.1186600655119565	0.2799821162885843	-0.0919670578866191	0.0072061674426544	0.2236468148902584	-0.4463442770444877	-0.1063364332946592	0.0306529927361434	-0.1106392673032646	-0.2280465999970185	0.4296792855592239	-0.1150148132664299	-0.1690204876402488	
0.4249920917705240	0.4133325013117183	0.2491916460462506	-0.1358579990256839	-0.1537344865192453	-0.1927135297344358	-0.1491099212619933	0.0558470157553668	0.2520482871769315	-0.2542277730318532	0.1669158900794581	0.7232806653012356	-0.2684770184496159	-0.3705343499623623	-0.6496814845163843	-0.8398684611041405	-0.3026600742876849	0.0048881019687719	-0.0247237927880206	0.1409958029854892	-0.0359814061403685	-0.1571936058633207	-0.2811565851501703	-0.4721338189998564	-0.3791587630183278	-0.1340496316880030	0.1522667740523625	-0.3097125849996588	
0.3760248409281780	0.3279792379913087	-0.0910533248411191	0.0966725825360727	-0.2280705389639768	0.1957146334518454	-0.3996581634010017	0.1579833875434200	0.3184055635176417	0.1010811807991455	0.5882045731150555	-0.1654810580558835	-0.3011361496691995	-0.3985732165510322	-0.1250259622984471	-0.2418158781946644	-0.4719924526108606	-0.1156200189909016	0.0005495188617915	-0.1100951302210338	-0.6757474981354576	-0.4972986778362458	0.3552216847999419	-0.3748362150949250	0.0710479496366705	-0.2065861038495340	0.1885510449141752	0.0727999785092143	
0.0889898151833493	-0.3399163872893745	-0.3268174743744389	0.4830551017156486	-0.1442809670927026	-0.4365988577505325	-0.2771811129657291	-0.0550355595982196	-0.1836112532763295	-0.0970824047421994	0.4440843275146209	0.3140267282813717	0.2214712257250812	-0.3857735752102870	-0.6800165271693513	-0.4120390533386468	-0.3533987529682517	0.1883442386287864	0.3521864695515229	-0.2971031631488463	0.2318602223237398	-0.2838295992425657	-0.0196642955031495	0.0359371428645177	0.4804908976817747	0.2871632140406481	-0.3802287362170770	0.0471553104939687	
0.0768953224463158	0.2879711838340172	0.0919270063234516	-0.3277793195030491	0.0515168687609362	0.4350904612612676	-0.2502808083469585	0.2689667350799896	0.0370950268910247	-0.4539126698484786	0.2083242080090244	-0.2770939065892997	-0.3953322679125014	0.0495544336478378	-0.0170308214046134	0.2554061276951129	-0.3319253642129226	-0.1398907756478914	0.4080243526218247	-0.3344000092778476	0.2353835770142296	-0.0154359351067046	-0.2947064450176183	-0.0188463887581590	-0.2004675116380255	0.4153980707587528	0.4399379343398178	0.3082899738126371	
-0.3340000000000000	0.1998569278061715	-0.1432872477433886	0.1498492049786308	0.2461788186748571	0.0197607389503127	0.0089331162205419	0.3739419628310881	-0.1015404590916754	-0.3646417887813238	-0.0815533361549651	-0.3433956207818549	-0.3620158037109314	-0.3045143110499536	0.0943557694401685	0.3908437868576015	0.0469329364679888	0.3904665366013687	-0.2881493646005476	0.3430613547465689	-0.2378444016634596	-0.3755272409084687	-0.3765249447005657	0.2902953897061005	-0.0250861403980609	0.4008875281740812	-0.1846597573936787	-0.0160348742380642	
0.1760096530826153	0.4689768629046463	0.1392266417633142	-0.0297505920414424	0.0844062174582753	0.1473093531046298	-0.4012957979413710	0.4451921068250705	-0.4280859203970154	0.2143521677008038	0.1860018748754908	0.0803240938378621	-0.1958564306328334	0.2951442678644834	0.1291629915018955	-0.1616274015370759	-0.0504942856880216	-0.5848594633797400	0.0614615898977410	0.1943275252844089	0.0035257138763216	-0.3824248807076122	-0.3590032242913825	-0.3437915658110500	-0.0848654055589095	-0.2205540106127493	-0.0061938501989853	0.3477401077683888	
-0.3719999283456078	-0.3846220659945259	0.1480526757390063	-0.3899071736476991	-0.3876891385021277	-0.1488879122101489	0.3281900055305710	0.1469782415707491	-0.1255008157825248	-0.4185324263236851	-0.0084599759113920	0.0517853361529856	0.0069717146620713	-0.0414297826831221	0.4254235332508300	0.1652050968233735	0.1916753660379244	-0.1457224888694670	-0.0881429253411457	0.4672088149439026	0.1621986398185716	0.0444265844996976	-0.2481868636155388	-0.1849740443486463	0.0528183876636746	0.3123357983174517	-0.2621363279413130	-0.4770832609855393	
-0.3210000000000000	0.0946752420997906	-0.3391781654691342	-0.2142546533018991	-0.5683273484493548	-0.2884277252710986	-0.4330872134467690	-0.5465849404584081	0.3343524817486015	-0.2007707843649610	-0.0271801124317788	-0.0703608059663502	0.1937588356412128	-0.3049642699236610	-0.3983997949661793	0.2221308435293843	0.1078058840052845	-0.1530380450951581	0.3848661538937625	0.1033482011936994	-0.1724459709594342	-0.5255324722209133	-0.1663826761863339	0.2897940273364037	0.1865660533593569	0.0009229557476851	0.3668961266870675	0.3650158331645212	
0.4379768174590184	0.3808784224972514	-0.2540614503409655	0.2064115542364355	-0.0056032934435026	-0.0169877983470392	-0.1744711881360846	-0.0408423927730711	-0.5726641962837766	0.1182762786518322	0.0640898795849244	-0.3054024878993697	-0.0990704355175088	-0.0812152725237535	-0.0986594601815355	-0.5784677089263628	-0.0882174381513849	-0.0708402456995379	0.3289508767470930	-0.1683898304125144	-0.2263515506898000	-0.5673471035500282	0.3649516169617864	-0.0292440787667899	-0.0681708054996102	0.3405764518215381	0.2663234039258561	0.2350222920261980	
0.3099775419134242	0.0989963852751048	0.3286363618312460	0.3581158505307843	0.3750089331891989	-0.2718336509153515	-0.2535512638735011	-0.2408228804900541	-0.3840533018554391	0.2266915083304202	-0.0446829497642093	-0.3305821088226709	0.1727950216337232	-0.0741797326631360	0.0973224306664780	-0.3084283799367317	-0.2699645296222867	0.1016288522712479	-0.1411836886009811	0.2196743129234983	-0.4988311372946625	0.2954665432549792	-0.3591966437906330	-0.4165480032263185	0.3027367237272653	0.1439927674452237	0.0247576822416484	0.3510411545099039	
-0.0260000000000000	0.1330000000000000	0.3863274222552524	-0.3103368352734933	0.3231803175386994	0.4187498730380579	0.1488165361560247	0.3309716230008502	0.2370541911507032	0.0699884706897405	0.3675043354800231	-0.0216902594152013	-0.0381683131961371	0.0551696742600688	0.5143855747567886	-0.0850593314136964	0.0435059811570022	0.2204504857051635	0.1210486197442331	-0.1987309488025118	-0.2273543113942165	-0.5178558982221158	-0.0033090357148862	0.2936449447317627	0.3338000690610442	-0.0080059808198293	0.2855054827258709	0.0290000000000000	
0.0400000000000000	0.3050000000000000	0.2907682324220897	-0.1140818814119561	-0.3122421169312434	0.0288296062909086	0.0728666094655245	0.4004982066593538	0.3765872344291590	-0.2329019773479460	-0.4058029508249091	-0.2761810542034504	0.1345024442420915	-0.0014090300787282	0.2820379832457679	-0.3703692583781026	0.3077905650004247	0.1892891423982713	0.1364940294481208	-0.2751596452076792	-0.0785991048234489	-0.0496604046924130	-0.3964814727132763	-0.0949202610477639	0.4241296566335973	-0.4281790953371171	-0.1192558103477340	-0.4920000000000000	
0.4670000000000000	-0.2920000000000000	-0.0237756688475653	0.0037878523261040	-0.1176415401393679	0.1261502254879077	-0.2980608172838710	-0.4648155081784463	0.1671328601202557	0.0971599571046770	-0.5162690417300924	0.3185472367865162	-0.4109892772547964	0.4301831474481473	-0.4327453572123338	0.1235174940000135	0.2539243478062370	0.4627666638021883	0.0257428503485232	0.3001487570788002	0.4607661320818802	0.2962429804431868	0.3466495073549754	-0.1177073147452134	-0.0351769854731835	0.1156802380431184	0.4048215949241343	0.0990000000000000	
-0.3640000000000000	0.1800000000000000	-0.3020000000000000	-0.4679631697992457	-0.1179645203230927	0.0728875679823758	-0.2912987690359478	-0.0360144194531779	-0.5648658153935106	0.0811136967452266	-0.3726290166053675	0.3248840327923329	-0.3640600388404320	-0.0943001214941217	0.1402758297014785	-0.4588930839411738	0.0649639250711746	-0.4959145084168224	-0.2219970412150204	0.4593594029556022	0.1631244265379918	-0.3586334523299384	0.0735895072365909	-0.4456327256846583	0.0767322112440732	0.2499079299136549	-0.4930000000000000	0.2290000000000000	
-0.4190000000000000	0.4950000000000000	0.1780000000000000	0.1760000000000000	0.2515310043550702	0.3906199962247386	0.2770842866162176	0.0537564092128208	-0.4162422698712328	0.1049859067088744	-0.3255222872913270	-0.2654485892872692	0.4096130399941790	0.0124005168263470	-0.3490313492584707	-0.4563157015460547	-0.3063067136577520	0.4908214062930806	0.4260299421161530	0.2532005247898003	0.1604020338187437	0.4894566043289834	-0.3561551157964608	-0.0533714718130654	0.0770000000000000	0.0170000000000000	0.1290000000000000	0.4160000000000000	

0.3740000000000000	0.2910000000000000	-0.0310000000000000	0.4120000000000000	-0.3540000000000000	0.1930000000000000	-0.4090000000000000	0.3150000000000000	0.4490000000000000	0.3570000000000000	0.1400000000000000	-0.4480000000000000	-0.2638655816141159	0.0510089825916327	-0.0133175369740278	-0.2740132307072513	-0.3380000000000000	0.4550000000000000	-0.3170000000000000	-0.1060000000000000	-0.3200000000000000	-0.4030000000000000	-0.4350000000000000	-0.4350000000000000	0.0130000000000000	-0.2390000000000000	0.0780000000000000	-0.4220000000000000	
0.3780000000000000	-0.3600000000000000	0.1110000000000000	0.4470000000000000	-0.0549948936911953	-0.3300052727831020	0.4751020468859712	-0.0121554812310387	0.2461498026805320	-0.3547094620236781	-0.1722341402393624	0.3578716112994642	-0.2881088130255087	-0.2144138481511834	-0.4922782167772270	-0.0667287243538892	0.3938395726691188	-0.1328543098043366	0.0224194435206699	0.3826383296400722	0.3096661876219304	0.1432197476284940	-0.2660809080209487	-0.3127768579112631	0.2050000000000000	-0.0210000000000000	-0.1790000000000000	0.0380000000000000	
-0.1490000000000000	-0.0530000000000000	-0.2919975687937963	0.1459685331525596	-0.2234920501445133	0.2589438097532788	-0.3111539037824717	-0.0791016450402722	0.1632763783451150	-0.0169939160520365	-0.0552451425699731	-0.4791577388405427	0.1174153678545265	0.3709286423636678	-0.2314672241133808	0.2937640556611738	-0.1433750838660362	0.0082026017573916	0.3587814124928527	-0.0672068056302351	-0.4168274056356964	-0.0410282159985033	-0.2947031615866005	-0.3922827163858611	0.2523720390979694	0.3208451333514367	-0.2040000000000000	-0.2190000000000000	
-0.4790000000000000	-0.0450000000000000	0.4467965884688340	-0.3761389910344409	-0.1809328864302217	-0.3632543007287303	-0.1182352011035008	0.2789423527159646	0.3546321000807579	0.5035850833455612	-0.4235050121176208	-0.2350266867991282	0.4073765301034765	0.0923159971204659	0.0914266643815758	0.3328371053601403	-0.4250670390959913	-0.3523319858309276	0.1857217276020253	0.1562744251048523	0.3982937230866632	0.1760424114985386	-0.0349034763335630	0.3146184616413711	0.4698880028731996	-0.2995413546590176	0.3550313909479323	-0.1370000000000000	
0.2160000000000000	0.0730003881805907	0.0602914105244393	-0.2552657353059204	-0.0239702184102403	-0.2133378921387782	0.0644800739371894	-0.1420718383935317	-0.3107226277467462	-0.2010272268406153	0.2094947761626619	-0.4173718572533051	0.1020978434607276	-0.1262190098502075	-0.4161747847960547	-0.1163483762705139	0.3130641700926824	-0.5525397030696072	-0.1313262716771745	-0.1437472397106657	-0.2700989786029070	0.3836990087045163	0.1761889312771901	0.3139944992097018	-0.1294870529523754	-0.4692332823416447	0.4877704790607718	-0.1800605914670360	
-0.3350000000000000	-0.0690000000000000	0.1580080617714569	-0.2076147868012265	-0.2906526477584924	0.0603527578968879	0.4195470784634257	-0.3119344252962726	-0.3073581156126634	-0.3271412875722284	-0.1929783694215499	0.0641171050331448	-0.5763345285949418	-0.0094627059821682	-0.1323272492328996	0.0662241690437888	-0.5776161043673657	0.3635910141599029	0.3410174299370282	0.3785703781917387	0.0549689993394255	-0.4821189998902623	0.1334596193008535	0.1779681827371105	-0.3504592729205607	0.3942206313244764	0.4234930520468535	-0.4029722978410106	
-0.3820000000000000	-0.1100008456269300	-0.2962571036140297	0.3248473374326553	0.0386059766491565	-0.2438323755044162	-0.0090987815982124	0.3041255898380970	-0.1778076243714848	0.3060089449296763	-0.2136514989544474	-0.5910665962517976	-0.1961870045561716	-0.1524024113756240	-0.3845328131946686	-0.2743685609117752	-0.1086246898044232	0.0276323790493997	-0.1555088852580677	0.1641585373362799	-0.0687301958498154	0.3997993828493203	-0.4301306064058982	-0.0916393427918969	-0.4024871125461792	-0.2501730987497721	-0.2380379467646248	0.1921942322138021	
0.3850458035241672	-0.1625426549696213	-0.1750192342752931	0.1673164307237067	0.2806895012677901	0.0368757499682860	0.4421567695891683	-0.2755413515213139	-0.0114164686714440	-0.4191433772820253	0.0520566602418636	0.0171756604436024	-0.5333480048532948	-0.3556517686700609	-0.3099125538284101	-0.2512063981361765	0.1888841492018411	-0.1417482638523952	-0.1197200134678463	0.3070968604481099	0.5327460357256195	0.2652452222081924	-0.0037599101137413	-0.3095300803061136	-0.0655025056665410	-0.0588622088290682	-0.0603955451203073	0.1645226735293886	
0.2540116237105906	-0.3938363888558985	-0.3994413277598358	-0.3458924495481905	0.1801235238385634	-0.0692575500369307	0.6558203190167411	0.5122169598568003	0.6064433847459786	-0.1433469572672873	0.3388154335387011	-0.1326361964682046	-0.0252252348811939	-0.6161997037588095	-0.5922757719846560	0.2384261689510113	-0.1889986819405569	0.1217088029883377	0.5281150433063042	-0.3202255069016973	-0.2864087808563578	-0.4959022013052830	0.2763413160926487	-0.4771740180252712	-0.0761848107983887	0.3657031041411467	0.2603673860418732	0.1598984916535623	
-0.2408769958620320	0.1580870853730253	0.4610427139313956	-0.3493216313357109	0.0177167251214035	0.4990006699858314	0.3960320383101959	0.4348124657745275	0.3901257803067498	0.7525085689985723	0.0169453173320263	0.2862576371493478	-0.4423070044655741	0.2250973946016664	0.0319058776437413	-0.3921039893217937	-0.0619593192721042	0.1121749739471393	0.3374579511704445	-0.1336991720914290	-0.0719464470414429	0.1365160637427893	0.4276317306061507	0.4236297577497035	-0.5428857472171602	0.2654481645511687	0.2788718549989092	-0.2999820876007138	
0.0081825604172113	-0.4133565678136772	-0.1205867393958825	-0.3861495782730336	-0.3304592063551141	0.0541014452671283	0.2443235090280687	0.1288666887059553	0.1580173187102332	0.4743280877486679	-0.2088309512200884	0.5694529177459592	-0.0993777712385859	-0.3471085427466228	-0.0419672606558864	0.2129954400685384	0.2911820021253012	0.0354801866182828	-0.4103999447972628	0.1158679839586949	0.0884273664422019	-0.2058414327419212	-0.0512152450281230	-0.1693149428977449	-0.3483551726026380	-0.5348249226567824	-0.5027084996980800	-0.3658653314279460	
-0.0448540077267690	0.2724464162286023	-0.4212969876738756	0.2888317334978021	-0.3994811481715675	0.5269116304311278	-0.0066425731965720	-0.3310147362605577	-0.5426268638950862	-0.0115622905005824	0.3141290632747533	0.1413461088862475	0.0014710924240159	-0.3812313434682318	-0.2409697902513462	0.1729798078636706	-0.5211294169119497	0.2123375629360460	-0.1918766591349695	0.1615523925665708	0.5189583561903571	-0.1935391222809919	-0.3200620080163530	0.2461818499720192	0.0700786060643837	0.1403726204562975	0.1373844063213600	0.2512906299951482	
-0.4670449419274408	-0.4648718783391018	0.5250153936030960	-0.4153393157272035	-0.1786503696070605	-0.2880441703984714	-0.1785773718405502	0.2373110454036729	0.1914497942898950	-0.2687184125654123	-0.5436094041454931	-0.4786531308720879	-0.0258091547132109	0.1106113785951610	0.0864332414180039	-0.0590784244765761	-0.4611385809257821	-0.4827305884484600	0.0983786702781649	-0.1527009299569998	-0.0884440388511135	-0.1521602712295196	-0.1050666168905312	0.0493707683550861	0.1726180540964600	0.4741849656728952	0.0743204740150690	0.2079884902777503	
-0.2290033803128695	0.4505684574821271	-0.2548224929341720	-0.0218870152253994	-0.2213914424193363	0.2630108578604012	0.5226766087842116	0.3944292163249648	0.2351113768700944	-0.6176222520065461	-0.3500482247764653	-0.4590848912436983	-0.1942864211241079	-0.6068559907030847	-0.6817139997098258	-0.4490650697628836	0.4582779862490243	0.2867537106338715	0.5229344124206458	0.2014619587896399	0.5058793051571800	0.5275179140567037	-0.4462398144391725	-0.3305234566240142	0.3313455939866581	0.0556160568434328	0.1570739234198911	-0.3685625147439844	
0.1710072253019393	-0.0399241924401922	0.5133498342933722	0.0605690810751352	0.1928656474909160	-0.0844414103072371	0.3860723529164792	0.1705877257853466	-0.2259952807325125	0.0390252512327675	-0.5229224930114716	-0.2471348489756464	0.2292097520189647	0.0211996351826270	-0.0946817565915259	0.0900567769307346	0.1391798839949360	-0.0609710432331209	-0.2142426865806306	0.3098618208727776	0.2997345371219531	-0.0492759741881710	-0.1259262240152217	-0.0912389949032390	0.2430158815733269	0.0580875013062194	-0.0840057570980234	-0.0552236860484706	
0.1099805703195802	-0.0052955155382810	0.2500171831822768	-0.3916313412888673	0.4029894266102180	-0.2424050534977867	-0.4824705287847025	-0.4830306445917567	-0.2639513924752879	0.0945530131459804	-0.3411589905791003	0.3282106029901226	-0.0674410346090162	-0.0483151739017555	0.2974049420390136	0.2563423429454696	-0.1700122224172253	0.0781004339454465	-0.1399121499446647	-0.1148441556485115	-0.0434138931009760	-0.2195608460053136	0.1755273173546543	0.1196273342161411	-0.3008311281785735	-0.4215277751284220	0.2223524127832731	0.4812991686635369	
-0.1701245456414256	0.2327288924532784	-0.2752048541739402	0.1722178764925300	-0.2877116945288865	0.3731235517049755	0.5582462481044121	0.0006816315770984	0.2399713738405610	-0.0633145936358134	0.0080575396227710	-0.3116207481960244	-0.4748895059311187	0.1474727182516168	-0.3533409047514267	0.3897848830003883	-0.0793001233357092	0.4866627849693577	-0.0840763144396257	0.4769249675461183	0.3644727483449135	0.1390037704198256	0.4023984981382265	-0.1563934063572986	-0.2467443884931211	0.3443049077666311	0.2210398733608631	0.0606232445657386	
-0.4440000000000000	0.1061589906427732	-0.3044005666794760	-0.3933902419653775	-0.0486564022240679	-0.3549344109047510	0.2285810285674104	-0.1143763573460476	0.0669612017167493	0.1650649476489907	-0.4083877541787901	-0.4879292529598143	-0.2323002793476959	-0.0397678645886437	-0.3822992080930676	-0.1591488742765790	0.5450036385640772	-0.1209437132862649	-0.1475334594819258	0.0211100401724307	0.3436398698341345	-0.3100423863494380	0.1080914876780010	0.2685303136222110	-0.4731223625477441	0.3893075081933488	0.2824753745621945	-0.0701884577963868	
-0.3641460810516746	0.0800207859192737	0.3823982947873243	0.3852536269691405	-0.3109533282738154	-0.4112935078577440	0.1308239097649157	0.2090891642623730	-0.1665634733301714	-0.6421093383958758	-0.3803939875433034	-0.4642965068954649	-0.5234655243701525	0.3078033568960223	-0.2968737280028678	0.2531533258315500	0.0020369860602277	0.5332669858759366	0.0728173344893372	-0.3043217812006871	0.3850012347882499	-0.4257666571086549	-0.4540414204630790	0.0983580542680541	0.3567237459491094	-0.5123569869456028	-0.3249846732831544	-0.0208603293340549	
0.1950000549510316	-0.3612268723069099	-0.0338299840278335	0.4636985597801671	-0.4315346940500711	0.1150028239398950	-0.0424612492958957	0.0134432114882892	0.3562225952787617	0.1175681157446716	-0.0670459742873760	0.0123301508788662	0.0231486814141455	-0.0246112428192344	0.0680576697054334	0.7071836772959826	0.6242846235388777	-0.3099918126251530	0.4034909563052215	0.3153150047073033	-0.3469884440091789	-0.2431243895928435	0.0723522943492770	0.0630910338774360	-0.0524682664251215	-0.3727066520152246	0.1862422785252669	-0.1539442194199078	
0.3910000000000000	0.1355202894124116	-0.0877463659593876	-0.1296339449934241	0.2655008804189429	0.1115405120251503	-0.4287958104718925	0.3423394602457468	-0.4899946157016428	-0.2666610847264593	0.1195871664667646	-0.4909635503349725	-0.4765156537832154	-0.4343454304103465	0.3051098419114953	0.6706343210251700	0.3236372923163392	0.3746962536779448	-0.3217516422475249	-0.0588111174542122	-0.2856680570808778	-0.6068013445093824	-0.1010334339335598	0.1588174885648289	-0.3051436943408178	-0.0511002602623555	-0.0748825422196566	0.3669271299172872	
-0.3109872515335924	0.0422110019714709	-0.4443133473193845	0.0197600138819003	-0.0248842331970911	0.0930488012925616	-0.4432203381828576	-0.5421665447798958	-0.3471431926382714	-0.4282707379952525	-0.6371031536713239	-0.6672177117525321	-0.1436920591615594	0.0498455855904423	0.0824039970181347	0.6685736389737336	0.2011105106917014	0.0622875036203331	-0.0195056670195407	0.3721007165729573	0.2146330763968532	0.3248536128839116	-0.1176978885390612	-0.0620291975740205	-0.0209378511371701	-0.4541343988410718	0.0910572127793976	0.3029959183059721	
-0.1119876499231677	0.4150036394167277	-0.0649704235918388	-0.2035511455325039	-0.2348952257016833	0.2992771718411066	-0.1229907722796006	-0.3993320420652453	0.2202360298131736	0.0274275347814912	-0.1178632171977752	-0.4461862510011897	0.2380408846975400	-0.5241920881031912	0.1373869588419218	0.0002401806306345	0.1151910407835966	0.4391758069178420	-0.0716859431421877	-0.3914697705920016	0.2239789319512209	-0.3492502348046824	0.1124084036007708	-0.3064609811357743	0.1022903167243581	0.4968585925340876	-0.1620152022876397	0.1409924645648719	
-0.2420000000000000	-0.4530000000000000	-0.1687410815184013	0.1324834697453166	-0.0357935525967367	-0.2085126848772189	0.1825091628042953	0.4541821550476605	-0.6348228220171593	-0.1067030379350135	-0.2910000880726071	0.1373352678118236	-0.5536238878598533	-0.6003126364186161	-0.0525531305907423	0.4966252380393086	-0.0346421473236452	0.2949984945272393	-0.2858411966386756	-0.2468688257198061	-0.4598883012385526	-0.1943536602335976	0.3376866473772396	0.2684566163810163	-0.0622739324981487	-0.1498538551833366	-0.1201584505308489	0.4130000000000000	
0.4640000000000000	0.2100000000000000	-0.4554843299685200	-0.1382491565340785	-0.4450149262486467	-0.0015328115269070	-0.0317168513984272	0.1517620351572732	-0.5205354474054449	-0.5864050831024014	-0.4722880005569700	-0.0051257783739318	0.0125813259104905	-0.4862739020124628	-0.2342279925222770	0.5068510271551242	-0.0619360758078467	0.4651189681573520	-0.3714710588753237	-0.2755203999977794	-0.4116107427299813	-0.1730628045743923	-0.0141135568281164	0.2136343271856540	-0.0458457029821320	0.2343423128521982	0.2478641981919426	0.0110000000000000	
0.3690000000000000	-0.1020000000000000	-0.0047239811751103	-0.4060534722463179	-0.1569781319266305	0.1773686969387792	-0.4535885793504578	-0.4832385891119619	0.0050178387776572	-0.4578945926728913	0.0034747806148408	0.3899513874955426	0.4509439861049536	-0.4772337651175552	-0.2175971313199777	0.5988593634625806	0.0822580663148234	0.1507514419798539	0.1877191827552145	0.0469471516081239	0.1035051870813926	0.3863901359617409	-0.3281646444357436	-0.3044529938761673	0.1086810680271162	-0.1512574450376027	0.2989111797325368	-0.3210000000000000	
0.1350000000000000	0.3570000000000000	0.3830000000000000	0.1618831613019181	0.4001199888786817	-0.2418820972328082	-0.0837364428551104	0.2630044609735165	-0.4857565867371348	-0.2821088707911764	0.2647824269955521	0.1837340659967199	0.3079744381229594	0.4072940650630009	0.1569547227729111	0.3123587251875799	0.0552383068999231	-0.3925491762409068	0.2140731892269200	-0.4106636386652489	-0.1240088527234413	0.4063977417624037	0.1151473670786250	-0.4252305337750916	-0.4977425145279997	-0.3700137514537675	-0.4720000000000000	0.1310000000000000	
0.0890000000000000	-0.3480000000000000	0.1300000000000000	-0.3280000000000000	0.3637587556174331	-0.0948833944606801	-0.2077322197634452	-0.0781117281665666	0.1777289848493779	-0.0089112500275318	0.1147036251321091	-0.3288515712339529	-0.4379846029433597	-0.2373842825887379	-0.0429537900378590	0.1172185539939487	0.3334890418722400	0.1477107071120810	-0.4395380409760067	0.4083009119449508	0.1443482962535912	-0.2121907830800616	0.5005503002194327	0.2850056449673034	-0.2970000000000000	-0.0390000000000000	-0.2100000000000000	0.1620000000000000	

-0.1930000000000000	0.4970000000000000	-0.3490000000000000	-0.0770000000000000	0.3900000000000000	0.2170000000000000	0.1400000000000000	0.2030000000000000	0.0660000000000000	0.3830000000000000	0.1610000000000000	0.1590000000000000	-0.2550715611545544	-0.1141680877169524	0.1509873212536647	0.2649994717189027	0.1010000000000000	0.3400000000000000	-0.2910000000000000	-0.0030000000000000	-0.2170000000000000	-0.2500000000000000	-0.4420000000000000	-0.0790000000000000	-0.3250000000000000	0.0810000000000000	0.2870000000000000	-0.2290000000000000	
-0.2130000000000000	0.4990000000000000	0.0040000000000000	0.4790000000000000	-0.3620381208028734	0.1998927186008128	0.0301675329370714	-0.0384571284167560	-0.3820604753789619	-0.2954981209792300	0.0395295015733415	0.3239205155273192	-0.0508264825671507	0.1154349926620574	-0.0979382712560516	0.2796771574507919	-0.4023500742364109	0.4372359579614283	-0.0072195260734268	0.1215092425041279	0.0716838537353355	0.0006476569976506	0.0961470079094725	-0.3390422488443330	0.2460000000000000	0.0380000000000000	0.1700000000000000	0.0380000000000000	
-0.0240000000000000	0.0550000000000000	0.4168697594018611	-0.1287047359112789	0.2600121637164651	0.2520487543521129	0.2583078548674461	-0.0682156050885065	-0.2473457683061376	-0.4466480407455005	0.2058049501108536	-0.1398897456375583	-0.5251994677558744	0.2239895275374033	-0.1532960091982926	0.0220303189150220	-0.2325629128294225	0.3274304164132054	-0.2583808455504153	0.4703779788466496	-0.3450465580543121	-0.3699402142569271	0.2062229745791445	-0.2797257266509300	0.1949735461529228	0.1667454204563925	0.1270000000000000	-0.0020000000000000	
0.4890000000000000	-0.2520000000000000	0.3788978997399636	0.1475819987392950	-0.3513119224344983	0.4284651494379682	0.1698652037348451	0.3684872650050626	0.0825728821740899	-0.0901659061249925	-0.1458011798804446	-0.0471418301485653	-0.4781875951327914	-0.0645070791995855	0.3049902677096529	-0.1512387113417838	0.5093233908644424	0.0817248473578081	0.0316861877871106	0.5571647743010266	0.4338910290766229	0.0293433906668097	0.2945515958793131	0.3982445967616691	0.4592887661818528	-0.1904180526047675	-0.2760970535468089	0.1840000000000000	
0.2920000000000000	0.1669911606375704	-0.4514154270311111	-0.0297806841214480	0.4328664813856011	0.2948684776060232	0.2919188140262698	-0.4271367738052801	-0.1573943497074051	0.1702992038558982	-0.0846448388214300	-0.1057394365405400	-0.2296903952418531	-0.3634268411153251	0.0906687740733315	0.0040088965911940	0.4115428670764443	0.7063556066607988	0.5291399110074858	0.4723956559262027	-0.0089582841649903	-0.3101024030426823	0.4503036390589511	-0.0463209657756140	0.5325185183834863	-0.4582610613182624	-0.4173473058598607	-0.0000422243479847	
-0.4340000000000000	-0.0880000000000000	0.3399286478243368	0.0678363247682999	0.1599886600514309	-0.1065525392246612	0.1377966449409595	0.4494468678947892	0.0594823311396593	-0.4763554370231361	-0.4548228389288124	-0.5792798197128726	-0.6403462643937945	-0.0859988423152781	-0.0706351404209882	0.3131350767112648	0.4374318454048168	0.1858145866113440	-0.1020246566799860	0.1953243369935979	0.0892406300029147	0.5544763261398498	0.0558297143887249	0.1746867747717445	0.4609981791710466	0.3507767556185746	0.3890136651806921	-0.0752673254655022	
0.1460000000000000	0.3890054765022161	-0.0207709463580990	0.3774437773985687	0.3937963289240823	-0.2542473950834152	-0.2643138296301150	-0.4965799552015721	0.2494350813866917	0.2937177625769041	0.3657440820019566	-0.0688941248552624	0.3272560534587007	0.3869029931020672	-0.1340612351666106	-0.0605941025413928	0.2559935196856494	0.0307824809005570	0.0990980286172543	-0.2237410112987041	0.4114144748244484	-0.0496721911325500	0.6244791234353438	0.2177278855253784	-0.0104317617830735	-0.3483898266252098	-0.4059292921137692	0.4325914044106326	
-0.3550015263232171	-0.2180130948449458	0.3135794811275032	0.1948096327651366	-0.0249328629755037	0.1894283671285995	-0.4807991008719731	0.5447192729538637	0.4220636035097417	-0.2354948115181319	0.3365896047734661	0.1777368511243085	0.0815145793971040	-0.4498936771405727	0.5025535159449277	-0.3570481933676006	-0.0695480564929011	-0.2244636126057016	0.4634763640624880	0.3811373327508211	0.4655901814393831	0.2993080965060320	0.0987532252694834	-0.1156578472913794	0.2284429877217842	-0.1702403729959194	0.2081230402383593	0.3616317773943106	
-0.4281918084520479	0.2740734923906949	-0.0320148527821031	-0.2950037525974719	0.2798538322342095	0.0087386524389040	0.1428747061992249	-0.2613238758948406	-0.2693407130476231	-0.2237472568908172	-0.2317653816659629	0.0684764270935438	-0.2907213606784986	-0.3100420935648025	-0.6724744933612820	0.1405996581839940	-0.0017539140402858	0.4298549306966586	-0.4600966006037968	0.0521842109992567	-0.1609525953941494	0.1744608226595513	0.2273548197774285	0.2452437194178752	0.3848328713819943	0.5380223469947227	0.2306388044491259	0.4624574166948702	
0.3620008578384628	-0.4966158733196869	-0.0578313260890964	-0.4355224159320623	0.1291844335359974	-0.5107670645578631	-0.3070857689715394	-0.0247759390282333	0.4766559232688020	-0.2643735398528257	0.4198974004808086	-0.2348003944082023	0.3699002616180543	-0.4676794609104009	0.0416098787828937	0.1570818876470205	0.0768441696618269	-0.5040712912051171	0.2546572729309416	-0.6385176591895474	0.2083851299058802	-0.2603314784371717	0.1564508172350912	0.6100141713494418	-0.0961409391618447	0.5979082820991590	0.3767115771783615	0.2176715390353278	
0.1150001200924254	0.0370059799098386	0.4524067386582492	0.2462550915012101	0.2117763135164648	-0.0556736710322563	-0.4109031910571865	-0.3374314055005717	0.2841417423007338	-0.2198135121980216	-0.4316455415979536	0.2949569624081329	-0.0220507931964271	0.0464749844975022	-0.0706804423813838	-0.2081447823889239	0.3429705103648303	-0.7047503316356405	-0.5849910874013943	0.0526366739524680	-0.0627246043105695	-0.3672755476060777	0.6054156241139178	0.7678060931635060	0.8351021052756423	-0.1551790693956636	-0.0298736370262982	-0.4712978264420521	
-0.3071348413162780	-0.3948829378262171	-0.0749562413220035	0.2745308780289951	0.2923217546140728	-0.1196918606809209	0.1396725622980451	0.2123048500983025	0.0736152010781232	0.0205460221803584	0.3569174234169893	0.4862914129843508	0.3979797978288044	0.0637281081501942	0.4841728833948553	-0.2853090281930935	-0.1836873743741411	0.0793101870130430	-0.7810472689159481	-0.9589701146036106	-0.3264085195476063	-0.1001235590224209	0.3271906227991884	0.2246897172285470	0.0760977996943415	0.3453630274198596	-0.3263745468373724	0.4318498684953812	
-0.0069970125435649	-0.4322372868719419	-0.1277318425333769	-0.3745328756923527	-0.0307786956302801	0.0978356598801604	0.3362157168231568	-0.1166708864912445	-0.2351266295043455	0.4605412171436519	0.0234426308251398	0.4529150971412172	0.7840502138965507	0.5097390302406127	0.2503545241564090	0.2160588733648604	-0.1175049315907641	-0.7010131494406225	-0.8291963715879288	-0.9859311771103310	0.0542755898793432	-0.0187356775106735	0.5490668652061016	0.0765167549909188	0.3370363877298067	0.1777764815016614	-0.4432982041340384	-0.1796976056542312	
-0.3960205878000976	0.4462511878270464	-0.4468449209247922	-0.0013355418571859	0.3521672793488935	0.2918993700513149	0.2979828509936618	0.0419878101766602	0.1597875154533216	0.4306829982967401	0.1182522014841749	0.0766839689779273	0.7455012693734040	-0.1137532874340880	-0.2696118276828694	-0.0506319292242712	-0.5184326892331595	-0.3037239590252568	-0.6621506495008970	-0.7083491252093722	-0.4909444390130938	0.1188985259806774	0.5408084121797984	-0.0279906639287465	0.1251685020271090	0.2273646021937425	-0.4886001796144742	-0.0975870458603447	
0.4592932532692230	-0.2476861490107095	0.2406397304970962	-0.1390819397749583	-0.3723108587122284	0.0921000995064046	-0.4017226343858670	0.0495971300337816	0.4606139796351251	-0.2048671185432548	0.2350472153273852	0.5351013731111639	-0.0763381531048507	0.2350304226458406	-0.3800522558716085	-0.1937167038251310	0.1165667540505350	-0.7112748415973017	-0.6094641819729132	-0.1980958805865203	0.0356785713926810	0.3293185244662563	0.1660517457015476	-0.0429730907307842	-0.2078946356124092	0.1097353400806997	-0.2460216082177077	0.0268819092038777	
0.0320877970450300	0.2629792293881669	-0.0346839746217776	-0.0254241616131897	0.2133856765680843	-0.3622423816893692	0.4380576153948060	0.0075847892933045	0.5723568925972825	0.2133603035466369	0.4515834004953682	0.0022852009207293	-0.0620523819822019	-0.1439080519237732	-0.1787122043687366	-0.2060558308153962	-0.3797450811579994	-0.2318682851809048	-0.2812314433495717	-0.2465319106046985	0.2885740768079734	-0.2393256865863793	-0.1957444799556100	-0.0475896100445659	-0.2880141032385902	0.1049638743018309	0.4020510877185250	0.0036505111712502	
0.0229530060746978	-0.2700327384393440	-0.0261506453141345	0.2183676415459090	0.3798257046355281	0.3023639611637568	0.0507828154416865	-0.0268922923264866	0.5139764954073437	0.5912510326027809	0.2921298086109602	-0.3964080316465911	-0.5932881975251706	-0.0572578947386440	-0.1322509352231981	-0.6399821229501057	-0.3902445669716332	-0.1218497435228229	0.1552976824807558	0.0583168809371654	-0.2522255481116667	-0.0479435029774312	-0.4500319532922219	-0.2045043043634211	-0.0626631500398568	-0.1228256444419206	-0.3947657954775201	-0.0514812099231800	
0.3330000000000000	0.2598975515347497	0.4019727553856035	0.1096412302765121	0.2600557468731421	-0.0644047224644718	0.4632767510002724	-0.1561259309304605	0.2594742187885602	0.1658910407456294	-0.3474041452029829	-0.7048619942154968	-0.2710966539614388	-0.5991907121288251	-0.0119863064204839	0.1985210599697705	-0.5857798118094871	0.1022617183566189	-0.0847864396343594	0.5979032410900497	0.5766521014768249	0.2744241948818353	0.3240694289182840	-0.3943180634794041	-0.0494722956160957	-0.2227477020583533	0.1127246016913335	-0.3922419502755060	
-0.1656342988315926	0.1195927631807745	-0.3342714879509674	0.2774879229632287	0.4919464652129515	-0.1498202753145117	0.7310431136040976	0.5742283769585533	0.6062480822395999	0.5041225854449337	-0.6013619508305993	-0.5158104361131668	-0.5385699264114335	-0.1685054214630342	-0.2226231891166897	-0.3348773602346520	0.3061970863502261	0.5421730276236221	0.4083898068063048	0.0897448731206624	0.2180082457630934	0.0221572436410642	0.1465214840725680	-0.1857503849092508	0.1024262903216830	0.0296561598105958	-0.0179366445380203	0.4328742630091897	
0.3880000996258909	-0.1871675717594474	-0.3082050719513830	-0.0298755865553039	-0.2788361801416064	0.2167425248179350	-0.0795286911155925	0.1492359136755738	0.7020695577010023	0.6792679504900367	-0.2378466691126224	0.0327330824508276	-0.2109132827444280	0.0374544019419797	0.2277083220919013	-0.4630885880152052	-0.0818867324240415	0.5767823846377736	0.0293368952348915	-0.0210321366307413	0.1848513293129532	0.0887127588625047	-0.0920716701321157	0.0320704919114545	-0.2761549293866736	-0.3905800981872248	-0.1974938355724849	0.4132085814650290	
0.0950000000000000	-0.0560488241623708	0.4666820733716059	0.4008585417485661	-0.3572135900937778	0.2652355837599021	0.7552538386857386	0.6371747405352761	0.6816008188578400	0.0802524061620295	0.1396886909754994	0.4025399939830874	0.3635510308648270	-0.2224599932482351	-0.1467809210368602	-0.0681665909360291	-0.1629013784378725	-0.1047061388528249	0.2088735573439690	0.2358097801093349	-0.0036969044904817	0.4654224108734935	0.3515900755470702	-0.2001968448004032	0.0059843203436040	-0.2616758434799056	0.2594131506232976	-0.2618669366709194	
0.1710090284986044	-0.4536945273817835	-0.3928048078502175	0.0741454363164647	-0.1231976635661650	0.3391825001994100	0.1484582639588002	-0.2476175713492141	-0.1719740108853397	0.1169501433132489	0.2013933530430894	0.0771177624377218	0.2646704793502662	-0.0630966725144973	0.4078400542540869	0.0596271385630204	0.4960761606721381	0.3312753593397029	0.2607136457687851	0.1700256464763816	0.3725510115388939	0.4138971880583656	0.0280857021335645	0.1924341755797056	0.2298973674201074	0.3996742946934480	-0.2451304644945230	0.4270823230813142	
0.1090087463580230	-0.3809929181567870	-0.0248906334693452	0.1971127921618671	-0.2186764889511098	-0.0936935389676886	0.3565864848975320	0.0044825211928468	0.3352631493037198	0.0706677107812270	0.1514218091950032	0.3274417373189049	0.5127317575601252	-0.1220977875795025	-0.1738169755901520	-0.0482052080096673	-0.2140022947881113	0.2220607745958990	-0.0618288854447318	-0.0378700547220479	0.1341859356530689	0.0496579334496167	0.1259794125123384	-0.1945746586141327	-0.0878726807182811	0.1727239108446618	-0.1335580030395438	-0.4668480189268047	
0.1850000000000000	-0.2300000000000000	-0.1648697013041747	-0.2350050283085347	0.3603833701469395	-0.2703605385435426	0.4651394955625607	-0.4246874854241100	-0.0689122537963399	0.3261523395141933	0.2609960473612878	0.2275336626968212	0.4891401302428166	0.3011185790992470	0.2489908663453029	0.3783902046924310	0.2382138840169271	0.5168381398909341	-0.1114836523504079	0.1840431176493207	0.1710014516153149	0.1115062206878916	-0.1771755321792114	-0.3460486360670646	-0.4621474672546447	-0.3823255014369576	-0.2399041981145565	0.0930000000000000	
0.3430000000000000	0.1930000000000000	-0.0287354177331164	0.4658828864712485	-0.3671082451201199	-0.4318928040545978	0.4770364203612658	-0.2126589054962715	0.1054616726023712	-0.2720224573574828	0.1119230268148886	0.2884059667439940	0.5724980008457764	0.2299149054484584	0.0684012764735470	-0.1551168193560981	0.1689005699911696	0.2479762507501345	-0.0998080018543303	0.3328471096248785	-0.0121594000530986	0.1144247019501309	0.2900093422060946	0.2955409573089481	0.2512946779058593	0.3348773826803679	-0.3179595732485470	0.0690000000000000	
-0.3800000000000000	-0.1070000000000000	-0.2074162263653914	0.4717285142198017	-0.2934181255360501	-0.0101592377730781	0.2873816448988883	-0.2979522685216285	0.1509796584696860	0.1991135915571017	-0.5151361865858123	0.3779861830174013	0.2337094153468998	0.1975227945521035	-0.3490272744450162	0.4978310540261467	0.2564398112828059	-0.1385784833758281	0.4592241674089575	0.4809304005816986	-0.4074132147500830	0.2575363275896861	0.1222137345900260	0.0272144154748106	0.4659872450336246	-0.2649563110057457	-0.3729470892328560	0.1330000000000000	
-0.2600000000000000	0.3620000000000000	-0.3730000000000000	0.0770168071259638	0.3160387556223622	-0.1644329386179269	-0.3803720825471525	-0.4400802229284169	-0.1717589861289876	-0.0084776927753000	-0.0787936116940782	-0.3866535299521986	0.4175552129806242	-0.0837016584020404	0.2759638653397916	-0.2224903285152817	-0.0103124718816558	0.0408758404069420	0.3534368046344006	0.4161606781202245	-0.4708816775794655	-0.2984866943204365	-0.2960500266137110	0.2515063061585013	0.3796102266557538	-0.2470051790370699	-0.2070000000000000	-0.1790000000000000	
0.2850000000000000	0.0280000000000000	-0.0570000000000000	-0.5000000000000000	0.0550172305642357	0.1708074375152514	-0.2306118345587360	-0.0525637699301373	-0.1280786106176598	0.1318523225828460	0.1416610697338110	0.4338074044282118	-0.4679571297026332	0.4723183933799323	0.3138176815123304	-0.2679512792835809	0.0244406417930981	0.2515363991848232	0.2701778463033224	-0.2000439878595771	-0.2428332426006769	-0.4590604932193202	0.2202380838015446	0.4855244903933752	-0.0360000000000000	0.0570000000000000	-0.2520000000000000	0.0560000000000000	

-0.3300000000000000	-0.0500000000000000	-0.3180000000000000	-0.1990000000000000	-0.2070000000000000	-0.4010000000000000	-0.1680000000000000	-0.4560000000000000	-0.1690000000000000	-0.4250000000000000	-0.4960000000000000	-0.4500000000000000	-0.4738256755772038	-0.4336091035943551	0.2380102222955916	0.3010004259289828	0.1230000000000000	0.3430000000000000	-0.0590000000000000	-0.1200000000000000	0.1950000000000000	0.4180000000000000	0.1590000000000000	-0.1370000000000000	0.1280000000000000	-0.1710000000000000	-0.4120000000000000	0.3540000000000000	
0.1130000000000000	0.4790000000000000	0.0690000000000000	0.1660000000000000	0.1789942059360717	0.0769847516711816	0.3370279296220364	-0.0980084728385618	-0.3809607583456316	-0.2047659306748849	0.2259878810666683	0.3825936409141177	-0.0384283054852676	-0.1720476087503415	-0.3470024385737192	0.4454664820079964	-0.1058117911425366	-0.2975252947605764	0.0165558398989031	0.4125255933533433	-0.0870772272263970	0.4985337036043385	0.1691534927680159	0.2814078459139334	-0.2980000000000000	0.1100000000000000	0.3280000000000000	-0.2440000000000000	
0.2050000000000000	0.4650000000000000	-0.4769634834776188	0.2693382010448467	0.2138639003674749	-0.2470369387777013	0.3044137813868389	0.1835200522143131	-0.0184077455013766	-0.3555084182995540	0.3406919105558783	0.3323001742451609	-0.2193084246521728	0.3868153432593937	0.4671881022733562	0.5067044618542418	0.1487564943927469	0.3811068602661718	-0.1481418594031627	-0.2002646527068674	-0.4526638398617905	-0.2329846755566583	0.4216779871639862	0.3753660154762842	0.4801258682257092	0.3991184877254823	-0.1940000000000000	0.1350000000000000	
0.3600000000000000	-0.0290000000000000	0.0257758499518131	-0.3622052275348575	-0.1572366500248551	0.2660199773385862	-0.2686750855118369	0.4989927814174686	-0.3210007770696442	0.0813271912124819	0.4149979106131055	-0.4995835302911182	0.3640256211725346	-0.4747879759740539	0.0268794647926668	0.1022021084001138	0.0341756664272926	-0.3287410443039422	-0.2556568644608329	-0.2473352283284544	0.4260039709770340	0.4059358981681140	-0.3091631891752213	-0.0494527301551470	-0.3101824917755608	-0.2760067175042221	0.2202949671951382	-0.0160000000000000	
-0.2760000000000000	-0.4069989894223660	-0.0694623447574952	-0.2772705464392171	-0.4064492009545789	0.0834741596269455	0.3691489292870879	0.1332314941099727	-0.4742088378495846	-0.3497098427605617	0.1628805277650380	0.0752768857570484	0.0091917966495946	-0.3361251049336322	0.2655345330839678	0.2146024232849874	0.0517259867728192	0.4713019821637541	0.1738488096325904	-0.0590869642413127	-0.4162439012273200	-0.1880345886347819	0.3101871291916576	-0.2971574658039315	-0.3788072960460982	0.0918260761879074	-0.4778574755129726	0.1188359417311164	
0.3040000000000000	-0.4940000000000000	-0.1327295682266911	0.1396353439927925	-0.1673945909711676	0.1947238158341329	-0.1810487272291263	-0.2011617884761642	-0.4658159314591803	-0.1988243392205782	0.0256606461257978	-0.1351568346129163	-0.1121877029215490	-0.1992880897017239	-0.4047314946557556	-0.4128455712442595	0.3069345876418899	-0.4665687844590506	0.0193451152122338	0.4609810235177340	-0.2052949645644987	-0.0494154021980865	-0.1683174751881070	0.2589374827429985	0.3193614934408239	0.4886966367831616	0.3842129183865570	-0.1704899673795401	
-0.0870000000000000	-0.0459978386665638	0.3943573688167407	-0.0277086617591526	-0.0529174288471069	-0.2768370457817803	0.0816147781504886	0.1096918110986787	-0.0126044119200529	-0.4442715393601560	0.1158415272794227	0.2709594717943051	0.1026347654542787	-0.1996922481611609	0.1026750704598248	0.6641711531990862	-0.3115692656063141	-0.2601149041958145	0.1467890448802378	-0.3762124411916807	-0.4214045520230472	-0.3130365688847855	0.0570271886634948	0.3330355047476668	-0.5356092829409450	0.3849728660081173	0.1087144320132169	0.1879615578748585	
-0.2070097099198576	-0.3833282147376000	0.2110007075692844	-0.0983009009318873	0.4325594575180640	0.3619216771068042	0.0397065751659598	-0.5133437581817846	0.3455605831587337	-0.6012769850223509	0.3981157630717957	0.1719573049422787	0.2247715428118300	0.2767390610473342	-0.1432560058280745	0.2942813705649944	0.1230365237119899	-0.1107652505501250	-0.4128559297664147	0.0108599362691919	-0.2522190054095206	0.2742613162584417	-0.4912964757575404	0.3713741775260468	-0.2791888324166594	0.0411355528570254	0.3697966462886902	-0.0960789464031956	
-0.1992396989413690	-0.4437590319072694	0.2256499262960845	-0.2366074613374994	0.2089467803750993	-0.5204942894099215	0.4582127549527180	-0.2774007434073916	0.2121505774663807	0.3758348060557035	-0.4121725019409200	-0.4313684877709643	-0.2304039402477666	0.3239546350783545	0.3261911754720835	-0.2179308531804927	-0.1135338441650176	0.2742485018135820	-0.3267593157190263	-0.1999835464591461	0.4090516977728948	-0.4199787936442294	0.1179254261731654	0.2344869457991451	0.1239990162926325	-0.2325988693898215	-0.2331698078280632	0.2219372550569960	
-0.2560033035407084	0.4184439139884146	0.1248968794789262	-0.2841825113602910	0.0265182252457118	-0.3873162292987229	0.5384385350384761	0.0481829126675429	-0.3324106037553721	-0.4637576990821551	0.1164195438924264	-0.2237537898976298	-0.6580606761254131	0.2060631017889365	-0.0830370716895076	0.2064736554051689	-0.2325708042011575	0.0179768819863573	-0.3922242988319382	-0.1489084818749738	0.5729264305822609	0.2199110750020203	0.3556115365661616	0.1819728452815714	-0.1989267758927390	0.0733564774528574	-0.2189775180797891	-0.2522744944077667	
-0.3630179388467025	-0.1017135657604183	-0.0686087669249296	-0.3196425719423276	-0.4807297293512220	-0.3579734535155761	0.5664495172001249	-0.0096375743343324	-0.2262956964197632	0.1485226490236267	0.3023364787998827	0.2931767511003969	-0.6826108299691384	-0.6970715854033477	-0.0712627328197195	0.4037779626395362	-0.0478203708319974	0.2585293724449234	-0.2592865193511569	0.3713486691580966	0.4046815924485871	0.5883129329043398	-0.0491341047689710	0.5149162631709736	0.0723110571339202	-0.4380206997124422	0.0443588167708615	0.2779256067975946	
-0.1860114926349864	-0.3241076363919587	-0.4166359945933665	-0.2571753774407969	0.3798791759494722	0.4123443111286963	-0.0989307811452880	0.6157302900587153	-0.1726619405953812	-0.0369990450661236	0.0856629831823291	-0.2995513994867726	-0.6441513461169699	-0.4989466873208260	-0.2630756010412515	0.4227462885128459	-0.4131434629742325	-0.3004434164601564	-0.2475277088255122	-0.1654023556392560	-0.1922972822085978	-0.2313738764962246	0.3364073178239846	0.6052111338316583	-0.1387783996673653	-0.3575406694448834	0.2285153393704276	0.4066422161287143	
0.2059855653483774	-0.3096198172689513	-0.3343613319917637	-0.1175888481056213	-0.0990381370895103	0.6258262471131650	-0.1494452525322661	0.1992445575123334	-0.2985783418076589	0.4029496067815452	0.1884267152775186	-0.1420426271364078	-0.1983996900406593	0.1307422094594761	-0.0545058263173263	0.2117106462190612	0.2052581292370441	0.1123979705225781	0.0340112380316060	-0.3731506546473086	0.0571773653405320	0.5728945463293712	0.4437887949261503	0.2457275288608715	0.4668035791321146	-0.2410574304736063	0.1328496796899863	-0.2980889885308020	
-0.1439077717423710	0.4184776331752864	-0.2672567021269909	0.0642758884884249	-0.3590748897865887	-0.0228734730159580	0.1772923305606100	0.3284088566214517	0.5821244006735239	-0.0247858677168399	0.1016000108156355	0.3514923979415247	-0.0801569621539706	0.2287800981766962	-0.2194750136348858	-0.4061533304454501	-0.4908471066888282	-0.4051161096397035	0.2818904295352759	-0.5134843761505404	-0.4256087789663616	0.1517979363584408	0.4161487846619960	0.5770466343325372	-0.0738336318994457	0.0782519065494407	0.4791629503580446	0.1684987675913659	
-0.4150763170443814	0.1528799120059140	0.2533526226302805	-0.1114177534537993	0.2640092637351194	-0.3177339586476963	0.0520297768249729	0.2585492342452150	-0.3831487439688394	0.3938218709472063	0.2340804105304717	-0.0397043547343880	0.1584529385907766	-0.2699351477394549	0.3497749126113916	-0.1488085987868673	0.3183517061023322	-0.0848489173909186	-0.5670199818669928	0.2249638290645991	0.2920502033919249	0.2769467933777783	0.2279992463698084	-0.2777014415488959	0.2403895561895719	-0.3892303827986373	0.2662591550827590	0.1276992362122321	
0.4789729880851712	0.4477490132441072	0.0464013313541544	-0.2351322803842580	-0.2630946024551542	-0.2525674549645748	-0.3680447992149773	0.0011429023979872	0.1999779050577810	0.1042358417736182	-0.4185726535804916	-0.3848237262155973	0.4613395893415412	-0.1805986151318143	-0.0652495811345109	0.1764256328962751	0.3362475204183890	0.1812823233591077	0.1466142959603881	0.3620137030484858	-0.2338065037854551	0.3038317849326354	0.0725930456636037	-0.3269424079306504	0.4447037231273688	-0.0083108189495888	-0.1678349615182395	-0.3141278897912431	
0.1769884391538031	-0.4506346853425558	-0.4988104224530100	0.3715904072659346	-0.1207261050980817	0.2595511033653643	-0.2924737656635029	-0.0026849581665195	-0.3273347027640833	-0.0832719396015592	-0.0440304344397177	0.0208625923903673	-0.1836442243098083	-0.5129274539560995	0.1823679206318296	-0.2126345910265124	-0.0657795792209469	-0.2514761247450992	-0.5102225848317542	-0.2703234288028303	0.3236664788397037	0.1789715870805700	0.5054487296452762	0.2913292229576038	-0.0028619171146703	-0.2212461561286799	-0.2785708934080023	-0.0237719469356748	
-0.0010000000000000	0.2922808577732451	0.1155891820759870	0.0879033163163953	0.1542702681507855	0.5302885374114799	-0.1171755411342782	-0.2771586997040201	-0.3806405441153870	-0.5363099485600459	-0.0099268216577731	0.4308833512391471	0.1592827840009086	0.2539549418307773	0.3838909098013806	0.1158665234105861	0.5500823321281358	0.3125364438034434	0.1340351302825349	0.2200787921372793	-0.1244015857012330	0.1352812175696682	0.0315654484806200	0.2547800913244023	0.4156694448275191	0.0377159528573829	-0.2558973424015992	0.1909137605949264	
0.1404302267797908	-0.4129576351765084	-0.4819330667057339	0.2607088734255522	0.2564725601595582	0.3282174103086090	0.1330776149492082	0.0361542138857601	0.3216820026506568	0.1288782013834539	0.3759877619846222	-0.2427141721275219	0.0046730321015358	-0.0536962615495264	0.3032385648190133	-0.1539425515669188	0.2358682739060895	0.3211600530218638	-0.3545040184118605	-0.2190329319510382	0.1484136184845313	0.4442345221830319	0.1565880743147901	0.2967688390592039	-0.0152112584837364	0.2700390276720910	-0.4552784427312939	0.4087381825642506	
-0.0379997015688900	-0.0261984557005065	-0.4133258942928363	-0.3899769204359133	-0.4573403548531789	-0.4490434504534471	-0.1531829916882675	0.2240440167343794	0.2464576210076349	-0.1080840054506157	0.6475463791162352	-0.3786116238849007	0.4082373470233667	-0.3993950822902768	-0.0194425279004120	-0.1906861346375762	-0.0654333878390449	0.1862395424001113	-0.2436579309312333	0.2870087405712917	0.4151232227182742	-0.0773446818009270	-0.3602000019771303	0.0631185117831704	0.1801672582072849	0.4444983292814136	0.3451506388577524	0.3269658112935657	
-0.1620000000000000	-0.1553295381599691	-0.0690674272455494	0.2428025431278143	0.1541294244120996	-0.5267214829933203	-0.0947355592348003	0.2245186594401451	-0.4380311735856066	0.3862358670754706	0.1619411011814344	-0.2662759962428611	0.1057714859159760	0.4110941897695315	0.2984079081990149	-0.0314884236313129	-0.3428870501956640	-0.3553135087093535	-0.4360734184613602	-0.1464138751034696	-0.0271440143082140	-0.3051121826873950	-0.4975041824367731	-0.5293276595818934	0.0844608808562698	0.0857867752968254	-0.4914169540067388	0.2272801110875863	
0.2119703110342388	0.3965478358447770	0.4098109808798854	0.3176723949835584	-0.4509163062267487	-0.5042256104309637	-0.5362488480008046	0.3524831049445317	-0.3283284040315373	-0.0327616808934946	0.1722997147081509	-0.0897227810293930	0.2589122859370484	-0.5585065264945309	-0.2005514397622961	0.2596803395884919	0.3057558362054891	0.3583722525770955	0.1624723578238516	0.1458549355189754	-0.2491133240777235	-0.3664675079445796	0.0137886115138226	-0.2987641933847567	-0.2168200409783825	-0.3889641969115864	0.1696377880186677	-0.4940019394092997	
0.2289712388144190	-0.4920056780991283	0.0389933079626830	-0.2906719498327557	-0.0457083970615501	0.3817681146560651	0.1602139097227468	-0.0817771307225059	-0.2109659841193924	0.2194312192673469	-0.1287780152573804	0.4819447224616456	-0.2517449770839369	0.1985747625662686	-0.0640490077268892	-0.1844418447465977	-0.1723801614530297	-0.5693588269656873	-0.3780054225986998	-0.0588271756237140	-0.1195082312924250	0.1728086322511311	-0.4358856976687082	0.0870283020863734	0.3183992892746745	0.0076880865935758	-0.4108984874209026	-0.2440035804479376	
-0.3930000000000000	-0.2340000000000000	0.3542752508895896	0.1621231630823353	-0.3664281165846499	0.0655499931087664	-0.4386777650821267	-0.3333321251338266	0.4951698481534410	0.3463419111592609	0.3723644592603119	0.4806803458360425	0.3611531355082526	-0.2438554979157331	0.4740720297728230	0.1711271993431118	-0.3092417584854847	-0.2978201508228536	-0.1037676704651652	-0.1986401072519043	-0.3919023439915168	-0.1814498796538519	-0.4885023493246453	0.3395268524446898	-0.2041378102623659	-0.1507146095843662	0.0824442957264180	-0.2210000000000000	
0.2760000000000000	0.3220000000000000	0.3788231906592083	-0.2037651832037595	0.2921864725171282	0.1539428980276580	-0.3873508862279640	-0.2141408388246248	0.0194047737509496	-0.4897096108794632	-0.2014770053986727	-0.3629663009638904	0.0997587034718913	-0.2898581325982300	-0.2773682455694849	0.2180893994220466	0.3729813091143385	-0.5155913176232402	0.0586116662583448	0.3897080999990358	0.2180790017952724	-0.3022307463915588	-0.1299086405256475	0.4333850662161950	0.1055676391337280	-0.0838168704590702	-0.4932811227651739	-0.2160000000000000	
0.0470000000000000	0.4770000000000000	0.1748532856641907	0.1131878951525759	0.2120746048762344	-0.1352355300952977	0.1214063613701271	-0.1732230104963226	-0.1832771691267557	0.1052516851138028	-0.0500382548903500	-0.4920851999498117	-0.4185856472388887	-0.1660506325841584	-0.0660205156550521	0.0588374217150209	0.4227576621241674	-0.0262744632412161	0.2469056289083174	-0.3411104977732440	-0.4435210905890959	-0.3016798983512478	-0.4888579079574214	-0.4398966450900311	0.0185779292322819	-0.0191735804539933	0.0787762988320144	-0.4770000000000000	
0.2270000000000000	0.2710000000000000	-0.1870000000000000	-0.1181121541486797	-0.3622388756751322	0.3101518532004804	-0.0102845887294266	-0.1677024467292418	0.1051867994301951	0.0026197843354907	-0.2740978664854382	0.3671914862180339	-0.2071433205719021	-0.2287738269400506	-0.1797372146348967	-0.4874503318315208	-0.4894719583976196	-0.3279784669267124	0.2450413411608109	0.0025479473518628	0.0580532590799431	0.2123897047776913	-0.4431828060074138	0.2157953828062588	0.1490043424087555	0.0950001564950034	0.0220000000000000	0.0410000000000000	
-0.0840000000000000	-0.1230000000000000	-0.4480000000000000	0.0650000000000000	0.3906989715217795	-0.3620968555997107	-0.1873036764247226	0.4688586761716987	-0.4436652730228842	0.2845665433385742	-0.2722058345054182	-0.2708041249453904	-0.0587794397358115	-0.0596153633596170	0.1449249389505281	0.2978603693133298	0.3346177434443850	-0.1299381146863474	-0.0616197270605106	0.3737499713300218	0.1701005078251063	0.4709916169549058	-0.3268728991773708	-0.3633027395028384	0.1330000000000000	-0.2590000000000000	0.2450000000000000	-0.4820000000000000	

-0.4850000000000000	0.4740000000000000	-0.2480000000000000	0.3460000000000000	0.4560000000000000	0.0240000000000000	0.4660000000000000	0.0810000000000000	-0.3560000000000000	-0.2600000000000000	-0.1660000000000000	-0.2040000000000000	0.3757969442332026	-0.4735013757345032	-0.2950631559253027	-0.4820026314968877	-0.2090000000000000	0.1410000000000000	-0.0350000000000000	-0.3090000000000000	-0.0290000000000000	-0.2410000000000000	0.2000000000000000	-0.2830000000000000	-0.4840000000000000	0.4430000000000000	0.1240000000000000	-0.4360000000000000	
0.0050000000000000	-0.3430000000000000	0.0020000000000000	0.1660000000000000	-0.2250159082979471	-0.4540620268706522	0.1303195522731769	0.2859581457952490	-0.4565027841378234	-0.3562292957598873	-0.4979649976318272	-0.3495373267853330	0.3968059920513257	-0.1782907578679838	-0.3478189564553131	-0.3181778528893892	0.1454975368139137	-0.1510689947804311	-0.0961146103336024	-0.1554795531288523	-0.4759730970265869	0.4696218664482876	-0.1645195017108983	0.2946356411034239	0.2930000000000000	-0.1770000000000000	0.0320000000000000	0.3560000000000000	
0.3960000000000000	-0.2900000000000000	0.2760032980126430	0.1919985914550749	0.0500375752652459	-0.2100739914831070	0.2937405901087070	0.3464173256764474	-0.1587620900275246	-0.1973344007922130	-0.4772308857249762	-0.1684062048886928	0.2171483439674138	0.4422776058151477	0.1815506448322051	-0.0071826226950471	-0.4810302187413068	-0.4282430025845576	0.3121998519802333	0.4527079897944889	0.0897633494076583	0.2904713738794274	0.1173142481658085	-0.3170877658570225	-0.4341201904242701	-0.3840187646531496	-0.1120000000000000	-0.0750000000000000	
-0.3990000000000000	0.1100000000000000	-0.0499892398565242	0.4819206308305507	0.1202300492136399	-0.3099426233040646	-0.4685640704881748	0.2280110945995469	0.0602076689623764	0.3689622339236032	-0.2420758249881696	0.0639481943604895	-0.4057508077235221	-0.1290329020247663	-0.2060917896687844	0.3105323365025244	0.3159097378994641	0.2044688466953530	0.3431376496268850	-0.0731803940874570	0.1700504244459968	-0.2773315967091213	0.3541051575905894	-0.3183180798954338	0.3173855469350812	-0.3710255447015788	0.2530868658240787	0.1790000000000000	
0.1130000000000000	0.0999962044959777	-0.2479816640363726	-0.3529152733253538	0.3639390749270547	-0.3662787746094724	-0.1958248797223861	0.4129818419898024	0.2585440056247233	0.4486796490000389	0.1983949850016620	0.1671456492951126	0.2090608152285008	-0.2917459667427515	-0.1701375010235628	-0.2472285507796498	0.3626413621870863	-0.0100226752837808	0.4486991791622250	0.2146692358501441	0.0356251846258956	-0.2466189669737169	0.1959999361496434	-0.1357562171215885	-0.2849587160435176	-0.0212013069833222	0.2646183696248223	0.0095528410829941	
0.4460000000000000	-0.4350000000000000	-0.1200033257129536	-0.3362093143940835	0.4217654705640921	0.0166159133329293	-0.2391384572753940	-0.4875335392748134	0.0163806385715521	-0.2175348589340544	0.2945809988406243	-0.0574224317754645	0.2397356541960526	-0.2668503341971646	-0.4406093012198580	-0.5023288213503890	-0.3313460369310279	0.0792285223891911	0.2738280348610072	0.0444982798742694	-0.4094737598243101	0.0080784609307815	0.3104404918413585	-0.1912696101914685	-0.0467035394696349	-0.0107313090774240	0.4319335173075710	-0.4206223493464914	
0.4880000000000000	-0.1789985995830036	0.0978409737132933	0.0971227944402447	-0.3179876423531715	0.0555555516133294	0.2127444141382996	-0.3353731418223023	0.3122571283587622	-0.2373516490986696	0.4960227311045480	0.4756163911971598	0.3176042725759210	0.2083713922239068	-0.5738170014763732	-0.4616756269576942	-0.6069357441264420	0.3310240164703160	0.2588517565546528	0.2949689512283612	0.3641288215795420	0.0382588599095285	0.3673098075231172	-0.1833757947246926	0.2070740750383660	-0.2096195675173053	0.3753805810561828	-0.3292588339411460	
0.1809458288102982	0.3789066919145382	-0.3913597951681946	-0.2937928963471179	-0.2866101628370811	0.2507519905519329	0.4060111402782803	-0.2816897993229068	-0.3563554926446254	-0.2686257922621170	0.2419022119849484	0.4878695523519554	0.5206508304271289	-0.5070525766223728	-0.2483613991345243	-0.5192016195154525	0.1073426533152701	0.2780030305576950	-0.3310081129457664	-0.1928067811608487	0.0934576920700797	-0.0754194134580037	0.2957770820812123	0.0473724091391595	-0.2562762571882587	0.2871448916984235	-0.2553583337701746	0.4564630823834606	
0.1407613534002436	-0.1559556152711127	-0.3715487276758122	-0.4005274493171510	0.1301576886307630	0.2734259372952996	0.0931032020808731	0.2221651154070792	0.6200976805671441	0.5306452075155709	-0.0431924528819905	0.7601623112884222	0.1789363747981313	-0.0528945497728659	0.0653904436110149	0.1406437321004972	-0.2997082479590162	-0.1140169350635505	0.1987337211980786	-0.1112843659853918	-0.2532079574915200	-0.1974322192860309	0.0558282084853489	0.5086550336336206	-0.1446791504823379	0.0846693402933579	0.4425088391733532	0.1539980605171155	
0.4899977021478644	-0.0600987771353680	0.4880945429066817	-0.0385952651379782	-0.1854103057714807	0.1726045200253404	-0.3162159264520595	0.2450567517780317	-0.1583032802214323	0.1222443493698940	0.5644327920990806	0.9163840730681255	0.7734038774882814	0.1103135166191554	-0.4250449548730701	-0.5195919746597703	-0.1326003195868522	0.1636307202178990	-0.0442148649991661	0.1549072376723169	-0.2342127031447030	0.3659274070073126	-0.0653442980142271	-0.3376525276727318	0.2601464215497314	0.3654001285228043	0.0788219924180900	0.3451829210934216	
0.1830757006803393	0.0496261484678075	-0.2466073820426871	0.0312352275465842	0.0729066471612554	0.2848536641758198	-0.0633970823379252	0.3283474507199226	0.0293501687737785	0.0693181154490025	0.1057310859131237	0.3111193349113162	0.5672249891846187	-0.2186325587304414	-0.5669879714971172	-0.5686041103426344	-0.5581229339918662	-0.4746559646052164	-0.5211429036272877	-0.3081282071490271	-0.0700539548063343	0.0352683299221593	-0.5658718919250662	-0.4004178191543367	-0.1742827806170462	-0.1822727917306981	-0.0117128627701928	-0.1883694705070164	
0.3500054839440396	-0.3030250588965418	0.0030951484217875	0.0795520171532826	-0.3020851233679761	-0.3487730958173532	0.3582131668218951	0.5015346694570160	0.4572258430657655	0.4765080976068127	0.0798387789280744	-0.0220845523221730	-0.0588201278968114	-0.4368203245765979	-0.7825858907229440	0.0706708391814583	0.3563453654804430	-0.3028617434489656	-0.3431718593471053	0.1094873845315976	-0.3979877682675369	-0.0371643413720534	-0.5269872093818309	-0.5801436458266227	0.3956047584416194	0.0173526246069332	-0.1970672199930303	-0.4599114951302768	
-0.2170017575500661	-0.2942712337884017	0.5100426424486924	-0.3174205321050733	0.3790674838118915	0.1444224019923466	0.4932020151590992	-0.0084591500012559	-0.2470169061083589	-0.3469588210843407	0.2719299414813325	0.4331582821404735	-0.3350554894031720	-0.4234278431100900	-0.3266693143725592	-0.5700558128496884	0.2009224172542978	0.2345095451053964	-0.1455981810339742	0.1002286584838891	0.0268820480348840	-0.2697988502691835	0.4476015542491024	-0.4493416010345881	0.0859542349480032	0.4026196554737616	0.2361350542747600	0.3827900186122067	
-0.3140009956997859	-0.4027299751936272	0.1554454861413527	-0.3913934399665008	0.3718268132999832	0.1333222561641298	-0.1783355437592670	0.5894767236123147	0.0634347098295374	0.1321115471926514	0.3777301871433740	-0.4515001888996227	0.1817057122111931	-0.6116447811741912	-0.2323299460482124	-0.4163310550883636	-0.1157212220403405	-0.1937957190682155	-0.5719925435846268	0.2879032949468139	0.1113195184167071	-0.2556379734925963	-0.1832891606462660	-0.2102380564436903	0.1579410633899700	0.0248025088946491	0.0305264488095075	0.0712820826872634	
-0.2429363126491864	-0.1250104689174782	0.4284113547461453	0.1686949286254384	-0.0891376819200708	-0.3378040038246320	-0.1045078520684440	0.0259508955620602	0.3386181090215004	-0.1074214565147482	0.0545604898185461	-0.0210322870057243	-0.6512774379189721	0.1187719096667113	-0.3384821014580104	-0.1726901016012717	0.1576362326192174	0.1911459848598019	-0.0440465479188255	-0.2511043774776615	-0.1003806788795242	0.3472380076132279	-0.2376290066671537	0.6508709737972328	0.0728919180939222	-0.0099172063524148	-0.0188876601227527	0.0657520132289702	
-0.0439863554154252	-0.3048758523379903	-0.0565501704177774	-0.3008013399004496	0.0951762097970498	-0.1693024215010608	-0.4529765498113918	0.1071104347674402	0.3765018447893758	-0.1542742588010856	0.0531217982944757	0.2306475161118909	-0.2952805465464056	-0.4711865735123354	0.0689104004739522	-0.3575436514189598	-0.0538278626898070	-0.0954092713466202	0.2088388762460332	-0.1551438658981208	-0.1438271980287668	-0.1416711345616561	-0.0412823676375494	0.4549632057560325	0.0735926024490041	-0.1585642557238960	-0.3665625874788916	0.4882793508160826	
0.4689588068812567	0.3434238931721846	-0.1832218019285856	0.0596193372818877	0.2216618831763237	-0.0689015430116435	0.0754618748187504	0.3821170248293989	-0.3568271319777173	-0.4123826462976281	0.2946965488469975	0.0804091290756297	0.3668186212026824	-0.0233813820503823	-0.5871632513002739	0.1028019551894450	0.0060857029291074	0.1760966343444525	-0.0592035455692861	-0.2131315228665760	0.1181577060135440	0.1621970775817831	0.1634543977847898	0.4904058078538260	0.5160224392784453	-0.4173702284178298	-0.3801747142061112	-0.3063667017130063	
0.1550000000000000	0.3515338187716912	-0.0482763514072035	0.4478007022911537	-0.2403088424427680	-0.1800029695663868	-0.1367224051213135	-0.2837661600431593	-0.0777926738765117	-0.2936510967336949	-0.1601933676249119	-0.4342198820827912	-0.0643450489415617	-0.7082575902054242	-0.0026234528757934	-0.4958291573477945	-0.0475567784468585	-0.0510580333193810	-0.0029911886459541	-0.2750287070567576	-0.4441373819249623	0.0738422642873693	0.0876584533733187	-0.2526371086384634	-0.1164348041394103	-0.1636455276947875	0.3287898449991658	-0.1996036412430507	
-0.0041293781453000	0.3329274665757723	-0.2727152279708294	0.3885169753446074	0.4360242268240851	-0.0991581757409899	-0.5465995076995652	0.0964202283981429	-0.1718516551254793	-0.3627366182664273	-0.4465746872779622	-0.5451809677474889	-1.0248625911932476	-1.1595627226080609	-1.1125413833906344	-0.6623412675006918	0.0517884622831693	0.3479807429118927	0.3373543689451601	0.0844466855228608	-0.0293399439331401	0.3750876283031084	-0.1547176163210174	0.1263764655482627	0.4386479765094154	-0.1627570450120597	0.3708426065350089	0.3004261809099661	
0.3650000013952779	0.1867193048782677	-0.4610135108837083	-0.1715212908424661	-0.0721142593117165	-0.1217620200588033	-0.7078324182365201	-0.6281715685344046	-0.3463188077966928	-0.0228558144620338	-0.5291568540867304	-0.3962926070502600	-0.7585730220335598	-1.4878438657421487	-0.8396361901053535	0.1659206170629040	-0.0236948568148039	0.1986656016665496	-0.1977321696818024	-0.0290104237882888	0.0802645820971716	0.2993156758429657	0.4476796999824282	-0.4151557482728351	-0.3676103401105338	-0.3396332567234444	-0.4667853582158998	-0.3174085422804929	
0.1580000000000000	-0.2054967639879490	0.2319074037444565	0.5380891420086240	-0.1478952531318180	0.0380228448120143	-0.4286341624238246	-0.4211876185334364	-0.1323212012164026	-0.2921835955582426	-0.4598325276716356	-0.4231033265800150	-0.4443377148222596	-0.2403122461210672	-0.1164040774992994	0.1363211914373257	0.5691095104806050	0.3368224857473346	-0.1554356286188169	0.1904270858413866	0.1627721999226820	-0.2314325242450288	-0.3260992609840898	-0.2567890623808601	0.0013850745912781	-0.1900703391026541	-0.1426113950451458	-0.4258481138566379	
0.4870030943283530	-0.4062387435163087	0.4773018351805964	-0.1124632531785362	-0.1211841973004521	0.2495366171526635	0.2225262554232420	-0.2238981205906974	-0.1502004575650104	-0.4196677251720822	-0.3073863346463034	-0.0765777476706401	0.0933687371290353	-0.2867856774567251	0.2674564595148950	0.6657621082747625	0.7166888365863922	0.0809233505527744	0.7769073593479985	0.4251544153936155	-0.3298257283406637	-0.3228874031697291	0.3454300649719715	0.1417538658342095	0.3297892162445447	-0.3831925648607626	0.3238096929390491	-0.3409410112760446	
0.0180029976305921	-0.2800029298174684	-0.4678296886003828	-0.1847662621587704	0.0231223803221637	-0.3028798083200141	-0.3609678945643460	-0.4500542818279278	-0.2569133522267761	0.0910157799059138	-0.3296232228306321	0.0619148818498929	-0.3132868533123861	0.0246613970627919	0.1958715706016962	0.7411165927048218	0.4667029993207303	0.0739738192799870	0.0405219998621542	0.1260896897089339	0.0661904714382421	-0.1350772101559333	0.2309139980390508	0.3929383737317061	0.0107065609618558	0.0217952824850065	0.1091476259566351	0.3271089022596101	
0.1370000000000000	-0.3140000000000000	-0.0847425645654532	0.3323908775497066	-0.3077279435585137	0.1911118054486430	0.5057576576606909	0.0352000745899642	-0.1569832290707882	-0.0253952674007513	-0.2366789248136968	0.1034360850591273	-0.1431253674859480	0.3281802980535265	0.6198166162833826	0.6355222908213076	0.5538791418933481	-0.0926601918011567	0.5709273595633356	0.6128457568094039	0.2192068653216666	-0.1591569574980688	-0.1301326357686458	-0.4273113438155141	-0.1742136064536596	0.4034353454304592	-0.4439086448155488	0.1560000000000000	
-0.4380000000000000	0.1160000000000000	0.0264652464599526	-0.3623910033852662	-0.0481958089890052	0.4943555500201676	0.4303630827205349	-0.3605696358706540	-0.0590328349053944	-0.5267848416126747	-0.0223642559296620	-0.2826282132315835	0.4917077548172187	0.1089056202022047	0.3821953385333469	0.2647084365125409	0.5412720435789525	0.5728498620061087	0.0567960817766027	0.3726902075004823	0.1157770681403214	-0.0157815245929599	0.3284732394911509	0.4836703697054711	-0.0729855184065581	-0.3828825122019135	0.2329830873657757	-0.0870000000000000	
0.4170000000000000	0.2930000000000000	0.3727818878345636	-0.4361504276145347	-0.3242666266379206	-0.4368889419421901	0.4831525474923418	0.0033750188509782	0.1720989823655723	-0.2599876620946168	-0.1344984534055057	-0.4083667278123154	0.4158078472453793	-0.0637532304398371	0.5223084241582785	0.5423498089202921	-0.2996210622942826	0.5339296425056642	-0.2450580541280759	-0.4170923278293389	-0.1547496982848313	0.4805842665095619	0.4033345427230990	-0.3507185362649725	0.3277619221360550	0.3029382444776298	-0.4100652186979480	0.4120000000000000	
-0.2110000000000000	-0.2470000000000000	0.4790000000000000	-0.2009458427989494	-0.1768676700842473	0.4007929986758024	0.0966262975068644	-0.1403694034031938	0.1485649351274798	0.1893328457647541	0.1766472485762276	-0.0994834120869218	-0.2659110576129157	-0.3048703904636219	-0.0392774873472693	-0.2439879507487330	0.5815283326213261	-0.1397771190138614	-0.0295189259393857	0.0543265310504141	-0.1504968768586216	0.0341143108902446	-0.1731112473859538	-0.0679381326146496	0.1949527838745493	-0.3209849354179726	0.1610000000000000	-0.3560000000000000	
0.1590000000000000	0.4610000000000000	0.4070000000000000	0.0760000000000000	-0.0280499376963709	0.1442030170662053	0.0906288594278679	0.4690866386623651	0.1278021469871917	-0.2997231868702962	0.3097726398062396	0.0310681083119209	0.3258320857893760	-0.2876848965327971	0.2027380266512486	0.0301159559867082	0.4555698436563222	-0.3473966654565066	0.2522101302275451	0.1155612827664246	-0.1990866022328854	0.2280438522068300	-0.3774292049035260	0.0264526620564761	-0.0940000000000000	0.4830000000000000	-0.0550000000000000	0.0740000000000000	

0.1910000000000000	0.0880000000000000	0.0380000000000000	0.1640000000000000	-0.3960000000000000	0.3770000000000000	-0.1470000000000000	0.4420000000000000	-0.4960000000000000	0.1230000000000000	0.3520000000000000	0.1250000000000000	0.1107746261691664	0.3414500291650069	0.2239371487214989	-0.3510026188032709	-0.3650000000000000	0.0900000000000000	-0.3540000000000000	-0.1720000000000000	0.3550000000000000	0.3040000000000000	0.2410000000000000	0.4090000000000000	-0.1190000000000000	0.2790000000000000	-0.3980000000000000	-0.4170000000000000	
0.1920000000000000	0.0320000000000000	-0.1880000000000000	-0.4010000000000000	-0.3390916076648299	-0.4532870787941290	-0.0966292109306005	-0.2131708609183623	0.0635063107890283	0.4557585421660975	0.1186206555234591	-0.3642921863293702	-0.2756047571383700	0.0738197416617210	-0.0381607656640255	0.2543463459301863	-0.0649490727599969	-0.0472524413989628	-0.3604905445804032	-0.0656893276054974	0.2428878737854324	-0.3837484639499778	-0.2987948068128980	0.1964092143049015	0.1160000000000000	-0.3200000000000000	0.3150000000000000	-0.4360000000000000	
-0.2740000000000000	-0.0280000000000000	-0.0208612457860342	0.0927785622381901	-0.0194690138033577	-0.4952722260236833	0.0349909650113444	-0.1730841393806569	-0.4011882925833880	0.0890926882607944	0.2360705228056177	0.1290357442008794	-0.3746220210908729	-0.5122730377173237	-0.0549658712237844	-0.1909299842408364	-0.5029360180568504	0.0233932631363760	0.3958962154198904	-0.0849779579288715	0.4686816434625588	0.1258110909912964	-0.2690425603759293	-0.4497543863793844	-0.3332859399401399	0.2440749951902107	-0.1380000000000000	0.2690000000000000	
-0.4510000000000000	0.0180000000000000	-0.0340699867710315	0.0570339313774523	-0.3590303751257253	-0.4463005373750543	0.0902623344673487	-0.3232422521921255	-0.3191452812837461	-0.2614914476511202	0.1282722234593267	-0.4737181544278325	-0.2820203882667564	0.1263853343371355	-0.1559004031188296	-0.2730304345949578	-0.2145469093444768	-0.0260295414980560	-0.3635730014861515	0.1061689755862263	-0.3809012300903146	-0.4821773815784616	0.1240910348008686	-0.3348531307671864	0.2877842684463418	0.1748350999655876	0.1004643460548585	0.0790000000000000	
-0.2760000000000000	0.2279828820639362	-0.2447875032927922	-0.3467388738664748	-0.0938673627486850	-0.2504499975034251	-0.1894197282122779	0.2494159718289309	-0.0556950808592068	-0.3077727472724035	0.0878658961556483	0.0597167369213473	-0.3313167274352323	-0.3882829945138189	0.2847838701106791	0.1864558696334660	-0.4366055748296746	0.3722264039188454	0.5676029249248857	0.0851128160298826	0.2806876941895969	0.2300915982240432	0.3235177440609887	-0.2170874322601778	0.1053618161152785	0.4583689929268572	-0.4093787155540256	-0.2236677430457752	
0.3150000000000000	0.0790000000000000	0.3361255616671877	-0.1160170742521871	-0.2579179283363036	0.3583613197886221	0.3235709455461417	0.3507223787014709	0.1715372809198117	-0.1230329566333668	-0.1041656951350437	0.4636249580482655	0.2325761217387168	-0.4216202435219640	-0.0484487028313044	0.0495761745416845	0.5101392638036135	0.6108177268609642	-0.0054059916305455	0.4999328732054868	-0.1757168183374488	0.2697541918874202	0.6200254441438486	0.1519357711009885	-0.0098242316065664	-0.1014696948981675	-0.1613136664021946	-0.4464260343306387	
-0.4060000000000000	0.0920022068451981	-0.2243148000437466	-0.3944256335797329	-0.5370178500424079	-0.2492181400440717	-0.3159423857460489	-0.4402583345211293	0.4412593192878894	-0.3471486906740434	-0.0928996457128976	-0.4479514932717961	0.1496592825109908	0.1551244209919022	0.1665944162141902	0.2789245162539545	-0.5313734573689218	-0.4786412363420029	-0.5942661471192460	-0.4619349391993606	-0.3441307947857080	0.3648109976973147	0.5651814451866293	0.4450911058123613	0.1279265672986009	-0.4199128923410367	-0.1493858657806051	-0.2441403012877595	
-0.1340149075812945	0.3846184051219848	-0.0502534595781073	0.1869623784957415	-0.4882437226030000	-0.3498602832208005	-0.0463190614006346	-0.5610077656417177	-0.0886560928162816	0.2075611019973178	-0.5891752313687609	0.2314411121295765	-0.3969510245523894	0.5045569677831182	0.2904943914492294	-0.6016934549435201	-0.7071074034903034	-0.2463587902969266	-0.4655728250047107	0.2006144923462227	0.0650785268084995	-0.0613841201805927	-0.1961798835036795	-0.0155360489937324	-0.3692483390328070	-0.1896527047228686	-0.1403351592215966	0.2792385357131411	
0.3780758306352681	-0.0952263874764277	-0.2037754035790239	0.1486196772436863	-0.2501517656508092	-0.4200392683320111	0.0717575791005311	-0.6122059506641876	-0.3973551431194505	-0.0606771343881821	0.0216548090130108	0.4814371200710565	-0.2622390819791593	0.5770540158532150	-0.2251574849370721	-0.2902722985664312	0.0398446927274210	-0.2961240655781945	0.3452936898028027	0.2880152719646524	0.4387596387141410	0.1994390807068513	-0.4045641827837577	-0.3728969579124938	0.0547514615601362	0.3349259018769153	0.3795834593969389	0.4333268492135265	
-0.3910196674028416	-0.4054745501923873	-0.1276346285853718	0.0159744554456449	0.0888479303881571	-0.1042979260183118	0.2343332545272931	-0.1731527518009053	0.0199890936307712	0.2093541726496734	-0.1476928505043244	0.2381399682729994	0.5739723448297510	-0.0747809791344601	-0.6351568066829537	0.0888071963382958	-0.4127549429346620	-0.0238821167720115	-0.0241528283192570	-0.5004707635571684	-0.0299132585552796	-0.2077593549214379	0.0428123754725574	0.4119761174530260	0.0393228434541869	0.4622614413362112	-0.1343092923378027	0.2554776313602770	
0.1849833407110222	-0.4782248265391913	-0.3027821959639291	-0.2355985749119794	-0.2522697708438149	-0.1062314813145771	-0.3733169649158983	-0.3244027445140056	0.1313328446116275	0.5183233528272768	0.0866645958512220	0.6726850969507613	0.0278476735565418	-0.2272039055943005	-0.1139580250191299	-0.1105750555639146	-0.4416967415554601	-0.3848920405672107	-0.0006084842752842	-0.0798781379439596	-0.3979027680543725	-0.4581586807308096	0.1453617351745909	0.1476117278459170	-0.1469034014848291	0.3584119809078830	0.4146042089855136	-0.2687475173897063	
0.1749120275471027	0.2340520219344146	-0.0976025697833818	0.4122034698445246	-0.0238379270348193	-0.4707089710804293	-0.4588138439612364	-0.2042602753671384	-0.1718285670399185	0.2509723799550512	0.0078731987324012	0.1884053899920609	0.4581053542424145	-0.0000824827958677	-0.4618495306979550	-0.3935888442922296	-0.1451025019488877	-0.2997706358633437	-0.6658109600862194	-0.4488193564822347	0.0516178676766499	-0.1256878516573871	-0.5466367157681835	-0.2975050700075413	0.1301235403766858	0.1035432652734861	-0.2722532696266999	0.0694701865685779	
-0.1240358260785972	0.0270197828978580	0.2122023061396862	-0.4993050030452528	-0.2657546415930064	-0.1009121001707493	-0.4464123395457641	-0.0143418091312310	0.4931475150119469	0.0048273357688762	0.6534649324235432	0.5725711969164675	0.0441030735244172	0.2759570346626084	0.0249204758622864	0.3148137587284811	-0.6014483576920269	-0.0404245643383204	-0.2927303705366724	-0.3462671333962414	0.0097289826153958	-0.5519583412093545	-0.2152255016328667	-0.3748532334513454	0.1839163678697256	-0.3262358096160891	-0.0844461598313189	-0.4187231206892042	
-0.1109955386032492	0.2349993830180366	-0.4930541676154753	0.3610760549867541	0.1570856318081773	-0.3038991576743888	0.0258743318473837	0.2018473261817899	-0.1441604002799372	0.1511111263757926	-0.1132446796564355	0.4302708744879382	0.5624825624043021	-0.0778284136609478	-0.0970559108104306	-0.5122203145606300	0.1074374288351088	-0.5474682262656645	0.1534887461339930	0.1638487497214207	-0.3868704210349188	0.3879811626761732	-0.0329672304624401	-0.1047209654375542	-0.3216425351466961	-0.4818998241409200	-0.1753658108628312	0.1720216661925552	
